static const float l1_weights[] = {
  -0.2261449694633484f,
  -0.9694076180458069f,
  0.020560266450047493f,
  0.5965495705604553f,
  -0.17622457444667816f,
  -1.2215096950531006f,
  -1.8693606853485107f,
  -6.461954593658447f,
  -2.6152329444885254f,
  0.6616073250770569f,
  -0.22115759551525116f,
  -0.02112007513642311f,
  -0.03150263428688049f,
  -0.09769841283559799f,
  -1.0965663194656372f,
  -0.6629695892333984f,
  0.9660104513168335f,
  -0.8098378777503967f,
  -0.0588034950196743f,
  -0.01484927348792553f,
  -0.0982566699385643f,
  -0.13440755009651184f,
  -0.3155934512615204f,
  0.11281026899814606f,
  -0.30352309346199036f,
  0.07395895570516586f,
  -0.1555001586675644f,
  0.11432943493127823f,
  0.04651334881782532f,
  -0.062402158975601196f,
  -0.03307616338133812f,
  0.428068071603775f,
  -0.03311985358595848f,
  0.222248837351799f,
  -0.16163252294063568f,
  0.18711765110492706f,
  0.3828021287918091f,
  -0.1771513968706131f,
  -0.13226084411144257f,
  0.2162024974822998f,
  0.11251577734947205f,
  -0.06464086472988129f,
  0.07486432790756226f,
  -0.11019943654537201f,
  0.09761925041675568f,
  0.13835273683071136f,
  -0.303924024105072f,
  0.036321382969617844f,
  -1.2245101928710938f,
  -0.9135617017745972f,
  -0.4812934994697571f,
  0.19682931900024414f,
  0.05237007141113281f,
  -0.2825619578361511f,
  -0.19198715686798096f,
  -0.816175639629364f,
  0.4960089921951294f,
  -0.2622479796409607f,
  0.02710905857384205f,
  0.21321547031402588f,
  0.010979892686009407f,
  -0.12672431766986847f,
  -1.0596308708190918f,
  -0.20112909376621246f,
  7.684361934661865f,
  1.2639174461364746f,
  -0.8961712121963501f,
  -0.36540037393569946f,
  -0.977664589881897f,
  -1.528777003288269f,
  -1.636656641960144f,
  1.158136010169983f,
  1.0673327445983887f,
  1.1770809888839722f,
  -0.4193507432937622f,
  -0.21999232470989227f,
  0.003306163242086768f,
  -0.10676202923059464f,
  -1.384917140007019f,
  -0.5923560857772827f,
  -0.007396965753287077f,
  -1.9564253091812134f,
  0.06603890657424927f,
  -0.09270770102739334f,
  -0.2150735855102539f,
  0.23296017944812775f,
  -0.18637967109680176f,
  0.19099865853786469f,
  -0.7212569713592529f,
  -0.12614157795906067f,
  0.07162049412727356f,
  -0.00977871473878622f,
  0.028862396255135536f,
  0.03487619012594223f,
  0.0045072417706251144f,
  0.0942983403801918f,
  0.23631015419960022f,
  -0.07690909504890442f,
  -0.20987659692764282f,
  0.23245801031589508f,
  0.2020149827003479f,
  -0.07885964214801788f,
  -0.017905615270137787f,
  -0.20290859043598175f,
  -0.15402120351791382f,
  0.14854884147644043f,
  -0.011206361465156078f,
  0.1698969453573227f,
  0.20444399118423462f,
  0.3411915600299835f,
  -0.26112693548202515f,
  -0.21152521669864655f,
  -2.3801636695861816f,
  0.11396025866270065f,
  -0.22057093679904938f,
  -0.09610433876514435f,
  -0.10175654292106628f,
  -0.296404093503952f,
  0.4645494818687439f,
  -0.06766039878129959f,
  0.9535943865776062f,
  -0.43641895055770874f,
  -0.04903790354728699f,
  -0.09168226271867752f,
  0.1153869777917862f,
  -0.4233610928058624f,
  0.07716558873653412f,
  0.5904780030250549f,
  -0.17005681991577148f,
  0.3164913058280945f,
  3.6476850509643555f,
  -1.0625135898590088f,
  0.0943848192691803f,
  1.445279598236084f,
  1.7701295614242554f,
  2.5345094203948975f,
  -1.586841106414795f,
  -0.5003049373626709f,
  0.44238781929016113f,
  0.23988434672355652f,
  -0.7649280428886414f,
  -0.3557683527469635f,
  1.5201454162597656f,
  2.7630929946899414f,
  1.6499218940734863f,
  -0.553565502166748f,
  -0.10207977890968323f,
  -0.671523928642273f,
  -0.19340303540229797f,
  -1.045684814453125f,
  1.0604767799377441f,
  0.1695670634508133f,
  0.41699257493019104f,
  -2.038877487182617f,
  -2.4851653575897217f,
  -2.0444867610931396f,
  -0.6855721473693848f,
  -1.5522587299346924f,
  -0.11738065630197525f,
  -0.3587643504142761f,
  -0.017609139904379845f,
  -2.3911373615264893f,
  -0.5940380096435547f,
  -1.4625910520553589f,
  -1.0231335163116455f,
  -1.8706053495407104f,
  -0.5481464862823486f,
  0.21387560665607452f,
  1.4858750104904175f,
  -0.8696633577346802f,
  -0.7853161692619324f,
  -0.7754385471343994f,
  -2.0802109241485596f,
  -1.0560879707336426f,
  0.03715238720178604f,
  0.989046573638916f,
  0.9525238871574402f,
  0.8547459244728088f,
  -0.8005332350730896f,
  -0.06609782576560974f,
  0.6541149616241455f,
  0.13137872517108917f,
  0.8430320620536804f,
  0.8205956816673279f,
  2.410187005996704f,
  2.333364248275757f,
  0.822251558303833f,
  0.04120543971657753f,
  -1.1636953353881836f,
  0.4892241954803467f,
  0.1038786768913269f,
  2.969022750854492f,
  2.6999025344848633f,
  2.7628982067108154f,
  -0.5410237312316895f,
  2.36248517036438f,
  0.11031247675418854f,
  0.19372157752513885f,
  0.8446906805038452f,
  1.8308675289154053f,
  2.1332590579986572f,
  1.649665117263794f,
  -1.081504464149475f,
  -0.49447929859161377f,
  -0.24207031726837158f,
  -0.35487136244773865f,
  0.3481510281562805f,
  0.5796343684196472f,
  0.49659842252731323f,
  -3.649099826812744f,
  -0.5956417918205261f,
  -2.536573648452759f,
  -1.1355036497116089f,
  -1.0975313186645508f,
  1.2628439664840698f,
  -0.2111954689025879f,
  -0.3526178002357483f,
  -1.165726900100708f,
  -0.9205717444419861f,
  -1.4211896657943726f,
  -1.2956584692001343f,
  -2.4065587520599365f,
  -0.8557806611061096f,
  -0.10622076690196991f,
  -0.4620099365711212f,
  -0.016828462481498718f,
  -2.0606353282928467f,
  -0.4983252286911011f,
  -2.31075382232666f,
  -0.38521501421928406f,
  -1.6915221214294434f,
  -0.7938680648803711f,
  1.9718201160430908f,
  -0.8019791841506958f,
  -1.2043046951293945f,
  -2.206749677658081f,
  -1.09017014503479f,
  -1.352371335029602f,
  -1.9845784902572632f,
  -1.31105637550354f,
  2.8432681560516357f,
  -1.1871037483215332f,
  -0.012414174154400826f,
  -0.9645289778709412f,
  0.12636472284793854f,
  0.029600463807582855f,
  0.935429573059082f,
  1.6889971494674683f,
  1.174946904182434f,
  1.4419989585876465f,
  -0.19617979228496552f,
  -0.46679258346557617f,
  -0.19724483788013458f,
  0.725822925567627f,
  0.6864753365516663f,
  1.7252118587493896f,
  0.2647832930088043f,
  0.25469183921813965f,
  0.2131013721227646f,
  -0.1302410364151001f,
  0.09219882637262344f,
  -0.04065100848674774f,
  0.18154898285865784f,
  0.6223044395446777f,
  -0.4148200452327728f,
  0.22130757570266724f,
  -0.2238515317440033f,
  -0.3189948797225952f,
  0.08571834117174149f,
  -0.02489090897142887f,
  0.043672993779182434f,
  -0.43403273820877075f,
  -0.029397085309028625f,
  -0.15421469509601593f,
  -0.3169679045677185f,
  -0.17835304141044617f,
  -0.1329084038734436f,
  -0.26063433289527893f,
  -0.22901834547519684f,
  -0.15954457223415375f,
  0.3584452271461487f,
  -0.13957162201404572f,
  -0.16948345303535461f,
  -1.2730704545974731f,
  -1.8789435625076294f,
  -1.0143628120422363f,
  -0.5771933794021606f,
  0.38665008544921875f,
  -0.4106408655643463f,
  0.5589411854743958f,
  -0.5194109082221985f,
  -2.1239535808563232f,
  -2.1831979751586914f,
  -1.4402377605438232f,
  -0.40258416533470154f,
  0.05869312584400177f,
  -0.0917796641588211f,
  0.3558841347694397f,
  -0.6246067881584167f,
  -1.9250030517578125f,
  -1.8892782926559448f,
  -1.023825764656067f,
  -0.010129817761480808f,
  -0.0812082588672638f,
  0.0709851086139679f,
  0.6057900190353394f,
  0.038463935256004333f,
  -1.2107696533203125f,
  -0.5284453630447388f,
  -0.6467205286026001f,
  0.3927396535873413f,
  0.5950692892074585f,
  -0.6850574612617493f,
  2.141188144683838f,
  2.5977742671966553f,
  2.8783183097839355f,
  2.2888479232788086f,
  4.536176681518555f,
  -4.063152313232422f,
  -1.2179969549179077f,
  0.2293945699930191f,
  0.06199115514755249f,
  0.21379244327545166f,
  0.01721634715795517f,
  -0.12332790344953537f,
  -0.2712142765522003f,
  0.4590494930744171f,
  0.591711699962616f,
  0.24610945582389832f,
  -0.22687125205993652f,
  -0.01204874087125063f,
  -0.24484437704086304f,
  0.15828441083431244f,
  -0.019764242693781853f,
  -0.04045449197292328f,
  0.03625975549221039f,
  -0.031476814299821854f,
  -0.46940651535987854f,
  -0.3379809260368347f,
  -0.5338574647903442f,
  -0.09787385165691376f,
  -0.03358025848865509f,
  -0.5391446352005005f,
  0.09456904977560043f,
  0.21064871549606323f,
  0.058523546904325485f,
  -0.004674855154007673f,
  -1.246743083000183f,
  -1.8123743534088135f,
  -0.9498201608657837f,
  -0.279385507106781f,
  0.35641977190971375f,
  -0.2452600598335266f,
  0.30269333720207214f,
  -0.6579676866531372f,
  -2.02468204498291f,
  -1.8343067169189453f,
  -1.2504339218139648f,
  -0.43859001994132996f,
  -0.12041997909545898f,
  -0.16025716066360474f,
  -0.034496452659368515f,
  -0.20925742387771606f,
  -2.150657892227173f,
  -2.6581501960754395f,
  -1.0260077714920044f,
  0.015280910767614841f,
  -0.010555800050497055f,
  0.5912699699401855f,
  0.8501205444335938f,
  0.2497069388628006f,
  -1.2125991582870483f,
  -0.6528594493865967f,
  -0.5075951814651489f,
  -0.40731799602508545f,
  0.7863644957542419f,
  4.241031169891357f,
  -6.861892223358154f,
  5.005140781402588f,
  1.706917405128479f,
  2.8006699085235596f,
  3.238496780395508f,
  6.052567958831787f,
  -7.676803112030029f,
  1.2235231399536133f,
  -0.5791267156600952f,
  2.1789867877960205f,
  -0.3184089958667755f,
  -1.209749460220337f,
  0.19760149717330933f,
  3.3897106647491455f,
  1.1605827808380127f,
  -0.4080619812011719f,
  2.5006656646728516f,
  0.1171645075082779f,
  0.6394850611686707f,
  -2.0248377323150635f,
  0.27925369143486023f,
  1.0094228982925415f,
  4.290767192840576f,
  2.296010732650757f,
  0.3042842745780945f,
  -0.8636035919189453f,
  -0.887559175491333f,
  -0.5326804518699646f,
  -1.9999488592147827f,
  -1.3965425491333008f,
  -0.4604813754558563f,
  0.012040548957884312f,
  -0.6225519776344299f,
  -0.6451947689056396f,
  -0.557872474193573f,
  -1.3872730731964111f,
  -1.5435367822647095f,
  0.005846161395311356f,
  -0.2649526596069336f,
  2.396049976348877f,
  -2.9424140453338623f,
  -1.4271373748779297f,
  -2.0090534687042236f,
  -0.68276047706604f,
  -0.1836196482181549f,
  -0.8907052874565125f,
  -0.4737388491630554f,
  -2.7297680377960205f,
  1.1522533893585205f,
  -0.46836692094802856f,
  -0.7260241508483887f,
  -1.0578807592391968f,
  -2.0375821590423584f,
  -1.4993361234664917f,
  -2.0485379695892334f,
  4.3026227951049805f,
  -1.0674641132354736f,
  0.604221761226654f,
  -0.8338651061058044f,
  -0.22805410623550415f,
  0.22680985927581787f,
  0.36764290928840637f,
  2.76029896736145f,
  1.4648816585540771f,
  2.3955798149108887f,
  -1.974736213684082f,
  -2.67873477935791f,
  -1.6318745613098145f,
  -0.26416251063346863f,
  -2.4847474098205566f,
  5.151504993438721f,
  -0.627537727355957f,
  0.8447135090827942f,
  0.33864399790763855f,
  -0.5904948115348816f,
  -0.2730497717857361f,
  -1.1734384298324585f,
  2.735806703567505f,
  3.1528334617614746f,
  -0.13210898637771606f,
  0.4875597655773163f,
  -3.869802236557007f,
  -1.566934585571289f,
  -0.8109979629516602f,
  0.5936933755874634f,
  3.350475788116455f,
  2.176600694656372f,
  -0.5187692046165466f,
  0.306803822517395f,
  -0.15867246687412262f,
  -0.5200748443603516f,
  0.1766967624425888f,
  -1.207905888557434f,
  -1.634743332862854f,
  -1.4423820972442627f,
  0.5716383457183838f,
  -1.1715614795684814f,
  -2.3658242225646973f,
  -2.3585333824157715f,
  -1.1900558471679688f,
  -0.11827658116817474f,
  -0.724910318851471f,
  1.6593682765960693f,
  0.8555746674537659f,
  -1.1410361528396606f,
  0.2731216549873352f,
  -1.8597290515899658f,
  -1.8226864337921143f,
  -1.6933786869049072f,
  -1.941113829612732f,
  -0.9569181799888611f,
  1.0686099529266357f,
  -1.3049982786178589f,
  -1.3883285522460938f,
  -1.5926170349121094f,
  -0.9604073166847229f,
  -1.6352866888046265f,
  -1.7216644287109375f,
  1.1215400695800781f,
  2.629591941833496f,
  1.3857256174087524f,
  -1.178524374961853f,
  -0.15028339624404907f,
  0.28581544756889343f,
  -2.5519235134124756f,
  -0.5324288606643677f,
  1.5043774843215942f,
  1.2575137615203857f,
  0.46331143379211426f,
  -0.6035069227218628f,
  0.6974775791168213f,
  -0.9393596649169922f,
  0.3562963902950287f,
  1.625011682510376f,
  2.4934682846069336f,
  2.377976179122925f,
  0.35687920451164246f,
  -0.43743178248405457f,
  -0.07842187583446503f,
  -0.4932841658592224f,
  0.6774601340293884f,
  -0.29125988483428955f,
  0.3364946246147156f,
  -7.980758190155029f,
  -0.4733857214450836f,
  0.27825841307640076f,
  -0.10129538923501968f,
  0.12258867174386978f,
  -0.33024656772613525f,
  0.46671298146247864f,
  0.2784687280654907f,
  -1.4581257104873657f,
  1.0998172760009766f,
  0.3453465700149536f,
  -0.09266184270381927f,
  -0.7492430210113525f,
  -0.2174045443534851f,
  -0.25103145837783813f,
  -0.3318154811859131f,
  1.4145315885543823f,
  1.0011337995529175f,
  -1.2302552461624146f,
  -1.0335339307785034f,
  -1.1953041553497314f,
  -1.00803804397583f,
  -0.10052027553319931f,
  -0.19690051674842834f,
  1.628383994102478f,
  0.16422152519226074f,
  -1.0970585346221924f,
  -0.6603509187698364f,
  -0.9438446760177612f,
  -0.9762722849845886f,
  -0.7939900159835815f,
  0.5007249116897583f,
  2.720644950866699f,
  0.08356840908527374f,
  -1.158893346786499f,
  -0.9075173735618591f,
  -0.888960063457489f,
  -0.28326302766799927f,
  -0.19818416237831116f,
  -0.031992312520742416f,
  3.012894868850708f,
  1.207709550857544f,
  -1.1617918014526367f,
  -1.3229358196258545f,
  -0.6256859302520752f,
  -0.044030092656612396f,
  1.0130908489227295f,
  -0.1653924584388733f,
  0.8520948886871338f,
  0.3565274775028229f,
  -0.3888019919395447f,
  1.4972856044769287f,
  0.6065605282783508f,
  0.07206854224205017f,
  -0.9238630533218384f,
  0.22104471921920776f,
  2.3889458179473877f,
  0.2877950370311737f,
  -0.005189964082092047f,
  -0.0813128724694252f,
  -0.40644747018814087f,
  -0.08213631063699722f,
  0.3934324085712433f,
  0.7195202708244324f,
  -3.621262311935425f,
  1.035912275314331f,
  -0.012534184381365776f,
  0.15516893565654755f,
  0.20424509048461914f,
  -0.46354609727859497f,
  0.762697160243988f,
  0.5225138664245605f,
  -10.00267505645752f,
  0.4112294912338257f,
  -0.30210986733436584f,
  -0.05529680475592613f,
  -1.1990783214569092f,
  -0.25570130348205566f,
  -0.6704705953598022f,
  0.09240484237670898f,
  -2.8078596591949463f,
  0.38679319620132446f,
  -1.171492576599121f,
  -0.6133572459220886f,
  -0.8558611869812012f,
  -0.6301952004432678f,
  0.04782648757100105f,
  -0.16436885297298431f,
  -0.8656771183013916f,
  -0.24135474860668182f,
  -1.1140727996826172f,
  -0.8134168386459351f,
  -0.8199808597564697f,
  -0.8215187788009644f,
  -0.5543063282966614f,
  0.058372385799884796f,
  3.2398629188537598f,
  0.04340226203203201f,
  -0.9652883410453796f,
  -1.3171687126159668f,
  -0.516492486000061f,
  -0.32170405983924866f,
  0.0054914760403335094f,
  0.11198496073484421f,
  3.4638636112213135f,
  1.9055535793304443f,
  -0.48829910159111023f,
  -0.2833980321884155f,
  -0.8107290863990784f,
  0.5106037259101868f,
  0.47429999709129333f,
  -0.1883762776851654f,
  6.844873428344727f,
  1.2134989500045776f,
  0.6073592305183411f,
  0.5815221667289734f,
  0.6663084030151367f,
  0.20464983582496643f,
  -0.11849495768547058f,
  -0.059522926807403564f,
  2.2364556789398193f,
  0.6233001351356506f,
  -0.6025705933570862f,
  1.4602762460708618f,
  -0.18233761191368103f,
  0.5859649181365967f,
  0.4690003991127014f,
  0.15635333955287933f,
  -0.8915359377861023f,
  3.457202911376953f,
  -1.623840570449829f,
  -1.367421269416809f,
  -0.745313286781311f,
  -1.011562466621399f,
  1.7406681776046753f,
  1.7290780544281006f,
  2.3222148418426514f,
  1.1386996507644653f,
  -1.514478325843811f,
  -1.9268673658370972f,
  -1.2068079710006714f,
  -2.2268266677856445f,
  -1.1756401062011719f,
  -0.618380606174469f,
  -1.1960870027542114f,
  -1.4656223058700562f,
  -2.8170998096466064f,
  -2.0072379112243652f,
  -0.21204417943954468f,
  -1.1724987030029297f,
  -0.2597677409648895f,
  0.7021018862724304f,
  1.126697063446045f,
  0.39557674527168274f,
  -1.1203449964523315f,
  -1.8328989744186401f,
  -3.2679343223571777f,
  -1.9201726913452148f,
  -1.183713436126709f,
  -1.0968097448349f,
  0.7186211347579956f,
  -0.03365928307175636f,
  -1.9773372411727905f,
  -1.4603310823440552f,
  -1.8348925113677979f,
  -1.5503153800964355f,
  -1.8704770803451538f,
  1.4422370195388794f,
  -0.5366010665893555f,
  -1.4380543231964111f,
  0.6753847002983093f,
  0.5940172672271729f,
  -0.8811205625534058f,
  -1.7332903146743774f,
  2.9750442504882812f,
  2.0586462020874023f,
  0.8248797059059143f,
  -0.9598019123077393f,
  0.6570225358009338f,
  0.07939770072698593f,
  -0.8539854884147644f,
  0.2637157142162323f,
  2.4824881553649902f,
  1.4129115343093872f,
  1.2899507284164429f,
  1.4676719903945923f,
  0.6094567775726318f,
  0.08458669483661652f,
  0.3510879576206207f,
  0.5328727960586548f,
  1.4996747970581055f,
  0.6612770557403564f,
  2.7480173110961914f,
  4.170234680175781f,
  -0.0845588818192482f,
  -0.561053991317749f,
  -1.6191585063934326f,
  0.3557557761669159f,
  1.4760662317276f,
  1.7395607233047485f,
  1.2170768976211548f,
  0.29206040501594543f,
  -0.607830286026001f,
  -1.0330942869186401f,
  -1.0801945924758911f,
  -0.853330135345459f,
  -0.1274295300245285f,
  0.12414804846048355f,
  1.8933738470077515f,
  -0.35913291573524475f,
  -0.5608342289924622f,
  -0.9917712211608887f,
  -2.500063896179199f,
  -1.721623420715332f,
  -0.7443116307258606f,
  -1.1125657558441162f,
  -0.34773197770118713f,
  0.057102661579847336f,
  -0.8524671196937561f,
  -0.9514472484588623f,
  -0.1487220823764801f,
  -1.8946075439453125f,
  -1.1335735321044922f,
  1.0456929206848145f,
  0.7088097929954529f,
  -0.08977361023426056f,
  -1.1720452308654785f,
  -1.4587445259094238f,
  -0.9625788927078247f,
  -1.61319899559021f,
  -0.5262631773948669f,
  0.0571032278239727f,
  -1.2020440101623535f,
  0.9000330567359924f,
  -0.5606850385665894f,
  1.1921263933181763f,
  0.030907252803444862f,
  0.04852483794093132f,
  2.3787412643432617f,
  1.8512853384017944f,
  2.056075096130371f,
  1.2983968257904053f,
  0.7047904133796692f,
  0.0852581262588501f,
  0.493986576795578f,
  -0.9072273373603821f,
  1.639717936515808f,
  3.1803770065307617f,
  0.6160139441490173f,
  -0.02800855226814747f,
  0.2809793949127197f,
  -0.1643303781747818f,
  2.649932861328125f,
  -0.579024612903595f,
  -0.30820876359939575f,
  2.2265281677246094f,
  -0.810623288154602f,
  1.4302738904953003f,
  1.2428004741668701f,
  -0.9689012169837952f,
  0.34177228808403015f,
  -0.30635637044906616f,
  0.23619891703128815f,
  -0.46500495076179504f,
  -0.2984541654586792f,
  -0.32666757702827454f,
  -0.02653573825955391f,
  -0.5902935862541199f,
  -0.3734310269355774f,
  -0.4561252295970917f,
  0.8830864429473877f,
  -0.13657121360301971f,
  0.03906649351119995f,
  -0.6006888151168823f,
  -1.2328500747680664f,
  -0.8895115256309509f,
  -1.0297027826309204f,
  -1.8365190029144287f,
  0.7086452841758728f,
  -0.865833044052124f,
  0.03124101646244526f,
  -0.09486197680234909f,
  -1.054357647895813f,
  -0.9384514689445496f,
  -1.5835365056991577f,
  -0.6956390738487244f,
  -1.4216935634613037f,
  1.2064108848571777f,
  0.5866087079048157f,
  -0.15775896608829498f,
  -0.7437939643859863f,
  -0.7188911437988281f,
  -1.8310494422912598f,
  -1.9651703834533691f,
  -0.32002294063568115f,
  0.2922399938106537f,
  2.389566421508789f,
  -0.0926067903637886f,
  0.04329299181699753f,
  0.1260843575000763f,
  -0.26452523469924927f,
  0.5184754133224487f,
  1.2225353717803955f,
  2.665295362472534f,
  2.434405565261841f,
  0.7229068279266357f,
  2.6214585304260254f,
  -1.4593170881271362f,
  1.5712705850601196f,
  4.039138317108154f,
  -3.5397086143493652f,
  -1.9766342639923096f,
  1.4604301452636719f,
  -0.7614259719848633f,
  0.5259086489677429f,
  -0.12302502989768982f,
  0.9632993340492249f,
  -0.2886597812175751f,
  0.39218130707740784f,
  2.768118381500244f,
  -3.1297192573547363f,
  0.9476511478424072f,
  0.8050227761268616f,
  -0.12194077670574188f,
  -0.6388786435127258f,
  0.301095187664032f,
  -1.120320439338684f,
  0.12708508968353271f,
  0.3380108177661896f,
  -0.12696868181228638f,
  -0.1340901106595993f,
  0.05124232545495033f,
  -0.7679567337036133f,
  -0.664703369140625f,
  1.341907262802124f,
  0.1918996423482895f,
  -1.1604695320129395f,
  0.0757707953453064f,
  -0.592868983745575f,
  -1.1273002624511719f,
  -0.8863179087638855f,
  -1.2632776498794556f,
  0.1401127427816391f,
  -1.3293752670288086f,
  0.8605322241783142f,
  -0.26504549384117126f,
  -0.4289338290691376f,
  -1.5323954820632935f,
  -0.8774905800819397f,
  -1.7950315475463867f,
  -0.6838351488113403f,
  0.9568544030189514f,
  0.912935733795166f,
  0.03956283628940582f,
  -0.7667421102523804f,
  -1.7088443040847778f,
  -0.7728327512741089f,
  -0.4942212998867035f,
  0.13036511838436127f,
  0.0021004031877964735f,
  -0.28321292996406555f,
  -1.7804028987884521f,
  -1.2159578800201416f,
  -2.1646018028259277f,
  -4.3752522468566895f,
  -3.065237045288086f,
  -1.4567769765853882f,
  2.0704143047332764f,
  2.4369444847106934f,
  3.281799554824829f,
  -1.0323309898376465f,
  2.7080156803131104f,
  1.8028223514556885f,
  0.646835207939148f,
  1.8117234706878662f,
  -0.4980999529361725f,
  0.7536072134971619f,
  1.8884968757629395f,
  0.33836090564727783f,
  0.9101670980453491f,
  1.3385487794876099f,
  0.6935127973556519f,
  3.133554220199585f,
  0.2515428066253662f,
  1.565640926361084f,
  0.7433239221572876f,
  -0.897753119468689f,
  0.06920281052589417f,
  -0.3057264983654022f,
  -0.6765349507331848f,
  0.882231593132019f,
  -0.9033823609352112f,
  0.7407558560371399f,
  -1.2945188283920288f,
  -1.4250648021697998f,
  -0.9529325366020203f,
  -1.1912492513656616f,
  0.15004964172840118f,
  -1.287158727645874f,
  -2.0076067447662354f,
  0.43803685903549194f,
  -0.0771917998790741f,
  -1.3072965145111084f,
  -0.7034887671470642f,
  -1.2884804010391235f,
  -2.4384145736694336f,
  -1.6256563663482666f,
  0.3250660300254822f,
  0.4669257402420044f,
  -2.2155063152313232f,
  -0.6264005899429321f,
  -1.227339744567871f,
  -1.280293345451355f,
  -1.5165760517120361f,
  -0.6071431040763855f,
  1.3267366886138916f,
  -0.38847362995147705f,
  -0.5587372183799744f,
  -0.6444408893585205f,
  -0.4865083396434784f,
  -0.5502709746360779f,
  -0.9411279559135437f,
  -0.5628977417945862f,
  -0.1874755173921585f,
  3.4519104957580566f,
  0.25094887614250183f,
  -0.5996456146240234f,
  -0.2645476758480072f,
  -1.9817770719528198f,
  0.5659639239311218f,
  2.6378848552703857f,
  0.7482707500457764f,
  1.3883037567138672f,
  1.5270609855651855f,
  -0.4201487600803375f,
  0.24660083651542664f,
  1.666481614112854f,
  0.5975318551063538f,
  2.1571762561798096f,
  3.5310535430908203f,
  3.338421106338501f,
  0.16735894978046417f,
  0.5643249750137329f,
  -0.7980931401252747f,
  1.4925767183303833f,
  1.0014408826828003f,
  1.6215195655822754f,
  2.0447957515716553f,
  1.3399841785430908f,
  1.2517659664154053f,
  0.4980386197566986f,
  -1.8055363893508911f,
  -0.8307196497917175f,
  -0.061920180916786194f,
  1.0636364221572876f,
  -0.4961114823818207f,
  1.6435699462890625f,
  -2.0858640670776367f,
  -0.3953301012516022f,
  -2.968916893005371f,
  -0.4474466145038605f,
  -1.65159273147583f,
  0.40857502818107605f,
  0.2146659642457962f,
  0.43696892261505127f,
  -1.4613772630691528f,
  -1.3676782846450806f,
  -3.224290609359741f,
  -1.413872480392456f,
  -1.1239516735076904f,
  -0.8641331195831299f,
  0.7127292156219482f,
  -0.8187870383262634f,
  1.5398600101470947f,
  -2.8419370651245117f,
  -1.1854510307312012f,
  -3.0842323303222656f,
  -1.1041879653930664f,
  -1.4011285305023193f,
  -1.6838188171386719f,
  -1.8813016414642334f,
  0.9080116152763367f,
  -0.6150907874107361f,
  -2.036025285720825f,
  -2.325780153274536f,
  -1.2564481496810913f,
  0.6866135597229004f,
  0.9411625862121582f,
  3.11352801322937f,
  -1.6511754989624023f,
  0.8578903675079346f,
  -1.6240825653076172f,
  -0.5992465615272522f,
  0.13304732739925385f,
  -0.35217607021331787f,
  2.191887378692627f,
  0.9472541213035583f,
  1.4255820512771606f,
  0.03755173459649086f,
  0.17128543555736542f,
  0.6253838539123535f,
  1.305714726448059f,
  2.902251958847046f,
  1.5717523097991943f,
  2.0270566940307617f,
  0.0848168432712555f,
  0.4234420657157898f,
  -0.3749377429485321f,
  -0.10892228037118912f,
  -0.10994154214859009f,
  0.04604640230536461f,
  0.16073861718177795f,
  2.0224106311798096f,
  -0.27711451053619385f,
  0.2912420332431793f,
  0.1704026609659195f,
  0.11531265825033188f,
  0.03935964033007622f,
  0.2593110501766205f,
  0.23201970756053925f,
  3.01220703125f,
  0.12773635983467102f,
  0.018141336739063263f,
  -0.29368966817855835f,
  -0.05186554789543152f,
  -0.14170217514038086f,
  0.05891876667737961f,
  -0.20520177483558655f,
  3.056119918823242f,
  -0.5402881503105164f,
  -0.54108065366745f,
  -1.2194303274154663f,
  -1.2410717010498047f,
  -0.311210960149765f,
  0.048021554946899414f,
  -0.08801718056201935f,
  2.1784889698028564f,
  -0.6824818849563599f,
  -0.7586832046508789f,
  -1.0589089393615723f,
  -1.0924321413040161f,
  -0.15419119596481323f,
  0.13823996484279633f,
  -0.1407310664653778f,
  1.5680524110794067f,
  0.24530884623527527f,
  -0.8307076096534729f,
  -0.6059478521347046f,
  -0.9991019368171692f,
  -0.27187901735305786f,
  0.09887031465768814f,
  -0.02208169363439083f,
  2.796248435974121f,
  -0.002085093641653657f,
  0.21295784413814545f,
  -0.01707773655653f,
  -0.19464869797229767f,
  -0.2370835840702057f,
  0.5509833693504333f,
  0.06950471550226212f,
  1.7454968690872192f,
  0.5316095352172852f,
  0.06529948115348816f,
  -0.254097580909729f,
  0.06361573189496994f,
  -0.24836906790733337f,
  -0.2981930673122406f,
  0.5133937001228333f,
  -3.6715381145477295f,
  -0.029690569266676903f,
  0.49751612544059753f,
  -0.05433308705687523f,
  -0.009781472384929657f,
  -0.13016358017921448f,
  0.0904819443821907f,
  0.01874098740518093f,
  -4.837241172790527f,
  0.15866829454898834f,
  0.3094143271446228f,
  0.061603348702192307f,
  0.16910570859909058f,
  0.021203339099884033f,
  0.2599128782749176f,
  -0.19002197682857513f,
  -1.1908763647079468f,
  0.39379584789276123f,
  -0.17115412652492523f,
  -0.2530820965766907f,
  0.07672356814146042f,
  -0.050838761031627655f,
  0.044796980917453766f,
  0.05956415832042694f,
  -2.11513090133667f,
  -0.3731265068054199f,
  -1.036274790763855f,
  -1.2220221757888794f,
  -1.1810522079467773f,
  -0.19868037104606628f,
  -0.09100797027349472f,
  -0.11913327872753143f,
  -7.403206825256348f,
  -0.5928422212600708f,
  -1.012099027633667f,
  -1.0843250751495361f,
  -1.1459782123565674f,
  -0.24135549366474152f,
  0.011606824584305286f,
  -0.01698543317615986f,
  -0.4677269458770752f,
  0.8347189426422119f,
  -0.7958662509918213f,
  -0.6742353439331055f,
  -0.987501859664917f,
  -0.18912816047668457f,
  0.14556057751178741f,
  -0.1841539442539215f,
  -4.940866470336914f,
  -0.22525908052921295f,
  0.48724842071533203f,
  0.14998458325862885f,
  -0.13837122917175293f,
  -0.04504189267754555f,
  0.0746714323759079f,
  0.17792269587516785f,
  -3.2516348361968994f,
  0.3122066259384155f,
  0.23237474262714386f,
  -0.0075189657509326935f,
  -0.08968506008386612f,
  -0.10715166479349136f,
  0.06622862815856934f,
  0.3455813527107239f,
  1.566567063331604f,
  1.1073329448699951f,
  -0.570330023765564f,
  0.024478081613779068f,
  0.2825581729412079f,
  -0.5681009888648987f,
  -0.9780213832855225f,
  1.7546179294586182f,
  -0.045177802443504333f,
  -0.02528838813304901f,
  0.016935573890805244f,
  -0.1821385771036148f,
  -0.7320475578308105f,
  -0.4969428479671478f,
  0.4069691300392151f,
  0.38186848163604736f,
  0.4190153479576111f,
  0.5783514976501465f,
  0.09527638554573059f,
  -0.25494539737701416f,
  -0.41617798805236816f,
  -0.16944843530654907f,
  0.04277028515934944f,
  -0.8939061760902405f,
  -0.8991328477859497f,
  -0.1298033446073532f,
  0.13286826014518738f,
  -1.1320273876190186f,
  -1.5815727710723877f,
  -0.35579654574394226f,
  -0.6444577574729919f,
  -0.5855703353881836f,
  -0.007938689552247524f,
  -0.3871665298938751f,
  -0.8253720998764038f,
  -1.343474268913269f,
  -1.6867111921310425f,
  -1.1769412755966187f,
  -0.21730035543441772f,
  0.4743804931640625f,
  2.3288912773132324f,
  1.4339752197265625f,
  -0.5078648328781128f,
  -1.1137902736663818f,
  -0.9411571025848389f,
  -1.3284380435943604f,
  0.49649694561958313f,
  0.14932881295681f,
  2.2292134761810303f,
  -1.2263882160186768f,
  -0.30969902873039246f,
  -0.45397675037384033f,
  -0.08694249391555786f,
  -0.22806908190250397f,
  1.0714445114135742f,
  -0.3720284104347229f,
  5.678633213043213f,
  4.410395622253418f,
  0.20037996768951416f,
  0.8628312945365906f,
  2.200949192047119f,
  2.9643638134002686f,
  1.0727094411849976f,
  -3.5336740016937256f,
  1.2517518997192383f,
  -0.28176942467689514f,
  0.4708586633205414f,
  -0.40616005659103394f,
  0.07219792157411575f,
  0.3161170184612274f,
  0.1712179332971573f,
  0.25150859355926514f,
  -1.0635607242584229f,
  -0.02115059830248356f,
  -0.35328638553619385f,
  -0.11532669514417648f,
  -0.49774739146232605f,
  -0.5116578340530396f,
  -0.46927952766418457f,
  1.1119916439056396f,
  -0.3575684726238251f,
  0.8592081665992737f,
  -0.1189684048295021f,
  0.007759432308375835f,
  -0.7134917974472046f,
  -0.27530306577682495f,
  -0.4291469156742096f,
  0.22943426668643951f,
  -1.5708144903182983f,
  -0.11156327277421951f,
  -0.31979984045028687f,
  -1.7239655256271362f,
  -1.2812336683273315f,
  -1.20215904712677f,
  0.22640986740589142f,
  -0.4394345283508301f,
  0.04124376177787781f,
  0.41376787424087524f,
  -0.9156047105789185f,
  -1.7915828227996826f,
  -1.543447732925415f,
  -0.8720188736915588f,
  -0.07284895330667496f,
  -0.27422502636909485f,
  3.925257444381714f,
  0.24142715334892273f,
  -1.046506643295288f,
  -1.8614943027496338f,
  -1.6339532136917114f,
  -0.8534163236618042f,
  -0.09016169607639313f,
  0.2802160680294037f,
  -1.944771409034729f,
  -0.19122031331062317f,
  -1.8163671493530273f,
  -1.7316070795059204f,
  -1.1804587841033936f,
  -0.12705154716968536f,
  0.46733367443084717f,
  -0.3484348654747009f,
  0.7276584506034851f,
  -1.001226544380188f,
  3.09875226020813f,
  -1.7022498846054077f,
  -5.085870265960693f,
  -1.7345329523086548f,
  1.715244174003601f,
  -0.07185781747102737f,
  -0.31312766671180725f,
  0.10280745476484299f,
  0.10142241418361664f,
  -0.19036605954170227f,
  0.21018733084201813f,
  0.028124382719397545f,
  0.05568714812397957f,
  1.3847726583480835f,
  -0.025637665763497353f,
  0.4449426531791687f,
  0.19588881731033325f,
  -0.18275094032287598f,
  0.24538207054138184f,
  -0.23345538973808289f,
  0.8349862098693848f,
  0.13961826264858246f,
  0.2817269265651703f,
  0.11340334266424179f,
  -0.06779774278402328f,
  -0.16755060851573944f,
  -0.5356389284133911f,
  -0.010880669578909874f,
  0.07614046335220337f,
  -0.0027593104168772697f,
  0.38818642497062683f,
  0.05220293253660202f,
  -0.5192999243736267f,
  -1.4470490217208862f,
  -1.2449089288711548f,
  -1.2569911479949951f,
  0.0065504503436386585f,
  0.01958988606929779f,
  0.48307371139526367f,
  -0.4545101523399353f,
  -0.9080858826637268f,
  -1.733673095703125f,
  -1.634326457977295f,
  -1.4031398296356201f,
  0.042610809206962585f,
  -0.03447699546813965f,
  1.4991830587387085f,
  0.8774909377098083f,
  -1.3476625680923462f,
  -1.6924772262573242f,
  -1.707702875137329f,
  -0.3416772186756134f,
  0.07791487127542496f,
  -0.06063128262758255f,
  4.921532154083252f,
  -0.24348899722099304f,
  0.953016996383667f,
  -0.04335789382457733f,
  0.4113442301750183f,
  -0.19784776866436005f,
  0.2413366436958313f,
  0.19506371021270752f,
  -6.477865219116211f,
  5.29469633102417f,
  0.6533796787261963f,
  0.7408655285835266f,
  0.18166358768939972f,
  0.27292323112487793f,
  0.0725569874048233f,
  -0.05665967985987663f,
  -1.0167256593704224f,
  0.435237854719162f,
  -0.13101288676261902f,
  0.013500633649528027f,
  0.045487180352211f,
  0.0327279157936573f,
  0.1423271894454956f,
  0.46259817481040955f,
  0.2379322648048401f,
  0.38673335313796997f,
  0.06555008143186569f,
  -0.2019401639699936f,
  0.1271316111087799f,
  -0.22860004007816315f,
  -0.055609140545129776f,
  0.25178101658821106f,
  0.3746616840362549f,
  -0.382043719291687f,
  -0.03337046504020691f,
  0.05599265173077583f,
  -0.3917887806892395f,
  -0.22200115025043488f,
  -0.09332403540611267f,
  -0.11082897335290909f,
  0.35040947794914246f,
  0.0486900731921196f,
  -0.5193333029747009f,
  -1.391053318977356f,
  -1.4550899267196655f,
  -1.2403069734573364f,
  -0.24503804743289948f,
  -0.014622283168137074f,
  0.2583651840686798f,
  -0.9117234945297241f,
  -1.1782009601593018f,
  -1.689279317855835f,
  -1.6458978652954102f,
  -1.3168399333953857f,
  -0.054493311792612076f,
  0.08090081065893173f,
  1.5392155647277832f,
  0.2991476058959961f,
  -0.6833244562149048f,
  -1.9346545934677124f,
  -1.929621696472168f,
  -0.3194129168987274f,
  -0.1824607104063034f,
  0.016678420826792717f,
  5.294450759887695f,
  5.60778284072876f,
  0.20266267657279968f,
  -0.5107411742210388f,
  0.38979554176330566f,
  -0.3234540522098541f,
  0.4163874685764313f,
  0.1973191201686859f,
  -7.02768087387085f,
  5.2547607421875f,
  1.5372314453125f,
  0.18554188311100006f,
  0.17170995473861694f,
  0.13882015645503998f,
  0.46728378534317017f,
  -1.0215972661972046f,
  3.6574673652648926f,
  3.9979283809661865f,
  1.4754793643951416f,
  2.651247024536133f,
  1.3898537158966064f,
  2.3907344341278076f,
  1.4554802179336548f,
  1.3458236455917358f,
  -7.104475975036621f,
  -5.132086753845215f,
  -7.411047458648682f,
  -6.1326727867126465f,
  -7.644391059875488f,
  -2.1321451663970947f,
  -2.5452208518981934f,
  -2.5863590240478516f,
  3.437366008758545f,
  0.3807927370071411f,
  -1.0696724653244019f,
  -1.7056039571762085f,
  -0.9074608087539673f,
  -0.5628576874732971f,
  0.6230001449584961f,
  -0.03638222813606262f,
  0.6161448359489441f,
  -1.0462009906768799f,
  -1.2111173868179321f,
  -1.8934800624847412f,
  -1.7361949682235718f,
  -1.4812930822372437f,
  0.5047037601470947f,
  0.539764404296875f,
  1.13767671585083f,
  -0.10165217518806458f,
  -1.3043031692504883f,
  -1.9169632196426392f,
  -1.12272047996521f,
  -0.41015875339508057f,
  -0.4103650748729706f,
  0.9466885328292847f,
  -0.013203943148255348f,
  0.3820571005344391f,
  -0.5812022089958191f,
  -1.2314727306365967f,
  -2.037001132965088f,
  -1.2236014604568481f,
  -0.9314547777175903f,
  -0.20879922807216644f,
  0.5426650047302246f,
  0.7242477536201477f,
  -0.18091049790382385f,
  0.1395421028137207f,
  -0.018467480316758156f,
  -0.05732137709856033f,
  0.5858423113822937f,
  0.3262883722782135f,
  0.5526027679443359f,
  0.5369940400123596f,
  0.7165125012397766f,
  0.1102808266878128f,
  0.7001869082450867f,
  0.3713196814060211f,
  0.10828547924757004f,
  0.5647915601730347f,
  3.9475045204162598f,
  3.746220111846924f,
  2.0138039588928223f,
  2.2057712078094482f,
  1.3308583498001099f,
  2.301544427871704f,
  1.6133509874343872f,
  1.5958784818649292f,
  1.134385585784912f,
  1.789990782737732f,
  -0.3678145706653595f,
  -1.1647789478302002f,
  -0.4378517270088196f,
  0.7562248706817627f,
  -1.0902544260025024f,
  -1.5864757299423218f,
  3.4678287506103516f,
  -0.9237933158874512f,
  -1.1264952421188354f,
  -1.6573289632797241f,
  -1.4660885334014893f,
  -0.705838680267334f,
  0.8857726454734802f,
  -0.34438177943229675f,
  0.965720534324646f,
  -0.5616580247879028f,
  -1.4090731143951416f,
  -1.4241280555725098f,
  -0.8554887175559998f,
  -1.7857016324996948f,
  -0.4272952973842621f,
  1.141048550605774f,
  0.409357488155365f,
  -0.08007591962814331f,
  -1.5555455684661865f,
  -1.812549114227295f,
  -1.8695493936538696f,
  -0.9872042536735535f,
  -0.24332870543003082f,
  1.4145910739898682f,
  0.066142238676548f,
  0.14128758013248444f,
  -1.0340542793273926f,
  -1.5259937047958374f,
  -1.3133777379989624f,
  -0.5484762191772461f,
  -1.1269429922103882f,
  -0.327291876077652f,
  0.9655359983444214f,
  0.5164744257926941f,
  -0.2149989902973175f,
  0.22898583114147186f,
  -0.3005351722240448f,
  -0.3924567401409149f,
  0.29963380098342896f,
  -0.06590379029512405f,
  0.5152391195297241f,
  0.2622922956943512f,
  -0.0950661227107048f,
  0.9222121238708496f,
  0.6506181955337524f,
  0.2560950219631195f,
  0.243192657828331f,
  1.0319072008132935f,
  2.670172691345215f,
  1.525028944015503f,
  2.0586888790130615f,
  0.11721766740083694f,
  0.5037409067153931f,
  -0.6139786243438721f,
  0.18049979209899902f,
  2.3907957077026367f,
  0.536666750907898f,
  -0.08493226021528244f,
  0.009056489914655685f,
  -0.05826893821358681f,
  -4.290124893188477f,
  -1.5062466859817505f,
  0.9449903964996338f,
  1.4329687356948853f,
  -0.03777654469013214f,
  -0.1606479287147522f,
  -0.3610336184501648f,
  -0.3419819176197052f,
  -1.160941243171692f,
  -0.6431218981742859f,
  -1.2210087776184082f,
  1.8119617700576782f,
  -1.3590528964996338f,
  0.7556599378585815f,
  -2.15020751953125f,
  -0.6393042206764221f,
  -0.6435776352882385f,
  0.6733527183532715f,
  -0.6221359968185425f,
  -0.09757783263921738f,
  0.8659093379974365f,
  -2.083157777786255f,
  -1.551332712173462f,
  -0.5205144286155701f,
  -0.836322009563446f,
  -0.760116457939148f,
  -0.8323633074760437f,
  -1.1015357971191406f,
  -0.7800381779670715f,
  0.27945560216903687f,
  -0.27873653173446655f,
  -1.5691934823989868f,
  -0.7699313759803772f,
  -1.6420297622680664f,
  -0.3538941740989685f,
  0.5433214902877808f,
  1.2353242635726929f,
  0.6161032319068909f,
  0.5400744080543518f,
  -1.1612051725387573f,
  -0.292344868183136f,
  -1.6994738578796387f,
  1.1068094968795776f,
  0.6304553747177124f,
  3.9143142700195312f,
  2.6517462730407715f,
  0.16678711771965027f,
  -1.1487864255905151f,
  0.12286987155675888f,
  -0.5746017098426819f,
  0.9770735502243042f,
  1.1246687173843384f,
  -0.10831045359373093f,
  -0.0017181294970214367f,
  2.066746234893799f,
  -1.4874446392059326f,
  -0.1357283741235733f,
  -1.102121353149414f,
  -0.59125155210495f,
  2.267211675643921f,
  -0.13054879009723663f,
  2.6483333110809326f,
  -0.22034995257854462f,
  -1.1821775436401367f,
  0.6290273666381836f,
  -0.8296412825584412f,
  -0.004051570780575275f,
  3.1096036434173584f,
  1.9539074897766113f,
  -2.548441171646118f,
  -0.4190315008163452f,
  -0.4086654782295227f,
  -0.33345213532447815f,
  -0.20876812934875488f,
  0.15447786450386047f,
  -0.27505889534950256f,
  -1.3398412466049194f,
  0.03185003250837326f,
  1.2100037336349487f,
  -1.5134656429290771f,
  -1.1039140224456787f,
  -1.611270785331726f,
  -1.6982691287994385f,
  -0.2517722547054291f,
  0.07450038194656372f,
  -0.07124309986829758f,
  -1.107060432434082f,
  -1.2810513973236084f,
  -1.608763575553894f,
  -1.4969545602798462f,
  -1.1860679388046265f,
  0.650081992149353f,
  0.09799981117248535f,
  -0.6514481902122498f,
  -0.19880418479442596f,
  -1.225135326385498f,
  -1.861951231956482f,
  -1.4804846048355103f,
  -0.5144076347351074f,
  -0.2734503149986267f,
  -1.4164143800735474f,
  2.754366397857666f,
  -1.1655588150024414f,
  -0.5761178731918335f,
  -1.2339638471603394f,
  0.5650742650032043f,
  1.2713735103607178f,
  1.8594268560409546f,
  0.15103566646575928f,
  -0.15446694195270538f,
  1.1346566677093506f,
  -0.7379118800163269f,
  0.534313976764679f,
  -1.7124122381210327f,
  0.7165203094482422f,
  0.09952157735824585f,
  0.011880150996148586f,
  0.086018867790699f,
  -0.11145655810832977f,
  -0.03124716319143772f,
  -0.03321458771824837f,
  -0.010812031105160713f,
  0.052342530339956284f,
  0.10775471478700638f,
  0.05978967994451523f,
  0.16168342530727386f,
  0.03232063725590706f,
  -0.022542234510183334f,
  0.07013672590255737f,
  -0.09196436405181885f,
  0.1586201786994934f,
  -0.04421887546777725f,
  -0.1505707949399948f,
  -0.17036250233650208f,
  -0.011262767016887665f,
  -0.09520833194255829f,
  -0.1461278647184372f,
  -0.004862828645855188f,
  0.032653458416461945f,
  -0.13581599295139313f,
  -0.039676275104284286f,
  0.03842863067984581f,
  -0.09594148397445679f,
  -0.026677072048187256f,
  0.03770814090967178f,
  -0.01972270756959915f,
  -0.10696279257535934f,
  -0.02355961874127388f,
  -0.07728289812803268f,
  -0.008012263104319572f,
  -0.058643002063035965f,
  -0.10316615551710129f,
  -0.03771069645881653f,
  -0.01606788858771324f,
  -0.11306223273277283f,
  -0.07800509035587311f,
  -0.1346888393163681f,
  -0.025849724188447f,
  -0.1026589423418045f,
  -0.017700714990496635f,
  -0.10222333669662476f,
  -0.02268911898136139f,
  -0.046400800347328186f,
  9.852707444224507e-05f,
  0.04322534054517746f,
  0.009963177144527435f,
  -0.04590347036719322f,
  -0.04610910266637802f,
  -0.06797004491090775f,
  -0.022205814719200134f,
  0.04499684274196625f,
  -0.041332826018333435f,
  0.059979040175676346f,
  -0.023321708664298058f,
  -0.1614246666431427f,
  -0.07370588183403015f,
  -0.12183891981840134f,
  0.08455874025821686f,
  -0.0398072823882103f,
  0.036582935601472855f,
  -0.1330452859401703f,
  -0.11148640513420105f,
  -0.004268151242285967f,
  0.04178731143474579f,
  -0.08293036371469498f,
  0.000725398538634181f,
  -0.20345023274421692f,
  -0.03643755242228508f,
  -0.01458478532731533f,
  0.19407376646995544f,
  0.0070062908343970776f,
  -0.0171466376632452f,
  -0.012177112512290478f,
  0.025349518284201622f,
  0.010627584531903267f,
  -0.05647129565477371f,
  0.0386044979095459f,
  0.029483063146471977f,
  -0.090896837413311f,
  -0.008612570352852345f,
  0.02584759332239628f,
  0.025867315009236336f,
  0.011979875154793262f,
  0.03499867022037506f,
  0.08642127364873886f,
  -0.11038964986801147f,
  -0.15789064764976501f,
  -0.043627455830574036f,
  -0.0864466056227684f,
  -0.0840340107679367f,
  -0.12363345175981522f,
  -0.031027860939502716f,
  0.05725953355431557f,
  -0.04930542781949043f,
  -0.05536091327667236f,
  -0.10209713876247406f,
  -0.03911513462662697f,
  -0.05977954342961311f,
  -0.16630902886390686f,
  0.027507701888680458f,
  -0.07479273527860641f,
  -0.018728680908679962f,
  -0.07097408175468445f,
  -0.11637619882822037f,
  -0.10520301014184952f,
  -0.0664949044585228f,
  -0.11718147993087769f,
  -0.06672503054141998f,
  -0.035021305084228516f,
  -0.07156457006931305f,
  0.05392230302095413f,
  0.07114025950431824f,
  0.028805825859308243f,
  -0.11016933619976044f,
  -0.13529492914676666f,
  -0.008562864735722542f,
  -0.3040609359741211f,
  0.10149632394313812f,
  -0.09745799005031586f,
  -0.07839574664831161f,
  0.07772036641836166f,
  -0.04140903428196907f,
  0.013011837378144264f,
  -0.15637798607349396f,
  -0.11428666859865189f,
  0.0008611172088421881f,
  -0.05931162089109421f,
  0.017015404999256134f,
  0.047397200018167496f,
  0.03153757005929947f,
  0.040569085627794266f,
  -0.09951306134462357f,
  0.058276016265153885f,
  -0.09864501655101776f,
  0.007345892954617739f,
  -0.07555794715881348f,
  0.0010358693543821573f,
  -0.09517643600702286f,
  -0.004216199740767479f,
  0.04549427330493927f,
  -0.04986412078142166f,
  -0.03988739103078842f,
  0.006122634280472994f,
  -0.05702166259288788f,
  0.027988804504275322f,
  -0.053764708340168f,
  0.040577102452516556f,
  -0.06610239297151566f,
  -0.09119895100593567f,
  0.030097929760813713f,
  -0.13322506844997406f,
  0.02522875927388668f,
  -0.11993858218193054f,
  -0.005420235451310873f,
  -0.07617433369159698f,
  -0.09561817348003387f,
  0.03023836389183998f,
  0.03980210795998573f,
  -0.02817578986287117f,
  -0.05290253460407257f,
  -0.05414322391152382f,
  -0.08296795189380646f,
  0.006228403188288212f,
  -0.002378640929237008f,
  -0.025212498381733894f,
  -0.09878289699554443f,
  0.036451131105422974f,
  -0.11370314657688141f,
  -0.12557876110076904f,
  -0.042639587074518204f,
  0.01818537712097168f,
  -0.026870576664805412f,
  0.01064937375485897f,
  -0.002865655580535531f,
  -0.07139186561107635f,
  -0.0460132397711277f,
  0.042893022298812866f,
  -0.03947354853153229f,
  -0.023579783737659454f,
  -0.07386868447065353f,
  -0.12548533082008362f,
  -0.09827888756990433f,
  0.02023165114223957f,
  -0.035057347267866135f,
  0.02510475367307663f,
  -0.07601241767406464f,
  0.035758111625909805f,
  0.011085149832069874f,
  0.12019744515419006f,
  0.012807236053049564f,
  0.053542960435152054f,
  -0.12084376811981201f,
  0.024909712374210358f,
  -0.05175473913550377f,
  0.03397080674767494f,
  0.06613428145647049f,
  -0.02471180073916912f,
  0.01159033551812172f,
  -0.08567190170288086f,
  -0.010571199469268322f,
  0.04145552217960358f,
  -0.03518199175596237f,
  0.039352357387542725f,
  -0.018121017143130302f,
  -0.09362547099590302f,
  0.07188673317432404f,
  -0.03270496428012848f,
  -0.08106835931539536f,
  -0.03917106240987778f,
  -0.056059353053569794f,
  -0.0278629157692194f,
  0.037431202828884125f,
  -0.06724876165390015f,
  -0.002520311390981078f,
  -0.072103351354599f,
  -0.08127328008413315f,
  0.014055086299777031f,
  -0.04088378697633743f,
  -0.06527899205684662f,
  -0.0649413987994194f,
  -0.03201323375105858f,
  0.02832178585231304f,
  0.010932053439319134f,
  -0.0333758108317852f,
  -0.058161623775959015f,
  0.044945940375328064f,
  0.011135431937873363f,
  0.010243822820484638f,
  0.039976347237825394f,
  0.04981409013271332f,
  -0.09554543346166611f,
  0.03948066383600235f,
  -0.12196529656648636f,
  0.013601197861135006f,
  -0.0206072386354208f,
  -0.05629849061369896f,
  0.05421730875968933f,
  0.05634639784693718f,
  -0.12226427346467972f,
  -0.016421208158135414f,
  -0.06410331279039383f,
  0.020823905244469643f,
  -0.03227388486266136f,
  -0.04387478530406952f,
  0.05015693977475166f,
  0.07325324416160583f,
  -0.07005451619625092f,
  0.007548769004642963f,
  0.03996290639042854f,
  -0.09595002233982086f,
  0.007519393227994442f,
  -0.005568902473896742f,
  2.8529021739959717f,
  1.1062346696853638f,
  0.8782329559326172f,
  0.8757976293563843f,
  1.890001654624939f,
  2.326321840286255f,
  -2.200178623199463f,
  1.3984630107879639f,
  -1.1856541633605957f,
  1.650501012802124f,
  -2.403287887573242f,
  0.6972435712814331f,
  -0.0469958633184433f,
  -0.12053697556257248f,
  -0.9437757134437561f,
  1.5595191717147827f,
  0.3255039155483246f,
  -2.104743242263794f,
  -0.7147018909454346f,
  -0.40029650926589966f,
  -1.3317502737045288f,
  -1.09746253490448f,
  0.20200498402118683f,
  1.230847716331482f,
  1.4412981271743774f,
  -0.3198058009147644f,
  -1.1963945627212524f,
  -1.5769034624099731f,
  -0.8567662239074707f,
  -0.5518206357955933f,
  -1.3530628681182861f,
  -1.6948041915893555f,
  2.419719934463501f,
  0.37822532653808594f,
  -0.9652108550071716f,
  0.36582452058792114f,
  -1.6806670427322388f,
  -1.2765400409698486f,
  0.2110336571931839f,
  -0.3364678621292114f,
  0.7192391157150269f,
  0.8260448575019836f,
  -2.087373971939087f,
  -1.2594947814941406f,
  -1.3992918729782104f,
  -1.233388066291809f,
  -1.6232283115386963f,
  1.3970671892166138f,
  1.5451232194900513f,
  1.0936403274536133f,
  -0.20002663135528564f,
  -0.3603036105632782f,
  -2.9021992683410645f,
  -0.5744627714157104f,
  1.3786191940307617f,
  1.188333511352539f,
  2.159043550491333f,
  1.8339290618896484f,
  0.017048370093107224f,
  -1.195412516593933f,
  1.98862886428833f,
  -0.13277755677700043f,
  2.049748420715332f,
  1.9554767608642578f,
  -2.1787033081054688f,
  -1.1985048055648804f,
  0.6720027923583984f,
  -0.6609084010124207f,
  1.6327309608459473f,
  2.845180034637451f,
  -2.6763622760772705f,
  1.7699785232543945f,
  0.4852447211742401f,
  1.3995181322097778f,
  1.3535245656967163f,
  -1.8460015058517456f,
  -2.322556734085083f,
  0.9686923027038574f,
  -0.33318284153938293f,
  2.3110578060150146f,
  0.24939143657684326f,
  -0.12017259746789932f,
  -1.2159674167633057f,
  -2.316897392272949f,
  -1.8819606304168701f,
  -0.4391554892063141f,
  0.13398131728172302f,
  -0.4132496118545532f,
  0.5512773394584656f,
  -1.1664940118789673f,
  -0.3777809143066406f,
  -0.7155959606170654f,
  -1.0252724885940552f,
  -0.9647505283355713f,
  0.7037172913551331f,
  -0.9309807419776917f,
  0.7873175144195557f,
  -2.0550668239593506f,
  -0.6565813422203064f,
  -2.3769168853759766f,
  -1.3170104026794434f,
  -0.9394779801368713f,
  -0.03140455484390259f,
  -1.4649124145507812f,
  2.5498604774475098f,
  0.9795254468917847f,
  0.060809604823589325f,
  -2.399773359298706f,
  -1.822329044342041f,
  -2.3480985164642334f,
  -0.5734444856643677f,
  2.1733052730560303f,
  0.40422213077545166f,
  1.000991940498352f,
  -0.5616785883903503f,
  -1.7229595184326172f,
  -1.458679437637329f,
  -1.4173002243041992f,
  -0.9343947172164917f,
  1.6085017919540405f,
  1.9447969198226929f,
  1.249212622642517f,
  0.9707036018371582f,
  -1.4228715896606445f,
  -0.03182031959295273f,
  0.3888728618621826f,
  2.248429775238037f,
  1.20769464969635f,
  -0.16204892098903656f,
  0.43973883986473083f,
  -0.888701856136322f,
  -0.03654602915048599f,
  -1.4638428688049316f,
  -0.07815054059028625f,
  3.1216084957122803f,
  -2.754517078399658f,
  0.09536067396402359f,
  0.511878252029419f,
  0.6035523414611816f,
  0.4155938923358917f,
  0.6622559428215027f,
  1.9133081436157227f,
  -6.652578830718994f,
  6.001471042633057f,
  0.09943069517612457f,
  -0.05911340191960335f,
  0.21815453469753265f,
  -0.3362666666507721f,
  -0.9456678032875061f,
  -1.771977186203003f,
  0.30843859910964966f,
  -0.2631032466888428f,
  0.26875656843185425f,
  -0.1286211758852005f,
  -0.3016653060913086f,
  -1.4318112134933472f,
  -2.045107364654541f,
  -1.336649775505066f,
  0.0689689889550209f,
  0.634981632232666f,
  0.083095982670784f,
  0.025566162541508675f,
  0.041908200830221176f,
  -1.547960877418518f,
  -0.8740530610084534f,
  -1.3219363689422607f,
  -0.358286589384079f,
  0.5597494840621948f,
  0.00538972020149231f,
  0.1478693038225174f,
  0.20649582147598267f,
  -0.8850167989730835f,
  -1.4140563011169434f,
  0.22835154831409454f,
  0.02303515374660492f,
  -0.041320186108350754f,
  0.16232185065746307f,
  -0.2746241092681885f,
  -0.3724682927131653f,
  0.2466105967760086f,
  0.43083035945892334f,
  0.4084284007549286f,
  -0.10138724744319916f,
  -0.1347586065530777f,
  -2.111335039138794f,
  1.2810322046279907f,
  -0.8887485265731812f,
  0.3375488817691803f,
  -0.3368810713291168f,
  -0.46684104204177856f,
  0.20327182114124298f,
  -1.8369455337524414f,
  -0.8773062825202942f,
  0.8477267026901245f,
  -1.0302785634994507f,
  -0.8272418975830078f,
  -0.6650940775871277f,
  -0.6082188487052917f,
  4.477071762084961f,
  5.582352161407471f,
  0.02277280017733574f,
  0.9190442562103271f,
  -0.11652087420225143f,
  0.2489790916442871f,
  0.7235742211341858f,
  -0.04915463551878929f,
  0.1267431378364563f,
  4.684162616729736f,
  -0.4192500412464142f,
  -0.2000161111354828f,
  0.02817593142390251f,
  0.04594318941235542f,
  -0.8644655346870422f,
  -0.4237305521965027f,
  0.19585703313350677f,
  0.694246232509613f,
  0.5439592003822327f,
  -0.15830188989639282f,
  -0.6673498749732971f,
  -1.5903040170669556f,
  -0.7426393032073975f,
  -1.3045811653137207f,
  -0.06866704672574997f,
  -0.01513407751917839f,
  -0.042321160435676575f,
  0.6206791996955872f,
  -0.1019870862364769f,
  -0.9085676074028015f,
  -1.2770417928695679f,
  -1.1502749919891357f,
  0.17590457201004028f,
  0.8012323379516602f,
  0.07168585807085037f,
  -0.8119010329246521f,
  -0.7070699334144592f,
  -0.8947059512138367f,
  -1.324934959411621f,
  -0.07340818643569946f,
  -0.017877647653222084f,
  -0.689224362373352f,
  -0.7910404801368713f,
  0.8341123461723328f,
  -0.48491719365119934f,
  0.04255139082670212f,
  0.6781489849090576f,
  0.3107912540435791f,
  0.08853533118963242f,
  1.5826530456542969f,
  -2.0461056232452393f,
  -0.3749433159828186f,
  0.28534650802612305f,
  0.3124573826789856f,
  -0.5110149383544922f,
  -0.6079322695732117f,
  -0.3603004217147827f,
  -1.499385952949524f,
  -1.11380136013031f,
  0.21144039928913116f,
  -0.6542651653289795f,
  0.24678079783916473f,
  -0.3848894536495209f,
  0.1676400899887085f,
  0.3307066857814789f,
  2.064120292663574f,
  -0.26001837849617004f,
  0.9060875773429871f,
  0.09568850696086884f,
  0.07574031502008438f,
  -0.45241492986679077f,
  -0.511074423789978f,
  0.1618180274963379f,
  -0.45193958282470703f,
  -1.2933155298233032f,
  -0.5782068967819214f,
  0.2314549833536148f,
  0.5940554141998291f,
  -0.38913989067077637f,
  -0.0714004784822464f,
  0.25266730785369873f,
  0.0010667976457625628f,
  0.40000417828559875f,
  -0.588056206703186f,
  -0.6458218097686768f,
  -0.4658418595790863f,
  -0.1907709538936615f,
  -0.6431965827941895f,
  -0.1562245935201645f,
  0.3208348751068115f,
  0.5465314388275146f,
  0.12650232017040253f,
  0.010631206445395947f,
  -0.3212885856628418f,
  -0.6922433376312256f,
  -0.4612088203430176f,
  -0.05164635181427002f,
  0.14745080471038818f,
  0.8044182658195496f,
  0.29012826085090637f,
  -0.16439653933048248f,
  -0.7289086580276489f,
  -0.7254571318626404f,
  0.23920471966266632f,
  -0.134596586227417f,
  -0.4418460726737976f,
  2.2159006595611572f,
  0.23465077579021454f,
  0.09057836979627609f,
  1.0462427139282227f,
  0.020307300612330437f,
  -0.2984223961830139f,
  -0.7378553748130798f,
  -0.9701573252677917f,
  9.25928783416748f,
  1.1732604503631592f,
  -2.196906805038452f,
  -1.4786030054092407f,
  -0.5350292921066284f,
  -1.3831347227096558f,
  0.25396931171417236f,
  1.7005327939987183f,
  0.6996374130249023f,
  -0.4321577847003937f,
  -0.19179242849349976f,
  -0.016971051692962646f,
  0.05116117000579834f,
  0.2791093587875366f,
  -0.5960679650306702f,
  0.3892621397972107f,
  -2.739335298538208f,
  0.6327071785926819f,
  0.5220696330070496f,
  0.1427551656961441f,
  -0.26584893465042114f,
  -0.23752696812152863f,
  0.13531211018562317f,
  -0.6808196902275085f,
  0.39972415566444397f,
  0.10329365730285645f,
  0.415237158536911f,
  0.478936105966568f,
  -0.15783481299877167f,
  -0.08334996551275253f,
  -0.08014048635959625f,
  0.08987580984830856f,
  0.8248833417892456f,
  0.024778760969638824f,
  -0.24339187145233154f,
  -0.7499533891677856f,
  -0.5650618076324463f,
  -0.06868982315063477f,
  0.29139208793640137f,
  -0.4319162964820862f,
  0.145950049161911f,
  -0.7393690347671509f,
  -0.3536553382873535f,
  -0.7359546422958374f,
  -0.535502016544342f,
  -0.4818274676799774f,
  0.021533586084842682f,
  -0.2870403826236725f,
  0.603556215763092f,
  1.223757028579712f,
  -0.6209608316421509f,
  -0.7270301580429077f,
  -0.7737650275230408f,
  0.401746541261673f,
  -0.022621361538767815f,
  0.031830430030822754f,
  -3.1589629650115967f,
  -0.4918120801448822f,
  0.18399468064308167f,
  1.0021990537643433f,
  0.6954634189605713f,
  -0.4548743665218353f,
  -0.8348627090454102f,
  -0.2324722856283188f,
  4.140881061553955f,
  -1.0422275066375732f,
  0.6883042454719543f,
  -1.4334131479263306f,
  -1.3776566982269287f,
  -1.692134976387024f,
  -0.8921085000038147f,
  0.24703717231750488f,
  -0.8275175094604492f,
  1.9119510650634766f,
  0.2871088981628418f,
  0.9221050143241882f,
  -0.3515543043613434f,
  -0.027973826974630356f,
  0.5704453587532043f,
  2.6444759368896484f,
  1.4985922574996948f,
  0.3306988477706909f,
  0.2532075047492981f,
  -0.6282411813735962f,
  0.16697542369365692f,
  -0.08542400598526001f,
  0.5847597122192383f,
  -3.956975221633911f,
  2.7906136512756348f,
  0.15160903334617615f,
  -0.3213661313056946f,
  -1.8499513864517212f,
  -1.1279168128967285f,
  -1.5657390356063843f,
  0.5657294988632202f,
  0.7087822556495667f,
  0.18734997510910034f,
  -1.5975549221038818f,
  -2.6005876064300537f,
  -2.681854486465454f,
  -2.1441428661346436f,
  -0.6510055065155029f,
  -1.3562723398208618f,
  0.24997496604919434f,
  2.3407182693481445f,
  0.30514901876449585f,
  -1.570885181427002f,
  -1.6958043575286865f,
  -1.8385343551635742f,
  -2.864654302597046f,
  -0.7756620645523071f,
  1.170838713645935f,
  -0.1668558418750763f,
  0.15560270845890045f,
  -0.9644078612327576f,
  -2.112273931503296f,
  -2.1839520931243896f,
  -1.2407424449920654f,
  -0.40941426157951355f,
  1.3215728998184204f,
  2.3277194499969482f,
  1.9295316934585571f,
  0.8820914030075073f,
  -1.5456244945526123f,
  -1.7901087999343872f,
  1.1122760772705078f,
  1.0083396434783936f,
  2.625514030456543f,
  1.5145570039749146f,
  0.5739494562149048f,
  -0.005308099556714296f,
  1.1438359022140503f,
  0.22797715663909912f,
  2.119643211364746f,
  -0.8275631666183472f,
  0.2068028450012207f,
  0.14722606539726257f,
  1.9142870903015137f,
  0.10384678095579147f,
  -0.3429122865200043f,
  -0.08424853533506393f,
  -0.14583423733711243f,
  1.9743030071258545f,
  1.559191107749939f,
  0.8865591287612915f,
  1.6683400869369507f,
  -0.04333292320370674f,
  0.0734982118010521f,
  -0.1869506686925888f,
  -0.30290937423706055f,
  1.6428166627883911f,
  -2.173504114151001f,
  1.5358115434646606f,
  0.8326494693756104f,
  -1.5066078901290894f,
  -1.0312016010284424f,
  -0.976233184337616f,
  -0.45469751954078674f,
  -1.3362005949020386f,
  -0.9902165532112122f,
  1.4640337228775024f,
  0.304313600063324f,
  -0.8012962341308594f,
  -1.2787517309188843f,
  -1.4122262001037598f,
  -3.2312095165252686f,
  0.49669018387794495f,
  1.2679680585861206f,
  1.8483651876449585f,
  -0.5202334523200989f,
  -1.5117281675338745f,
  -1.4834994077682495f,
  -1.8554071187973022f,
  -1.1165060997009277f,
  -0.695647120475769f,
  1.8822029829025269f,
  2.274263381958008f,
  0.3951609432697296f,
  -0.3017670512199402f,
  -1.0075739622116089f,
  -1.7549946308135986f,
  -1.0629688501358032f,
  0.5974417924880981f,
  1.3406070470809937f,
  1.2063153982162476f,
  1.8463131189346313f,
  -0.27938857674598694f,
  -0.5133482813835144f,
  -0.06819511204957962f,
  -0.4573727250099182f,
  2.3027119636535645f,
  2.314412832260132f,
  0.4158448278903961f,
  0.48726558685302734f,
  0.06873414665460587f,
  0.7541331052780151f,
  1.5444765090942383f,
  -0.011994857341051102f,
  -0.7949474453926086f,
  1.7514259815216064f,
  0.47139865159988403f,
  0.8643450140953064f,
  0.2750081419944763f,
  -0.4876561164855957f,
  -0.09935743361711502f,
  -0.49137571454048157f,
  0.2863466739654541f,
  0.032613083720207214f,
  2.4112157821655273f,
  0.6433559656143188f,
  0.8444393873214722f,
  0.4955446720123291f,
  -0.10109356790781021f,
  -0.14549420773983002f,
  1.40617036819458f,
  -0.08074457198381424f,
  0.22560931742191315f,
  -0.6058076024055481f,
  0.03455518186092377f,
  -2.0745084285736084f,
  -1.0209189653396606f,
  -0.6118937730789185f,
  -0.47187376022338867f,
  -2.635281562805176f,
  0.804436206817627f,
  -0.16416165232658386f,
  -1.6894201040267944f,
  -1.2906060218811035f,
  -0.9247505068778992f,
  0.21328450739383698f,
  0.5156775116920471f,
  -2.4449658393859863f,
  -2.276671886444092f,
  -1.2064359188079834f,
  -1.8187072277069092f,
  -0.6218043565750122f,
  -0.23823511600494385f,
  -2.076094388961792f,
  -0.9493294358253479f,
  -3.674224615097046f,
  0.036991849541664124f,
  -0.787807285785675f,
  0.2895004153251648f,
  -1.061423897743225f,
  -1.31707763671875f,
  0.20470239222049713f,
  1.449182152748108f,
  -2.3910017013549805f,
  0.28878113627433777f,
  0.6925514936447144f,
  -0.28325381875038147f,
  -0.3420214056968689f,
  0.33672723174095154f,
  -0.16008320450782776f,
  -0.9075301885604858f,
  -0.3100571036338806f,
  2.3781790733337402f,
  1.3762757778167725f,
  0.7175573110580444f,
  0.1834471970796585f,
  -1.245779275894165f,
  -0.8339924216270447f,
  1.0389460325241089f,
  -1.3735212087631226f,
  1.696404218673706f,
  -1.5957719087600708f,
  -1.3803622722625732f,
  -0.7496503591537476f,
  0.08880428224802017f,
  -1.2290610074996948f,
  0.8180491924285889f,
  1.3685709238052368f,
  1.9029335975646973f,
  2.1676411628723145f,
  0.22111588716506958f,
  -0.112082339823246f,
  -0.325386643409729f,
  -1.8144946098327637f,
  1.7732865810394287f,
  -0.7351530194282532f,
  0.4490351974964142f,
  0.6980817317962646f,
  -0.06980342417955399f,
  -0.8178592324256897f,
  -0.4985291361808777f,
  0.6582475304603577f,
  1.4886775016784668f,
  -1.0399609804153442f,
  -0.1469213366508484f,
  -2.103853702545166f,
  -1.135721206665039f,
  -0.9123003482818604f,
  -0.26245975494384766f,
  -0.6353554725646973f,
  -1.385972023010254f,
  -0.7345172762870789f,
  -0.7267064452171326f,
  -1.3516929149627686f,
  -0.14426134526729584f,
  0.7019951939582825f,
  -2.0129926204681396f,
  -1.9898202419281006f,
  0.3318310081958771f,
  -0.38105538487434387f,
  0.3187651038169861f,
  -1.271730899810791f,
  -0.5850330591201782f,
  -0.5104621648788452f,
  -1.1064848899841309f,
  -1.6267938613891602f,
  0.45670557022094727f,
  0.4249822795391083f,
  1.623557686805725f,
  1.2583626508712769f,
  -0.8129675984382629f,
  0.8103954792022705f,
  -1.074697732925415f,
  -2.9433884620666504f,
  2.289893627166748f,
  2.0532007217407227f,
  2.6706466674804688f,
  2.333481788635254f,
  1.3884416818618774f,
  -0.25818827748298645f,
  -1.8689072132110596f,
  -0.24146875739097595f,
  1.0118154287338257f,
  1.5219950675964355f,
  3.7593371868133545f,
  -0.3726421892642975f,
  2.0052590370178223f,
  0.5242252945899963f,
  -1.8514162302017212f,
  0.9387765526771545f,
  -1.9267550706863403f,
  3.583587884902954f,
  -2.8899118900299072f,
  1.8346360921859741f,
  -0.19075456261634827f,
  -0.3873612582683563f,
  1.4007441997528076f,
  -0.5801573395729065f,
  -0.5134143829345703f,
  0.5218133330345154f,
  0.24883584678173065f,
  2.091268301010132f,
  -1.4814236164093018f,
  -2.534416913986206f,
  -1.034064531326294f,
  -1.172178864479065f,
  -1.2134809494018555f,
  1.959593653678894f,
  1.8102924823760986f,
  -2.2361364364624023f,
  -1.5002896785736084f,
  -1.890588641166687f,
  -1.9647560119628906f,
  -0.30646225810050964f,
  -1.0021229982376099f,
  -0.4070833921432495f,
  1.065519094467163f,
  -1.8192938566207886f,
  -1.1260366439819336f,
  -1.4350547790527344f,
  -1.6049213409423828f,
  -2.857815742492676f,
  -0.26514822244644165f,
  1.4971188306808472f,
  0.04646122828125954f,
  -1.212912917137146f,
  -1.150162696838379f,
  -0.16236218810081482f,
  -1.4304269552230835f,
  -1.7780048847198486f,
  1.0354750156402588f,
  -1.5674655437469482f,
  -1.7227214574813843f,
  2.5690324306488037f,
  -1.5940688848495483f,
  -1.3452723026275635f,
  0.48413214087486267f,
  -0.7254390120506287f,
  2.9386532306671143f,
  1.153350830078125f,
  4.412212371826172f,
  1.793054461479187f,
  -0.24770504236221313f,
  -1.1766765117645264f,
  0.35796329379081726f,
  -1.145784616470337f,
  -1.5098628997802734f,
  -1.6338177919387817f,
  2.952366828918457f,
  -0.722866415977478f,
  0.9185846447944641f,
  0.48880502581596375f,
  -0.6211832761764526f,
  0.21289333701133728f,
  0.8774125576019287f,
  1.4753613471984863f,
  -1.1514471769332886f,
  1.3869576454162598f,
  -0.16436560451984406f,
  -0.05557458847761154f,
  -1.3696439266204834f,
  -0.6840047240257263f,
  -0.7921637296676636f,
  2.766705274581909f,
  -0.9768139123916626f,
  -2.1388955116271973f,
  0.8246056437492371f,
  -0.06660891324281693f,
  -0.9789146184921265f,
  0.08105715364217758f,
  0.34975913166999817f,
  -2.284457206726074f,
  0.2841566801071167f,
  0.464647114276886f,
  -0.936911404132843f,
  -0.6674930453300476f,
  -1.0997220277786255f,
  -2.6340548992156982f,
  -0.45856112241744995f,
  -0.19764836132526398f,
  0.3843569755554199f,
  -0.34084272384643555f,
  -2.8070871829986572f,
  -1.2593117952346802f,
  -1.6334714889526367f,
  -0.456753134727478f,
  -1.0871316194534302f,
  0.756377637386322f,
  1.1851351261138916f,
  -0.4224121570587158f,
  0.08014082908630371f,
  -1.9456076622009277f,
  -1.6473610401153564f,
  0.5235986113548279f,
  -1.0709826946258545f,
  0.12638378143310547f,
  1.0229504108428955f,
  0.7167965173721313f,
  -0.8594685196876526f,
  -0.3035053610801697f,
  -2.67315673828125f,
  0.4089072048664093f,
  0.9042035341262817f,
  0.37232664227485657f,
  0.6683864593505859f,
  0.3637114465236664f,
  -0.7732986211776733f,
  -1.3133163452148438f,
  -1.9562873840332031f,
  -0.7724267840385437f,
  -1.9528248310089111f,
  1.1493206024169922f,
  3.1626179218292236f,
  -0.8390573859214783f,
  0.5492101311683655f,
  0.6315174102783203f,
  -0.9364343881607056f,
  1.9126651287078857f,
  -0.49278444051742554f,
  0.9039914011955261f,
  0.625611424446106f,
  0.9023938775062561f,
  -0.1902955174446106f,
  0.6472166776657104f,
  0.36422643065452576f,
  0.24437697231769562f,
  -0.6812729835510254f,
  1.7366364002227783f,
  -1.5961369276046753f,
  -0.5983912348747253f,
  0.2941989004611969f,
  -0.5615691542625427f,
  -1.2165818214416504f,
  0.01074892096221447f,
  0.9465634822845459f,
  1.2485183477401733f,
  1.5368597507476807f,
  0.6466103792190552f,
  -1.1122714281082153f,
  -2.043506622314453f,
  -1.0507192611694336f,
  -1.914983868598938f,
  -0.3614499270915985f,
  2.208862543106079f,
  -3.3483715057373047f,
  0.09817492216825485f,
  -1.43092679977417f,
  -1.6542707681655884f,
  -1.907328724861145f,
  -2.1270272731781006f,
  0.08397291600704193f,
  -3.788591146469116f,
  1.1408722400665283f,
  -0.2930087745189667f,
  -0.7640009522438049f,
  -1.9659671783447266f,
  -2.0375702381134033f,
  -0.6778650283813477f,
  -0.1541479527950287f,
  1.5683660507202148f,
  0.9549165368080139f,
  1.2323989868164062f,
  -1.2768528461456299f,
  -1.2827975749969482f,
  -2.228181838989258f,
  -0.5693204402923584f,
  1.8750042915344238f,
  0.38503342866897583f,
  2.896027088165283f,
  4.05597448348999f,
  1.9331458806991577f,
  0.7279664278030396f,
  1.031611442565918f,
  1.5703554153442383f,
  2.582871675491333f,
  2.308220386505127f,
  2.858621835708618f,
  0.8843768239021301f,
  1.705903172492981f,
  0.42930254340171814f,
  -0.6193480491638184f,
  -1.528061866760254f,
  -0.6686362028121948f,
  2.285217761993408f,
  -0.22168011963367462f,
  0.7241259217262268f,
  -0.023626241832971573f,
  -1.3615660667419434f,
  0.36614465713500977f,
  -1.377644658088684f,
  0.6673080325126648f,
  0.5628849267959595f,
  -0.5381948947906494f,
  -0.5537176728248596f,
  0.33654749393463135f,
  -0.6981521248817444f,
  -1.8219108581542969f,
  -1.056923508644104f,
  0.5293301939964294f,
  0.04349829629063606f,
  -0.6421234607696533f,
  -0.6537982225418091f,
  -1.0586116313934326f,
  -1.0693788528442383f,
  -1.6643160581588745f,
  -0.7234975695610046f,
  -0.4013287127017975f,
  0.7671889066696167f,
  -1.0435978174209595f,
  -1.4357759952545166f,
  -1.8634045124053955f,
  -1.3428336381912231f,
  -1.0379999876022339f,
  -1.0909385681152344f,
  -0.17057429254055023f,
  -0.5486233234405518f,
  0.06587962806224823f,
  -0.15015749633312225f,
  -1.3115242719650269f,
  -0.9500176310539246f,
  -0.7830463647842407f,
  -1.5616792440414429f,
  -0.3329811990261078f,
  0.4095804989337921f,
  1.7873623371124268f,
  1.457503318786621f,
  -0.7975838780403137f,
  -1.0391817092895508f,
  -0.8583444952964783f,
  -0.3343687653541565f,
  0.7613272070884705f,
  -0.5084909200668335f,
  1.2369378805160522f,
  2.0221831798553467f,
  1.6729680299758911f,
  2.3365347385406494f,
  2.275189161300659f,
  2.3323779106140137f,
  2.9822897911071777f,
  1.2620171308517456f,
  2.0830159187316895f,
  0.6595562100410461f,
  1.1618826389312744f,
  -0.819917619228363f,
  0.7324495315551758f,
  0.8288071155548096f,
  0.7720845341682434f,
  1.0424652099609375f,
  1.865908145904541f,
  -0.5683642029762268f,
  0.19669635593891144f,
  -1.039076805114746f,
  -0.8658624291419983f,
  0.3464057743549347f,
  1.1136449575424194f,
  2.278710126876831f,
  2.242363691329956f,
  -0.7089145183563232f,
  0.4507907032966614f,
  -0.8689248561859131f,
  -2.170867443084717f,
  -0.8895523548126221f,
  0.5282999277114868f,
  0.8396910429000854f,
  -0.7435536980628967f,
  -2.3574488162994385f,
  -2.0424575805664062f,
  -1.4614397287368774f,
  -1.2516943216323853f,
  -2.098402500152588f,
  -1.9943712949752808f,
  1.5966312885284424f,
  -0.9060155749320984f,
  -0.8467307090759277f,
  -1.2851595878601074f,
  -0.7934719920158386f,
  -0.941767692565918f,
  -1.6363335847854614f,
  -1.1736775636672974f,
  0.6504355669021606f,
  0.5935158729553223f,
  -0.9015457630157471f,
  -0.5615910291671753f,
  -2.0689337253570557f,
  -0.5592162013053894f,
  -1.557692527770996f,
  -0.353620707988739f,
  -1.0304715633392334f,
  1.4161629676818848f,
  1.9797290563583374f,
  0.0004976469790562987f,
  -0.7922461628913879f,
  0.0031280829571187496f,
  -1.5379273891448975f,
  2.4307072162628174f,
  0.27802520990371704f,
  0.47881942987442017f,
  2.7417781352996826f,
  2.238947629928589f,
  2.3163340091705322f,
  1.678168773651123f,
  -0.32986441254615784f,
  -0.8855896592140198f,
  2.7147326469421387f,
  2.3084421157836914f,
  1.829725742340088f,
  -1.6603065729141235f,
  1.9287904500961304f,
  -0.8794509172439575f,
  1.5382959842681885f,
  0.5449460744857788f,
  1.7152936458587646f,
  1.0195103883743286f,
  1.9390376806259155f,
  -1.194221019744873f,
  -0.38191014528274536f,
  -1.3236757516860962f,
  -0.4171820282936096f,
  0.5464879274368286f,
  1.6045646667480469f,
  0.9979960918426514f,
  -0.8210575580596924f,
  -0.28667542338371277f,
  -1.915458083152771f,
  -0.9049543738365173f,
  -0.9201731085777283f,
  -0.18845662474632263f,
  0.7849934101104736f,
  -1.2235260009765625f,
  0.03664645925164223f,
  -1.6605150699615479f,
  -1.5945520401000977f,
  -2.0925683975219727f,
  -1.540596842765808f,
  -0.5906131863594055f,
  0.1552143096923828f,
  1.5855319499969482f,
  0.16151133179664612f,
  -1.5217407941818237f,
  -2.0783543586730957f,
  -4.364060878753662f,
  -1.2407333850860596f,
  -1.1910966634750366f,
  -0.637061357498169f,
  0.10855894535779953f,
  -1.9253127574920654f,
  -0.34629520773887634f,
  -2.0885610580444336f,
  -1.626298427581787f,
  -0.5106134414672852f,
  0.22235213220119476f,
  2.608228921890259f,
  1.7670180797576904f,
  2.2070207595825195f,
  0.32317084074020386f,
  -2.649221897125244f,
  -0.7458710670471191f,
  -0.01194879412651062f,
  2.8430519104003906f,
  -1.6799708604812622f,
  2.5347063541412354f,
  1.0117820501327515f,
  2.1761183738708496f,
  0.8331246376037598f,
  -0.5994617938995361f,
  0.7089324593544006f,
  0.4806253910064697f,
  2.297214984893799f,
  -0.13797177374362946f,
  0.019665144383907318f,
  -0.1537938416004181f,
  -0.09084086120128632f,
  -0.004054389428347349f,
  -0.01861678995192051f,
  0.028732454404234886f,
  -0.005447245202958584f,
  -0.15315932035446167f,
  -0.1954016387462616f,
  -0.0445694699883461f,
  -0.09898801892995834f,
  -0.09983997792005539f,
  0.011724995449185371f,
  -0.09572813659906387f,
  0.024649906903505325f,
  -0.014882071875035763f,
  0.0771540105342865f,
  -0.05165962129831314f,
  -0.0005210174131207168f,
  -0.1216689944267273f,
  -0.025652781128883362f,
  -0.07342422008514404f,
  0.0022291785571724176f,
  -0.07794694602489471f,
  -0.12169301509857178f,
  0.005252159666270018f,
  -0.0034688941668719053f,
  -0.023817291483283043f,
  -0.1469118297100067f,
  -0.016350606456398964f,
  -0.09445170313119888f,
  -0.043566975742578506f,
  -0.14213520288467407f,
  -0.151980459690094f,
  -0.06948140263557434f,
  -0.1043333038687706f,
  -0.053885992616415024f,
  -0.06441032886505127f,
  -0.10666514933109283f,
  -0.0983201116323471f,
  0.053934864699840546f,
  -0.035957176238298416f,
  -0.1827935129404068f,
  -0.14250388741493225f,
  0.005985981319099665f,
  -0.10284123569726944f,
  -0.05466428026556969f,
  -0.07973116636276245f,
  0.04544559493660927f,
  -0.022971058264374733f,
  -0.09883113950490952f,
  -0.0950184166431427f,
  -0.1332734078168869f,
  -0.13243235647678375f,
  -0.02658449113368988f,
  0.06392218172550201f,
  -0.0717369019985199f,
  0.019581150263547897f,
  -0.04221157729625702f,
  -0.08683053404092789f,
  0.027592303231358528f,
  0.004084335640072823f,
  -0.0689552053809166f,
  0.13736195862293243f,
  0.052707474678754807f,
  0.04207976907491684f,
  -0.03260089084506035f,
  -0.10857319086790085f,
  0.006856249179691076f,
  -0.0051656910218298435f,
  -0.13692247867584229f,
  0.03459028899669647f,
  -0.10906914621591568f,
  0.008308076299726963f,
  -0.11201278120279312f,
  0.06872797012329102f,
  -0.052498482167720795f,
  0.047584034502506256f,
  0.05268897861242294f,
  0.07240771502256393f,
  -0.16184955835342407f,
  0.01578705944120884f,
  -0.14152103662490845f,
  -0.017799781635403633f,
  -0.08267739415168762f,
  0.03824323043227196f,
  -0.05399323254823685f,
  0.0797274112701416f,
  -0.053991690278053284f,
  -0.012197993695735931f,
  -0.05332070216536522f,
  -0.1855604648590088f,
  0.012321313843131065f,
  -0.07006823271512985f,
  -0.030545836314558983f,
  0.03703971579670906f,
  -0.06055869534611702f,
  0.0699022114276886f,
  -0.011546028777956963f,
  -0.01077347807586193f,
  -0.009171283803880215f,
  -0.034143202006816864f,
  -0.07790081948041916f,
  0.0303153395652771f,
  -0.00347565277479589f,
  -0.009785791859030724f,
  -0.11335334926843643f,
  -0.06742624193429947f,
  -0.10118580609560013f,
  -0.054773926734924316f,
  0.07321169227361679f,
  0.10800148546695709f,
  0.042657364159822464f,
  -0.026162222027778625f,
  -0.0038991894107311964f,
  -0.11981821805238724f,
  -0.10245484858751297f,
  -0.08432568609714508f,
  0.0800279825925827f,
  0.04086902737617493f,
  0.03977655991911888f,
  0.002052182797342539f,
  -0.12704932689666748f,
  0.04193062335252762f,
  -0.036887865513563156f,
  0.032628536224365234f,
  0.16136498749256134f,
  0.3043666183948517f,
  -0.058012235909700394f,
  -0.8880850076675415f,
  0.679022490978241f,
  0.22789537906646729f,
  1.714866280555725f,
  2.249166965484619f,
  1.0236917734146118f,
  2.5067572593688965f,
  2.068077802658081f,
  0.7519271969795227f,
  0.0029284688644111156f,
  -0.8506161570549011f,
  -0.12812232971191406f,
  0.5694425702095032f,
  -0.2794743478298187f,
  -2.2740180492401123f,
  0.8536078333854675f,
  -1.3582711219787598f,
  -1.0005769729614258f,
  -1.991705298423767f,
  0.09517034888267517f,
  -0.2641729414463043f,
  1.3840022087097168f,
  -0.8523983955383301f,
  -0.10698704421520233f,
  -0.3149755895137787f,
  -1.418821096420288f,
  -0.7189217805862427f,
  -1.7491177320480347f,
  -0.02438940480351448f,
  0.11725100129842758f,
  -4.180687427520752f,
  -1.0514696836471558f,
  -1.0297869443893433f,
  -0.9157578945159912f,
  -1.276625633239746f,
  -0.2455601692199707f,
  -0.7157177329063416f,
  0.34083348512649536f,
  0.4026143252849579f,
  -0.29976922273635864f,
  -0.029256436973810196f,
  -1.6411654949188232f,
  -0.7755502462387085f,
  -1.5024877786636353f,
  0.05115673691034317f,
  0.5481147170066833f,
  2.6056325435638428f,
  0.255582332611084f,
  1.561449408531189f,
  -1.7288546562194824f,
  -0.8401784896850586f,
  -0.4324176609516144f,
  -0.5264137983322144f,
  0.9240491986274719f,
  3.186788320541382f,
  0.15209175646305084f,
  -0.08590637147426605f,
  1.5104107856750488f,
  0.23508621752262115f,
  -0.06441284716129303f,
  0.20804445445537567f,
  2.013634443283081f,
  -3.2535691261291504f,
  3.6580698490142822f,
  -0.2743546664714813f,
  1.5635638236999512f,
  0.17756608128547668f,
  0.6865336298942566f,
  1.4398902654647827f,
  1.892422080039978f,
  4.83241605758667f,
  2.334892511367798f,
  1.477277159690857f,
  -1.569862961769104f,
  -0.8886964321136475f,
  -0.8745278716087341f,
  0.8807969689369202f,
  1.4735037088394165f,
  -3.654034376144409f,
  0.7364097833633423f,
  -1.177924394607544f,
  -0.6525036692619324f,
  -1.0848945379257202f,
  0.2553972899913788f,
  -1.074295997619629f,
  2.0443756580352783f,
  1.1820423603057861f,
  -0.30758777260780334f,
  -1.5372170209884644f,
  -0.612956166267395f,
  -1.0161021947860718f,
  -1.3921055793762207f,
  -0.18703091144561768f,
  -2.7295336723327637f,
  -1.6260453462600708f,
  -0.5663847923278809f,
  -1.3629847764968872f,
  -0.6791462898254395f,
  -0.7326855659484863f,
  -1.2441222667694092f,
  -0.8162857294082642f,
  1.5234743356704712f,
  0.7189042568206787f,
  -0.7779750823974609f,
  -0.2206864207983017f,
  -2.22908353805542f,
  -1.0018839836120605f,
  -0.598351001739502f,
  -0.7223225831985474f,
  -2.61124849319458f,
  1.8004579544067383f,
  0.32506823539733887f,
  -0.25231507420539856f,
  -1.215769648551941f,
  -0.2917245030403137f,
  0.5113970637321472f,
  -0.735996663570404f,
  2.6070382595062256f,
  -3.388704776763916f,
  2.0017755031585693f,
  0.6148551106452942f,
  -0.6974582672119141f,
  -0.31466808915138245f,
  0.3773327171802521f,
  0.427802175283432f,
  0.7541642785072327f,
  -1.6653687953948975f,
  2.3374953269958496f,
  1.65160071849823f,
  0.14252620935440063f,
  0.3571763336658478f,
  -1.1112667322158813f,
  0.6559903621673584f,
  3.3197035789489746f,
  -0.9795485138893127f,
  2.2562174797058105f,
  0.8814032673835754f,
  -0.912236750125885f,
  0.20733101665973663f,
  -1.342251181602478f,
  1.364138126373291f,
  1.4440608024597168f,
  0.7836923599243164f,
  0.07795700430870056f,
  -1.5639493465423584f,
  -0.5616376399993896f,
  -0.27853289246559143f,
  0.5535176396369934f,
  0.4273730218410492f,
  2.9083805084228516f,
  -3.839921236038208f,
  -0.3255668878555298f,
  -1.0164315700531006f,
  -0.5951564311981201f,
  -0.3057495355606079f,
  -1.1739630699157715f,
  -0.7978765368461609f,
  -2.3037338256835938f,
  1.2697691917419434f,
  0.09846264123916626f,
  -1.3464351892471313f,
  -1.5585579872131348f,
  -1.5012387037277222f,
  0.09508877992630005f,
  0.4677123725414276f,
  -0.8039495348930359f,
  0.20017163455486298f,
  1.1079453229904175f,
  -1.0339895486831665f,
  -1.1153476238250732f,
  -1.7187639474868774f,
  -0.6764971613883972f,
  -0.1568731963634491f,
  3.417703628540039f,
  1.6984219551086426f,
  -0.12845191359519958f,
  -0.9202665090560913f,
  -1.576879620552063f,
  -0.018223220482468605f,
  -0.6868513226509094f,
  -1.7348381280899048f,
  -4.772064208984375f,
  1.8531875610351562f,
  0.6402757167816162f,
  1.5959402322769165f,
  0.9219604134559631f,
  0.011541157960891724f,
  -1.0780812501907349f,
  1.8342161178588867f,
  6.407771110534668f,
  0.8271355032920837f,
  1.1794297695159912f,
  0.7057700753211975f,
  -0.2632032036781311f,
  0.7829554080963135f,
  -0.26330092549324036f,
  -0.4724556505680084f,
  1.7257658243179321f,
  -0.02420903369784355f,
  1.8976777791976929f,
  0.7020735144615173f,
  -1.4282265901565552f,
  -0.8715611696243286f,
  0.15025706589221954f,
  0.22007997334003448f,
  1.1884825229644775f,
  -0.2694629430770874f,
  0.20440638065338135f,
  -0.5253441333770752f,
  -0.44039076566696167f,
  -0.9619619250297546f,
  -0.14615894854068756f,
  -0.28248560428619385f,
  2.554100513458252f,
  0.15315835177898407f,
  -1.0404547452926636f,
  -1.2882165908813477f,
  -1.204898476600647f,
  -1.961133599281311f,
  -0.77460116147995f,
  -2.6829020977020264f,
  -0.7916134595870972f,
  0.29691874980926514f,
  -0.5276320576667786f,
  -1.37188720703125f,
  -0.24945825338363647f,
  -0.17414014041423798f,
  -2.2728214263916016f,
  0.10265196859836578f,
  -0.30262136459350586f,
  0.1161736398935318f,
  0.3382536470890045f,
  -2.0004632472991943f,
  -1.2059348821640015f,
  -0.7352742552757263f,
  -2.4928743839263916f,
  -2.5404586791992188f,
  1.65889310836792f,
  -0.4686289131641388f,
  1.5837821960449219f,
  0.06320581585168839f,
  -1.1646621227264404f,
  -1.2096877098083496f,
  -0.7538352012634277f,
  -0.9136135578155518f,
  -0.8032774925231934f,
  -0.7664133906364441f,
  0.6767515540122986f,
  2.0731022357940674f,
  -0.9499232172966003f,
  1.4570810794830322f,
  -0.07071778923273087f,
  1.9351301193237305f,
  -0.2666841447353363f,
  4.0706963539123535f,
  0.4402869939804077f,
  1.3985973596572876f,
  1.0106199979782104f,
  0.18664702773094177f,
  0.19744345545768738f,
  2.194009780883789f,
  1.150890588760376f,
  -2.7873449325561523f,
  1.7956547737121582f,
  0.2878381311893463f,
  -0.19004900753498077f,
  -1.6392501592636108f,
  -2.3696987628936768f,
  0.9715918302536011f,
  0.8278111815452576f,
  0.9405106902122498f,
  -2.9110212326049805f,
  -1.226291298866272f,
  -0.8275430798530579f,
  -2.255391836166382f,
  -0.5169553756713867f,
  -0.49041229486465454f,
  0.8934503197669983f,
  -1.640560269355774f,
  0.35839325189590454f,
  -1.465728759765625f,
  -0.8934286832809448f,
  -1.8387161493301392f,
  -0.9034500122070312f,
  -2.199463129043579f,
  -1.3605424165725708f,
  0.4780528247356415f,
  -0.06265232712030411f,
  -1.5958393812179565f,
  -2.1608805656433105f,
  -1.652224063873291f,
  -1.2457497119903564f,
  -0.32713183760643005f,
  -1.111292839050293f,
  0.4495120644569397f,
  0.3083062469959259f,
  -0.7633215188980103f,
  -1.2305405139923096f,
  -0.5191133618354797f,
  -0.8781101107597351f,
  -0.354146271944046f,
  0.1772645264863968f,
  2.953707218170166f,
  1.3849303722381592f,
  -0.22564034163951874f,
  -0.538757860660553f,
  -0.1677505522966385f,
  0.9987579584121704f,
  0.8062833547592163f,
  2.6089892387390137f,
  0.9719633460044861f,
  -0.4892394244670868f,
  1.3218213319778442f,
  1.8744025230407715f,
  -0.4157809913158417f,
  -0.013054583221673965f,
  -1.0516740083694458f,
  2.461836576461792f,
  3.535360097885132f,
  1.2841635942459106f,
  0.584773063659668f,
  1.0313634872436523f,
  -1.9140406847000122f,
  1.7300595045089722f,
  1.2534269094467163f,
  2.3760533332824707f,
  -1.0434592962265015f,
  2.1603171825408936f,
  -0.04977988824248314f,
  0.5624769926071167f,
  0.37101441621780396f,
  -1.2246007919311523f,
  -1.4031835794448853f,
  -0.08498313277959824f,
  2.6525704860687256f,
  0.060453083366155624f,
  -1.0929352045059204f,
  -2.4315977096557617f,
  -0.7102116346359253f,
  -1.1040436029434204f,
  0.17965343594551086f,
  1.3103344440460205f,
  -2.2486937046051025f,
  -0.9456666707992554f,
  -0.44604307413101196f,
  -2.2055463790893555f,
  -1.3556187152862549f,
  -0.8576523661613464f,
  -0.1297530084848404f,
  -2.4759254455566406f,
  1.2185239791870117f,
  -0.09002241492271423f,
  -0.7113521695137024f,
  -0.5607288479804993f,
  -2.1260440349578857f,
  -1.9324512481689453f,
  -0.8419930934906006f,
  1.819193959236145f,
  1.5920755863189697f,
  -1.0726470947265625f,
  -0.9204644560813904f,
  -1.1112333536148071f,
  -2.301835060119629f,
  -1.0563431978225708f,
  -0.9320855140686035f,
  -0.3197633922100067f,
  -0.900001585483551f,
  2.0963757038116455f,
  -2.376372814178467f,
  -1.4035392999649048f,
  -5.24580717086792f,
  -0.6448099613189697f,
  0.7706881165504456f,
  1.8112848997116089f,
  1.1196891069412231f,
  1.94019615650177f,
  0.7164927124977112f,
  -0.2723839581012726f,
  1.4144620895385742f,
  -1.0969417095184326f,
  2.102783203125f,
  2.0453522205352783f,
  0.056366853415966034f,
  0.049398042261600494f,
  0.06919271498918533f,
  -0.11509566009044647f,
  0.04960578680038452f,
  -0.03621552884578705f,
  0.06972891837358475f,
  0.02390805259346962f,
  0.06260444223880768f,
  -0.10956155508756638f,
  -0.11533162742853165f,
  -0.057072173804044724f,
  -0.015890568494796753f,
  -0.1032550111413002f,
  -0.03833108767867088f,
  -0.036215879023075104f,
  -0.022823192179203033f,
  -0.15226401388645172f,
  0.02715637907385826f,
  0.0535355880856514f,
  0.030322274193167686f,
  -0.05553341656923294f,
  -0.026618577539920807f,
  -0.061883654445409775f,
  0.029025310650467873f,
  -0.050285179167985916f,
  -0.011880988255143166f,
  0.017292438074946404f,
  -0.039789941161870956f,
  -0.13917702436447144f,
  -0.08350485563278198f,
  -0.038740407675504684f,
  0.03819920867681503f,
  0.031890034675598145f,
  0.02308063395321369f,
  -0.16223223507404327f,
  0.05007562413811684f,
  2.9605544114019722e-05f,
  -0.019784966483712196f,
  -0.055077556520700455f,
  0.0053321500308811665f,
  -0.021610861644148827f,
  -0.05982441082596779f,
  -0.13867732882499695f,
  0.028999745845794678f,
  -0.04869324341416359f,
  -0.015800200402736664f,
  -0.1094595417380333f,
  0.1286434382200241f,
  0.05015110224485397f,
  -0.09342394769191742f,
  0.027294408529996872f,
  -0.05857411399483681f,
  0.021389516070485115f,
  0.0737495869398117f,
  -0.0321633480489254f,
  0.08597412705421448f,
  -0.05295268073678017f,
  0.06570136547088623f,
  -0.06219591572880745f,
  -0.02480948343873024f,
  -0.06140005961060524f,
  -0.08184671401977539f,
  0.09691302478313446f,
  -0.17400041222572327f,
  0.1544608622789383f,
  -0.026867197826504707f,
  -0.09599148482084274f,
  -0.08023819327354431f,
  -0.07015033811330795f,
  -0.005077777896076441f,
  -0.056313373148441315f,
  -0.05375390872359276f,
  -0.020862916484475136f,
  -0.04295693710446358f,
  -0.08769547939300537f,
  -0.010123292915523052f,
  0.023295903578400612f,
  0.016892386600375175f,
  -0.18940375745296478f,
  -0.01905343309044838f,
  -0.038007818162441254f,
  -0.1372929960489273f,
  -0.13123871386051178f,
  -0.1361522674560547f,
  0.005712306126952171f,
  0.031297292560338974f,
  0.021933909505605698f,
  -0.005645079538226128f,
  0.008905580267310143f,
  -0.05973545089364052f,
  -0.1453559398651123f,
  -0.09562039375305176f,
  -0.1546001136302948f,
  -0.050572820007801056f,
  0.009385798126459122f,
  -0.0018563371850177646f,
  -0.018488440662622452f,
  -0.15726090967655182f,
  -0.0684928223490715f,
  -0.09009801596403122f,
  -0.05131664499640465f,
  0.010576600208878517f,
  -0.013112622313201427f,
  -0.13321828842163086f,
  0.04003537818789482f,
  0.020024597644805908f,
  -0.07146946340799332f,
  -0.04886528104543686f,
  0.0029793321155011654f,
  -0.012528096325695515f,
  -0.016867810860276222f,
  -0.10185745358467102f,
  -0.03860906511545181f,
  -0.0625476986169815f,
  0.018500108271837234f,
  -0.10164915770292282f,
  -0.005749440751969814f,
  -0.06503983587026596f,
  -0.17231684923171997f,
  -0.12373684346675873f,
  -0.007558856625109911f,
  -0.10754506289958954f,
  -0.09563624113798141f,
  -0.0699707642197609f,
  -0.12182818353176117f,
  -0.19780446588993073f,
  -0.023001136258244514f,
  1.3691991567611694f,
  -0.19186796247959137f,
  0.1519940197467804f,
  0.2888262867927551f,
  0.16874049603939056f,
  0.27915287017822266f,
  0.6168963313102722f,
  0.25002458691596985f,
  0.34780454635620117f,
  0.5070907473564148f,
  -0.29036468267440796f,
  -0.6538399457931519f,
  -0.4120366871356964f,
  -0.33289670944213867f,
  0.7443003058433533f,
  0.19303441047668457f,
  -0.007293902337551117f,
  0.079348124563694f,
  -0.8786677718162537f,
  -0.07077468931674957f,
  -0.382314532995224f,
  0.08914417773485184f,
  -0.3688126504421234f,
  -0.08232778310775757f,
  -0.16835683584213257f,
  -0.09146977216005325f,
  -0.9166746139526367f,
  -2.0366015434265137f,
  -1.634638786315918f,
  -1.567625641822815f,
  0.5632418990135193f,
  0.6870036721229553f,
  0.07556851208209991f,
  -0.17180262506008148f,
  -0.6312183737754822f,
  -1.7178881168365479f,
  -1.907142162322998f,
  -1.9904512166976929f,
  -0.11317342519760132f,
  -0.7060324549674988f,
  0.2210369110107422f,
  0.1413384974002838f,
  0.3033212423324585f,
  -1.3877209424972534f,
  -1.826180100440979f,
  -0.7082962989807129f,
  -2.085855007171631f,
  2.0462911128997803f,
  0.7165728211402893f,
  1.024946928024292f,
  -0.8378683924674988f,
  -0.1393815129995346f,
  -0.5647597908973694f,
  0.3585938513278961f,
  5.404841899871826f,
  6.147777557373047f,
  0.14757660031318665f,
  0.18666952848434448f,
  0.504200279712677f,
  0.10968347638845444f,
  0.3638385236263275f,
  2.384119987487793f,
  6.26047420501709f,
  -8.967196464538574f,
  1.534443736076355f,
  0.1147710531949997f,
  0.1387997269630432f,
  0.2197979837656021f,
  0.55576092004776f,
  -0.24965690076351166f,
  0.7148888111114502f,
  1.4030990600585938f,
  0.6868135929107666f,
  0.989543616771698f,
  -0.28242227435112f,
  -0.5672717094421387f,
  -0.4821549355983734f,
  -0.007592187263071537f,
  0.4071383476257324f,
  -0.04857080057263374f,
  0.14000043272972107f,
  -0.29470688104629517f,
  -0.36189335584640503f,
  -0.4056118130683899f,
  -0.7274944186210632f,
  0.175879567861557f,
  -0.1875883787870407f,
  0.24435341358184814f,
  -0.19715070724487305f,
  0.20868949592113495f,
  -0.6638021469116211f,
  -1.9381256103515625f,
  -1.4890202283859253f,
  -1.5472679138183594f,
  0.5111053586006165f,
  0.008300013840198517f,
  -0.23048260807991028f,
  0.21319642663002014f,
  -0.3983420431613922f,
  -1.656911849975586f,
  -1.8601737022399902f,
  -2.2405169010162354f,
  -0.15630100667476654f,
  0.08437016606330872f,
  0.028281595557928085f,
  0.05032585933804512f,
  -0.18703225255012512f,
  -1.3411310911178589f,
  -2.0478391647338867f,
  -1.8770954608917236f,
  -1.2523467540740967f,
  2.0633151531219482f,
  0.07905644178390503f,
  0.6116751432418823f,
  -0.6171041131019592f,
  -0.20895060896873474f,
  -0.34740927815437317f,
  0.5407937169075012f,
  1.241984248161316f,
  3.833367109298706f,
  1.2006040811538696f,
  0.20083393156528473f,
  0.5667505264282227f,
  0.6266708374023438f,
  0.2614516317844391f,
  2.8894872665405273f,
  3.043109893798828f,
  -7.404183387756348f,
  2.6923224925994873f,
  1.7260106801986694f,
  -1.412950873374939f,
  -1.6953538656234741f,
  1.5127015113830566f,
  1.7347949743270874f,
  1.3733679056167603f,
  1.6661263704299927f,
  -0.4361775517463684f,
  1.3834967613220215f,
  0.10310739278793335f,
  -0.2867274582386017f,
  -1.8583978414535522f,
  -0.04628947377204895f,
  0.1595393866300583f,
  0.49149516224861145f,
  1.8992068767547607f,
  -4.389681816101074f,
  -0.3332875967025757f,
  0.6803126931190491f,
  -2.2952589988708496f,
  -0.15631066262722015f,
  0.08958059549331665f,
  -0.48289579153060913f,
  -1.3816611766815186f,
  -1.9051856994628906f,
  -2.093123435974121f,
  -0.3690633177757263f,
  -1.3534682989120483f,
  -3.895381212234497f,
  -0.960551381111145f,
  0.7363788485527039f,
  0.5630468726158142f,
  0.7392444014549255f,
  -1.2547420263290405f,
  -1.3725028038024902f,
  -0.5554794073104858f,
  -0.19032855331897736f,
  -0.21022123098373413f,
  -0.6391236782073975f,
  -0.4317706823348999f,
  -0.9201582074165344f,
  -0.6524871587753296f,
  -1.0385833978652954f,
  -1.0399423837661743f,
  -1.8275320529937744f,
  -0.8794231414794922f,
  -3.0600523948669434f,
  1.1012345552444458f,
  1.4206342697143555f,
  -0.23680131137371063f,
  -0.46062836050987244f,
  -0.010552426800131798f,
  -2.1457200050354004f,
  2.5673794746398926f,
  2.305119276046753f,
  2.1772851943969727f,
  2.123124361038208f,
  0.5563315153121948f,
  0.3335910141468048f,
  0.6516247987747192f,
  0.9859962463378906f,
  2.1181480884552f,
  1.4864833354949951f,
  0.7865310311317444f,
  -0.5636924505233765f,
  -1.8962293863296509f,
  -0.42236870527267456f,
  1.3148813247680664f,
  2.4567630290985107f,
  -1.6577399969100952f,
  2.284898519515991f,
  1.5262726545333862f,
  0.5588943958282471f,
  -0.16191785037517548f,
  -1.684761881828308f,
  0.29809659719467163f,
  0.33309146761894226f,
  -0.7791386246681213f,
  0.8729756474494934f,
  0.19832026958465576f,
  -0.8577110171318054f,
  0.21340611577033997f,
  -2.144483804702759f,
  0.129415825009346f,
  -2.1018619537353516f,
  -1.8304712772369385f,
  1.6455106735229492f,
  0.40177640318870544f,
  -0.32567042112350464f,
  -0.6109278202056885f,
  -1.7488676309585571f,
  -1.7357665300369263f,
  -0.5473162531852722f,
  -0.954712450504303f,
  -1.8708786964416504f,
  0.15405139327049255f,
  0.37883755564689636f,
  -2.1757559776306152f,
  -0.14870060980319977f,
  -0.8078687787055969f,
  -2.3488800525665283f,
  -2.9498109817504883f,
  0.23213864862918854f,
  -3.727504014968872f,
  0.4690675437450409f,
  0.32575950026512146f,
  -1.9352271556854248f,
  -0.8646589517593384f,
  -1.4407563209533691f,
  0.03467274084687233f,
  0.36990392208099365f,
  0.7652928233146667f,
  1.171262264251709f,
  -0.36744633316993713f,
  -3.052642583847046f,
  -0.42827725410461426f,
  0.8709439635276794f,
  0.5027285218238831f,
  2.043480634689331f,
  1.4442811012268066f,
  1.513888955116272f,
  -0.37435171008110046f,
  1.2189346551895142f,
  -0.36691489815711975f,
  0.9949413537979126f,
  0.7179152369499207f,
  2.6511518955230713f,
  3.4887948036193848f,
  2.435755491256714f,
  0.2515799105167389f,
  -1.2565752267837524f,
  0.6396222710609436f,
  -0.47896939516067505f,
  2.135908603668213f,
  1.0277818441390991f,
  1.9857659339904785f,
  -0.1644934117794037f,
  -1.6140118837356567f,
  0.6324440240859985f,
  -1.329840064048767f,
  -0.5462057590484619f,
  1.0771068334579468f,
  0.2123686969280243f,
  0.5046982765197754f,
  1.3387879133224487f,
  -1.7762283086776733f,
  -0.3417554199695587f,
  -2.3112876415252686f,
  -1.0810925960540771f,
  -0.666320264339447f,
  1.1147575378417969f,
  -1.5849840641021729f,
  -1.364795207977295f,
  -2.4042277336120605f,
  -1.9895353317260742f,
  -1.5734694004058838f,
  -1.8147389888763428f,
  -1.1792974472045898f,
  0.9009920358657837f,
  -2.065946578979492f,
  -2.0797104835510254f,
  -2.6221110820770264f,
  -0.6457721590995789f,
  -2.1415047645568848f,
  -2.2865982055664062f,
  1.1995428800582886f,
  -0.25810006260871887f,
  -2.093294382095337f,
  -0.8695763945579529f,
  -1.2941644191741943f,
  -1.1998964548110962f,
  -1.0454767942428589f,
  -1.3087458610534668f,
  2.2346770763397217f,
  1.000044345855713f,
  2.1939122676849365f,
  0.09813534468412399f,
  -3.1726255416870117f,
  -2.0044009685516357f,
  -0.5500863194465637f,
  -1.6126726865768433f,
  -1.501279592514038f,
  -1.1562974452972412f,
  3.3718180656433105f,
  3.2009339332580566f,
  0.761849582195282f,
  0.8740796446800232f,
  0.9244368076324463f,
  -1.0399339199066162f,
  -0.24869054555892944f,
  0.23408785462379456f,
  1.8658018112182617f,
  1.7938727140426636f,
  -0.9395890831947327f,
  -0.09779918193817139f,
  1.9377316236495972f,
  -0.9723650217056274f,
  -0.005924087017774582f,
  0.9128098487854004f,
  1.5278103351593018f,
  2.584725856781006f,
  -0.3312854766845703f,
  -1.2214282751083374f,
  -1.4018718004226685f,
  -1.0204226970672607f,
  2.353665828704834f,
  1.9566552639007568f,
  0.5863710641860962f,
  0.09728306531906128f,
  -2.5100903511047363f,
  -1.9281034469604492f,
  -0.2987455129623413f,
  -0.194778710603714f,
  -0.33682936429977417f,
  -0.6418445706367493f,
  0.8995196223258972f,
  -0.13226008415222168f,
  0.009941565804183483f,
  -1.9727123975753784f,
  -2.200756311416626f,
  -1.7057934999465942f,
  -0.23543058335781097f,
  0.8353492021560669f,
  1.4546762704849243f,
  0.3896295130252838f,
  -1.3775664567947388f,
  -1.10672128200531f,
  -1.7927159070968628f,
  -1.0508410930633545f,
  0.046362102031707764f,
  0.31484121084213257f,
  2.199302911758423f,
  -0.8514266610145569f,
  -1.0759658813476562f,
  -2.5309555530548096f,
  -1.8204504251480103f,
  -1.6434845924377441f,
  -0.09685266017913818f,
  -0.3434314429759979f,
  1.4664665460586548f,
  3.494122266769409f,
  -1.7167340517044067f,
  -0.40166914463043213f,
  -0.1308077871799469f,
  0.5787689685821533f,
  0.19172990322113037f,
  1.1992425918579102f,
  0.8933923840522766f,
  -1.1405153274536133f,
  -1.5485836267471313f,
  0.46711409091949463f,
  1.5628166198730469f,
  -1.8614742755889893f,
  1.645728588104248f,
  0.9959413409233093f,
  1.2375140190124512f,
  -0.31412971019744873f,
  -0.4517136812210083f,
  0.9790480732917786f,
  0.7033960223197937f,
  -0.610516369342804f,
  2.3622989654541016f,
  0.062248677015304565f,
  -0.9196933507919312f,
  0.42379769682884216f,
  -1.294547438621521f,
  0.06921638548374176f,
  0.3667173385620117f,
  0.6820630431175232f,
  2.1710543632507324f,
  -0.955918550491333f,
  0.7780709266662598f,
  1.0239266157150269f,
  -0.037348370999097824f,
  -0.49084600806236267f,
  -1.2912391424179077f,
  -0.9678376317024231f,
  2.96563982963562f,
  1.7301198244094849f,
  0.39029449224472046f,
  0.16159969568252563f,
  -0.15714643895626068f,
  -2.3251967430114746f,
  -1.4032987356185913f,
  -2.511979818344116f,
  -4.410223484039307f,
  3.1237151622772217f,
  -0.8927479982376099f,
  -0.1938968300819397f,
  -1.0894752740859985f,
  -2.1134796142578125f,
  -2.2304508686065674f,
  -2.1599066257476807f,
  -2.133244037628174f,
  3.471355438232422f,
  0.6829003095626831f,
  -0.11754216998815536f,
  -0.42953696846961975f,
  -1.2838459014892578f,
  -2.790469169616699f,
  -1.0067369937896729f,
  2.2325899600982666f,
  0.37826597690582275f,
  0.5124869346618652f,
  -0.6613078117370605f,
  0.17117461562156677f,
  0.5396016240119934f,
  -0.7609804272651672f,
  -0.9099968075752258f,
  3.171753406524658f,
  -1.0120537281036377f,
  1.6466238498687744f,
  0.4783288240432739f,
  -0.2801501452922821f,
  0.7164735794067383f,
  -1.216856598854065f,
  0.6128787994384766f,
  3.154572010040283f,
  1.007591724395752f,
  2.096773624420166f,
  -0.6274377107620239f,
  -0.7971607446670532f,
  0.905251145362854f,
  0.17092454433441162f,
  -0.02924347296357155f,
  1.3333183526992798f,
  0.6754041314125061f,
  0.4466588795185089f,
  0.15892867743968964f,
  0.04862265661358833f,
  -0.7446395754814148f,
  0.36631256341934204f,
  1.1880391836166382f,
  1.8263200521469116f,
  0.3914862275123596f,
  0.9174826145172119f,
  1.0626739263534546f,
  -1.0610277652740479f,
  -0.7955729961395264f,
  -0.8730377554893494f,
  -0.998415470123291f,
  0.8945448398590088f,
  2.1375060081481934f,
  0.1277131587266922f,
  -0.008649885654449463f,
  -0.7447392344474792f,
  -1.726378083229065f,
  -1.9820653200149536f,
  -1.6077569723129272f,
  0.40195828676223755f,
  1.9787702560424805f,
  -0.856600284576416f,
  -0.8420432806015015f,
  -0.9491297006607056f,
  -1.7831792831420898f,
  -1.600696086883545f,
  -1.4569227695465088f,
  0.22419682145118713f,
  2.843463659286499f,
  0.22339990735054016f,
  -0.5665168166160583f,
  -0.6770040392875671f,
  -1.5421639680862427f,
  -1.2609214782714844f,
  -1.1131991147994995f,
  0.8938395380973816f,
  2.5702383518218994f,
  1.078249454498291f,
  0.8974900841712952f,
  -0.22823075950145721f,
  -0.3135567605495453f,
  0.050822094082832336f,
  -0.8024412393569946f,
  2.0789990425109863f,
  -0.3463831841945648f,
  1.2868962287902832f,
  0.24602700769901276f,
  -0.1798456907272339f,
  -0.4079030156135559f,
  -0.5771710276603699f,
  0.26123443245887756f,
  2.8797223567962646f,
  -1.2305103540420532f,
  0.2187342494726181f,
  -1.0391591787338257f,
  -0.30972516536712646f,
  -1.2604689598083496f,
  0.17287583649158478f,
  -0.5627372860908508f,
  0.663664698600769f,
  5.333806037902832f,
  -0.08979979902505875f,
  0.029396936297416687f,
  0.36938223242759705f,
  0.22811418771743774f,
  0.18786323070526123f,
  0.047236379235982895f,
  -1.092463493347168f,
  -4.426977634429932f,
  0.502821683883667f,
  0.053654320538043976f,
  0.4974307715892792f,
  0.06269532442092896f,
  -0.9866790771484375f,
  -0.7722650766372681f,
  -0.3340848386287689f,
  -4.211925506591797f,
  0.31953006982803345f,
  0.06001697853207588f,
  -0.6347284317016602f,
  -1.2070187330245972f,
  -1.4212820529937744f,
  -1.5493305921554565f,
  -0.8784606456756592f,
  -6.605893611907959f,
  -0.2534113824367523f,
  -0.8664590716362f,
  0.11276503652334213f,
  -1.5614739656448364f,
  -1.2626054286956787f,
  -1.5275156497955322f,
  -0.4235035181045532f,
  1.0451587438583374f,
  0.05176788195967674f,
  -0.29836976528167725f,
  -0.635379433631897f,
  -0.5841243863105774f,
  -1.4023960828781128f,
  -0.4951570928096771f,
  -0.0925263911485672f,
  -1.7512842416763306f,
  -0.2683085501194f,
  -0.6595602631568909f,
  -0.24921904504299164f,
  -0.09098970890045166f,
  -0.23703689873218536f,
  0.43016260862350464f,
  -0.1389825940132141f,
  -1.3955039978027344f,
  0.024870676919817924f,
  -0.35515087842941284f,
  0.31564897298812866f,
  0.20333229005336761f,
  -1.0659526586532593f,
  0.49925872683525085f,
  -0.44836437702178955f,
  6.750061988830566f,
  1.0929899215698242f,
  0.1031804159283638f,
  -0.25376462936401367f,
  -0.3529479503631592f,
  -0.26503095030784607f,
  -0.8586022257804871f,
  1.1275043487548828f,
  4.998593807220459f,
  0.3548925518989563f,
  -0.007759491913020611f,
  0.38556545972824097f,
  0.20884276926517487f,
  0.4433237612247467f,
  -0.47078391909599304f,
  -0.24199192225933075f,
  5.187650203704834f,
  0.25840020179748535f,
  0.018571818247437477f,
  0.11457864940166473f,
  -0.1657201051712036f,
  -0.47671496868133545f,
  -1.2293946743011475f,
  -0.1666831523180008f,
  2.6381025314331055f,
  0.07460970431566238f,
  -0.10569833964109421f,
  -0.12177751958370209f,
  -1.2681912183761597f,
  -1.7708245515823364f,
  -1.244408130645752f,
  -0.6745843291282654f,
  1.8311924934387207f,
  -0.10200684517621994f,
  -0.4332948625087738f,
  -0.03463805839419365f,
  -1.4305323362350464f,
