static const float l1_weights[] = {
  2.9939990043640137f,
  0.26843416690826416f,
  -0.3554111421108246f,
  0.38660264015197754f,
  0.9439100623130798f,
  -3.7088024616241455f,
  -2.1920039653778076f,
  -1.9911601543426514f,
  -0.7930505871772766f,
  -1.6996779441833496f,
  0.6259963512420654f,
  -0.1709747016429901f,
  -0.49599891901016235f,
  -0.6556843519210815f,
  0.7478088140487671f,
  0.6080567240715027f,
  -0.7053272724151611f,
  0.4506515562534332f,
  2.2389297485351562f,
  -2.648232936859131f,
  -0.450041800737381f,
  0.1812208592891693f,
  -0.413635790348053f,
  -0.8950137495994568f,
  -0.5991681814193726f,
  -0.5540949702262878f,
  -4.1559882164001465f,
  0.5977643728256226f,
  -1.9940102100372314f,
  0.5801537036895752f,
  -0.0582926906645298f,
  -0.4135551154613495f,
  0.06621759384870529f,
  -0.3270530700683594f,
  -0.2404424399137497f,
  0.6466144323348999f,
  1.3138960599899292f,
  0.5283129811286926f,
  0.1465853452682495f,
  -0.2726345658302307f,
  -0.7384262084960938f,
  -0.4247811734676361f,
  -0.15136177837848663f,
  -0.3915148675441742f,
  -1.6212619543075562f,
  0.28151872754096985f,
  0.2647513747215271f,
  -0.15447694063186646f,
  -3.4960896968841553f,
  -0.5846880674362183f,
  -0.1973336935043335f,
  0.30400338768959045f,
  -0.4110581576824188f,
  0.08836334943771362f,
  1.1611180305480957f,
  -0.1252308189868927f,
  0.627047061920166f,
  -0.14501769840717316f,
  -0.46661773324012756f,
  0.08307015150785446f,
  0.10989204794168472f,
  0.17827053368091583f,
  -1.7867687940597534f,
  -1.2174524068832397f,
  14.08969497680664f,
  3.1108803749084473f,
  -1.419321060180664f,
  0.41038602590560913f,
  0.015732035040855408f,
  -2.4038634300231934f,
  -1.3556352853775024f,
  0.03200637176632881f,
  5.02278995513916f,
  0.8730741739273071f,
  0.7195377945899963f,
  -0.21657133102416992f,
  -0.5406392216682434f,
  -0.0878746435046196f,
  0.8310754299163818f,
  0.08986400812864304f,
  -1.6845892667770386f,
  -0.5202974081039429f,
  3.1550705432891846f,
  -3.024977445602417f,
  -0.5439842939376831f,
  -0.1638002097606659f,
  -0.158246710896492f,
  -0.4279419183731079f,
  0.7078052759170532f,
  -0.7428169250488281f,
  -4.134244918823242f,
  0.713117778301239f,
  -1.7974568605422974f,
  0.5548130869865417f,
  0.22888325154781342f,
  -0.25857338309288025f,
  0.1443973332643509f,
  0.05706566199660301f,
  -0.8090333342552185f,
  0.9526047706604004f,
  1.1483961343765259f,
  0.45130497217178345f,
  -0.18382136523723602f,
  -0.030015138909220695f,
  -1.0973752737045288f,
  -0.34896954894065857f,
  -0.8423882126808167f,
  0.08224836736917496f,
  -2.1070806980133057f,
  0.4229220151901245f,
  -0.0454365611076355f,
  0.05799957737326622f,
  -3.418031692504883f,
  0.47486117482185364f,
  -0.053682841360569f,
  -0.03671380877494812f,
  -0.4658952057361603f,
  0.0756416916847229f,
  1.1710476875305176f,
  0.10713057219982147f,
  1.470916509628296f,
  -0.18231962621212006f,
  -0.42792385816574097f,
  0.3622400164604187f,
  0.15148670971393585f,
  0.15885214507579803f,
  -0.12268562614917755f,
  1.6211718320846558f,
  -8.44255542755127f,
  8.875490188598633f,
  0.02120629884302616f,
  5.662646293640137f,
  -1.055045485496521f,
  1.8659820556640625f,
  6.905027389526367f,
  9.635830879211426f,
  -5.409997463226318f,
  4.222095489501953f,
  -0.5309975147247314f,
  -6.286620140075684f,
  0.9041752219200134f,
  -0.4509177803993225f,
  1.3729159832000732f,
  9.95621395111084f,
  9.715119361877441f,
  -3.020961046218872f,
  -6.497401237487793f,
  -2.9784047603607178f,
  -4.352126598358154f,
  -3.687375545501709f,
  -0.8343791961669922f,
  4.0900750160217285f,
  8.356816291809082f,
  -5.042014122009277f,
  -1.6764658689498901f,
  -5.249420642852783f,
  0.4461004137992859f,
  -5.049510478973389f,
  -6.573418140411377f,
  2.592686891555786f,
  -1.0544390678405762f,
  -3.0037546157836914f,
  -6.766923427581787f,
  -1.1233404874801636f,
  -7.433347702026367f,
  -5.232282638549805f,
  -4.9757866859436035f,
  -0.15628759562969208f,
  5.853886604309082f,
  -7.178110122680664f,
  -0.7469591498374939f,
  -10.844097137451172f,
  -6.460023880004883f,
  -8.122038841247559f,
  -4.279018878936768f,
  4.300588130950928f,
  2.0389363765716553f,
  0.0407927967607975f,
  0.41416504979133606f,
  -1.11172616481781f,
  1.0262967348098755f,
  2.1761484146118164f,
  6.453022003173828f,
  4.914552211761475f,
  7.519608497619629f,
  5.462235927581787f,
  1.463122844696045f,
  2.5690817832946777f,
  -0.9439339637756348f,
  -1.0955994129180908f,
  3.4941396713256836f,
  9.2755765914917f,
  7.570498943328857f,
  8.732336044311523f,
  -4.731906414031982f,
  9.116462707519531f,
  3.371734142303467f,
  -2.1285359859466553f,
  6.41408634185791f,
  6.228031158447266f,
  1.6886011362075806f,
  4.75557804107666f,
  -1.1850430965423584f,
  -8.524277687072754f,
  0.8894790410995483f,
  1.0081180334091187f,
  -1.9830440282821655f,
  8.226601600646973f,
  8.099651336669922f,
  -8.593504905700684f,
  -7.6145477294921875f,
  -4.830013751983643f,
  -6.666439533233643f,
  -2.9500560760498047f,
  -1.6414458751678467f,
  4.839917182922363f,
  1.4560918807983398f,
  -2.3183066844940186f,
  3.6053690910339355f,
  -3.2930543422698975f,
  1.8563438653945923f,
  -9.881732940673828f,
  -5.206387519836426f,
  -1.2788692712783813f,
  4.60831880569458f,
  0.6477991342544556f,
  -6.7236552238464355f,
  -0.8798952698707581f,
  -7.06456184387207f,
  -4.470050811767578f,
  -8.06765079498291f,
  -5.078995704650879f,
  5.213590621948242f,
  -5.050012111663818f,
  1.7908626794815063f,
  -9.761545181274414f,
  -5.563742637634277f,
  -8.347326278686523f,
  -5.544500350952148f,
  -0.21738174557685852f,
  3.887963056564331f,
  0.0066209835931658745f,
  -1.0872787237167358f,
  -3.1174721717834473f,
  0.7306442856788635f,
  1.5808192491531372f,
  3.1584665775299072f,
  8.451056480407715f,
  6.051961421966553f,
  3.927593469619751f,
  3.68923020362854f,
  1.3717864751815796f,
  -1.5666985511779785f,
  0.504887044429779f,
  0.7756937146186829f,
  8.968795776367188f,
  0.789334774017334f,
  1.0881738662719727f,
  -0.2085561603307724f,
  -0.06844086945056915f,
  -0.3938879370689392f,
  -0.18342962861061096f,
  0.6143384575843811f,
  1.1864854097366333f,
  -0.3490445911884308f,
  0.17091631889343262f,
  -0.18463543057441711f,
  0.05845986306667328f,
  -0.2652584910392761f,
  0.5581042766571045f,
  0.22369533777236938f,
  -0.20661354064941406f,
  0.43992671370506287f,
  0.06967505812644958f,
  -0.30693307518959045f,
  -0.12738575041294098f,
  0.19448556005954742f,
  -0.14501208066940308f,
  -0.3383927643299103f,
  -0.12604302167892456f,
  -0.14307422935962677f,
  0.4166857600212097f,
  -0.2912105917930603f,
  -5.307727813720703f,
  -5.465783596038818f,
  -2.5302884578704834f,
  -1.5576421022415161f,
  0.6091557145118713f,
  -0.3367672860622406f,
  -0.04323725774884224f,
  -0.7956005930900574f,
  -5.744287967681885f,
  -8.563754081726074f,
  -2.112436056137085f,
  -0.35587820410728455f,
  0.4201653003692627f,
  0.06171329692006111f,
  1.3879799842834473f,
  -2.2190752029418945f,
  -1.1268424987792969f,
  1.6022772789001465f,
  -3.4498348236083984f,
  -0.14219138026237488f,
  0.04329683631658554f,
  0.7782582640647888f,
  0.8693168759346008f,
  0.853834867477417f,
  -2.659358263015747f,
  1.2001816034317017f,
  -0.6884192228317261f,
  0.557997465133667f,
  1.0964086055755615f,
  1.332266092300415f,
  3.628194570541382f,
  7.237452030181885f,
  5.62030029296875f,
  8.707064628601074f,
  7.5464863777160645f,
  -4.063152313232422f,
  -3.6323606967926025f,
  0.26048630475997925f,
  -0.1451817899942398f,
  0.055240336805582047f,
  -0.34028515219688416f,
  -0.25960731506347656f,
  -0.24752192199230194f,
  0.31250253319740295f,
  0.6239498257637024f,
  0.2940010726451874f,
  -0.6427658200263977f,
  0.08961290121078491f,
  -0.19101843237876892f,
  0.033516775816679f,
  0.2293936163187027f,
  -0.14034900069236755f,
  0.22510093450546265f,
  0.047445062547922134f,
  -0.18543237447738647f,
  -0.17696449160575867f,
  -0.7744457721710205f,
  0.22756771743297577f,
  0.03915928676724434f,
  -0.8171872496604919f,
  0.0682661235332489f,
  0.002065833890810609f,
  0.18663397431373596f,
  -0.23607444763183594f,
  -5.036624431610107f,
  -5.550124168395996f,
  -2.4121897220611572f,
  -1.2871406078338623f,
  0.139910489320755f,
  -0.43289312720298767f,
  -0.2246938943862915f,
  -0.9054879546165466f,
  -5.698540210723877f,
  -8.50364875793457f,
  -2.429173469543457f,
  -0.45677709579467773f,
  -0.1035575270652771f,
  0.3131355047225952f,
  0.5143042206764221f,
  -1.9984017610549927f,
  -0.9943863153457642f,
  0.5067181587219238f,
  -3.7176425457000732f,
  0.14636825025081635f,
  -0.20206879079341888f,
  0.6936066150665283f,
  1.4336804151535034f,
  1.0468405485153198f,
  -2.6851375102996826f,
  1.4568003416061401f,
  -0.32431983947753906f,
  -0.3393090069293976f,
  1.1414297819137573f,
  8.45829963684082f,
  -9.380631446838379f,
  10.111675262451172f,
  3.7227859497070312f,
  7.570260047912598f,
  8.105958938598633f,
  12.00279426574707f,
  -11.587728500366211f,
  0.11569005250930786f,
  0.36602821946144104f,
  1.2038400173187256f,
  0.7255972623825073f,
  -1.6680428981781006f,
  -4.670894145965576f,
  5.110595226287842f,
  6.16847038269043f,
  1.7110470533370972f,
  6.786537170410156f,
  -0.8150263428688049f,
  3.3677217960357666f,
  0.9377139806747437f,
  9.484054565429688f,
  -6.012543678283691f,
  12.303524017333984f,
  3.4794368743896484f,
  -1.2500805854797363f,
  2.561065912246704f,
  0.4574926495552063f,
  -3.870121717453003f,
  -9.6377592086792f,
  -3.687209129333496f,
  -1.794339656829834f,
  -1.2319538593292236f,
  -2.3807284832000732f,
  -5.711629867553711f,
  -7.592991828918457f,
  -0.6809250116348267f,
  -0.9150060415267944f,
  -2.824138879776001f,
  4.110865592956543f,
  7.107956886291504f,
  -2.8820271492004395f,
  -11.481145858764648f,
  -8.861656188964844f,
  -5.962013244628906f,
  -0.41635942459106445f,
  -7.858376979827881f,
  1.500596523284912f,
  -6.2763566970825195f,
  6.140313148498535f,
  -8.284037590026855f,
  1.9227080345153809f,
  4.072962284088135f,
  -2.2891337871551514f,
  -1.8978925943374634f,
  -9.350456237792969f,
  6.3880205154418945f,
  -5.849282264709473f,
  1.088719367980957f,
  4.1643476486206055f,
  -1.2030649185180664f,
  -2.4570744037628174f,
  3.7249460220336914f,
  7.296236038208008f,
  0.20729516446590424f,
  5.05851936340332f,
  -2.6141042709350586f,
  -4.925931930541992f,
  -0.9745602607727051f,
  -0.7423751354217529f,
  0.7969372272491455f,
  6.276247978210449f,
  0.8413738012313843f,
  0.19188468158245087f,
  -3.0789096355438232f,
  3.854541301727295f,
  -0.35004281997680664f,
  -7.8167338371276855f,
  5.268616676330566f,
  6.479999542236328f,
  -0.9754179120063782f,
  -1.2203071117401123f,
  -4.353694915771484f,
  -1.0983896255493164f,
  4.5228471755981445f,
  7.981011390686035f,
  1.7813442945480347f,
  7.748203277587891f,
  -0.032451190054416656f,
  -0.5594335794448853f,
  0.552400529384613f,
  2.602146625518799f,
  -3.2997782230377197f,
  -8.116344451904297f,
  -6.167187213897705f,
  -2.2288706302642822f,
  -0.07187298685312271f,
  -1.1473125219345093f,
  -5.954426288604736f,
  -8.379922866821289f,
  -2.516636848449707f,
  1.1833443641662598f,
  -7.940577507019043f,
  3.8423244953155518f,
  1.9465535879135132f,
  -1.6423848867416382f,
  -9.042901039123535f,
  -5.322597980499268f,
  -6.018599510192871f,
  -1.0871381759643555f,
  -7.116697788238525f,
  -1.5898361206054688f,
  2.53878116607666f,
  -2.2933273315429688f,
  -3.2061264514923096f,
  -4.369908809661865f,
  3.150280237197876f,
  -4.329861164093018f,
  -3.4368410110473633f,
  5.894927978515625f,
  5.05895471572876f,
  0.8490254282951355f,
  -2.620586633682251f,
  1.614776849746704f,
  -1.2680186033248901f,
  -5.89766263961792f,
  2.710625171661377f,
  5.44062614440918f,
  0.6281681656837463f,
  4.593279838562012f,
  -1.8258496522903442f,
  -2.505427360534668f,
  4.995282173156738f,
  1.1295201778411865f,
  2.7921247482299805f,
  4.269060134887695f,
  2.821770191192627f,
  0.14629335701465607f,
  -0.21571917831897736f,
  0.07685898244380951f,
  -1.1427743434906006f,
  1.5331506729125977f,
  -1.2115765810012817f,
  -0.9003766179084778f,
  -11.49571418762207f,
  -0.17188096046447754f,
  0.0702509954571724f,
  0.400778591632843f,
  0.23328319191932678f,
  -0.49736109375953674f,
  0.8338574171066284f,
  0.37195536494255066f,
  -0.5331937074661255f,
  0.2248050719499588f,
  0.5959722399711609f,
  -0.46227186918258667f,
  0.04772547632455826f,
  -0.1943686455488205f,
  -0.2923216223716736f,
  -1.1347838640213013f,
  0.08667664974927902f,
  1.2584364414215088f,
  -1.265059471130371f,
  -2.8480000495910645f,
  -3.332564115524292f,
  -1.9523941278457642f,
  0.552508533000946f,
  1.0922914743423462f,
  3.8365890979766846f,
  0.5867302417755127f,
  -4.671878814697266f,
  0.07239685207605362f,
  -5.385919094085693f,
  -0.2542809247970581f,
  -0.7432121634483337f,
  0.223468616604805f,
  2.5061864852905273f,
  0.842754602432251f,
  1.1683825254440308f,
  -1.2384259700775146f,
  -1.1231766939163208f,
  -1.6313048601150513f,
  0.09101398289203644f,
  -0.8979603052139282f,
  3.708277463912964f,
  -0.5310494303703308f,
  0.5277704000473022f,
  1.355960488319397f,
  -0.13901019096374512f,
  0.3372989892959595f,
  -0.010015986859798431f,
  -0.436239629983902f,
  10.041969299316406f,
  -0.24793115258216858f,
  0.8428245782852173f,
  0.39436712861061096f,
  1.0281665325164795f,
  -1.4308146238327026f,
  -0.6740684509277344f,
  0.6688227653503418f,
  3.171722888946533f,
  -0.13893555104732513f,
  0.7862160205841064f,
  -0.5549275875091553f,
  -0.4777899384498596f,
  -0.043130647391080856f,
  0.44219398498535156f,
  0.7164360880851746f,
  -4.9540324211120605f,
  1.4386769533157349f,
  -0.10276952385902405f,
  0.2642225921154022f,
  0.5302472114562988f,
  -0.33499854803085327f,
  0.5797634720802307f,
  0.36010342836380005f,
  -11.793489456176758f,
  -0.848614513874054f,
  0.49443700909614563f,
  -0.3435041606426239f,
  -0.5412285923957825f,
  -0.1687825620174408f,
  -0.47877609729766846f,
  -0.056968510150909424f,
  -10.74256420135498f,
  0.7950594425201416f,
  -1.5133036375045776f,
  -2.348745107650757f,
  -2.90510892868042f,
  -1.5208141803741455f,
  0.54076087474823f,
  0.11354903876781464f,
  -0.4201931953430176f,
  0.2813138961791992f,
  -4.0646162033081055f,
  0.4342302680015564f,
  -5.65241003036499f,
  -0.3138066828250885f,
  -0.5599040389060974f,
  0.08846723288297653f,
  3.237367630004883f,
  -0.08509675413370132f,
  0.5069892406463623f,
  -1.6715575456619263f,
  -1.1145641803741455f,
  -1.608347773551941f,
  -0.015382722020149231f,
  -0.6349708437919617f,
  5.904727458953857f,
  0.8542778491973877f,
  1.1157877445220947f,
  1.8957408666610718f,
  0.08582595735788345f,
  0.39210888743400574f,
  0.17082107067108154f,
  -0.23814012110233307f,
  16.933618545532227f,
  1.2508745193481445f,
  0.5999305844306946f,
  0.1982675939798355f,
  0.6831162571907043f,
  -0.3098132610321045f,
  -0.17468377947807312f,
  1.3051966428756714f,
  4.949396133422852f,
  3.818117380142212f,
  0.23401989042758942f,
  7.749321937561035f,
  -5.6975321769714355f,
  4.431835174560547f,
  2.691786766052246f,
  5.001142978668213f,
  -8.354324340820312f,
  3.5741384029388428f,
  -4.507725715637207f,
  -2.4030914306640625f,
  -1.0859500169754028f,
  0.9935339689254761f,
  3.908719778060913f,
  0.07793949544429779f,
  6.13035249710083f,
  4.132843494415283f,
  -3.08760142326355f,
  -1.4845035076141357f,
  -2.19047212600708f,
  -8.635339736938477f,
  -4.3381667137146f,
  4.449661731719971f,
  -1.7558637857437134f,
  -3.7699685096740723f,
  -9.884745597839355f,
  -8.062626838684082f,
  -3.9565060138702393f,
  -1.396424651145935f,
  -4.241551399230957f,
  -1.4649255275726318f,
  5.673510551452637f,
  5.098878383636475f,
  -0.9688220024108887f,
  -3.0541136264801025f,
  -11.061885833740234f,
  -7.115627765655518f,
  -5.27923583984375f,
  2.70692777633667f,
  1.2845662832260132f,
  -1.7834908962249756f,
  -4.368609428405762f,
  -3.9780001640319824f,
  -4.690340042114258f,
  -2.615492582321167f,
  -5.89945650100708f,
  5.2363200187683105f,
  2.1252357959747314f,
  -2.2613754272460938f,
  2.4255614280700684f,
  4.368603706359863f,
  -4.668360233306885f,
  -5.707345008850098f,
  10.60478401184082f,
  2.9121384620666504f,
  1.9887709617614746f,
  2.4112539291381836f,
  7.853327751159668f,
  -1.0502874851226807f,
  -0.22043898701667786f,
  2.4183831214904785f,
  8.839361190795898f,
  -0.5714772939682007f,
  7.427690029144287f,
  4.210016250610352f,
  1.3428982496261597f,
  2.8209457397460938f,
  1.9717187881469727f,
  3.4252097606658936f,
  4.225091934204102f,
  4.7240891456604f,
  4.950994968414307f,
  4.341825485229492f,
  -1.90254545211792f,
  -3.164990186691284f,
  -1.0634467601776123f,
  2.703126907348633f,
  1.7102729082107544f,
  2.636214256286621f,
  3.8654706478118896f,
  -0.5380892157554626f,
  -1.902744174003601f,
  -1.5219935178756714f,
  -1.1808415651321411f,
  -8.314438819885254f,
  -3.152367353439331f,
  0.050475504249334335f,
  3.9155421257019043f,
  -1.3659526109695435f,
  -5.569426536560059f,
  -5.203980922698975f,
  -5.60194730758667f,
  -2.3936617374420166f,
  -3.6921238899230957f,
  2.0205860137939453f,
  5.913736343383789f,
  3.6883656978607178f,
  -1.654873013496399f,
  -2.2673165798187256f,
  -7.230919361114502f,
  -6.86691951751709f,
  -8.112200736999512f,
  1.531546950340271f,
  -0.20934370160102844f,
  -2.9385359287261963f,
  -2.289823532104492f,
  -3.780388593673706f,
  -4.153235912322998f,
  -3.6217129230499268f,
  -1.1100760698318481f,
  3.717604637145996f,
  0.2370733916759491f,
  3.279527187347412f,
  -3.410278797149658f,
  2.8747026920318604f,
  -4.719219207763672f,
  1.592448353767395f,
  7.019667625427246f,
  0.356720507144928f,
  1.8646670579910278f,
  3.791938543319702f,
  7.787777900695801f,
  1.9255597591400146f,
  -0.26753726601600647f,
  3.072413682937622f,
  2.943521738052368f,
  7.387534141540527f,
  1.0469841957092285f,
  1.2411051988601685f,
  -0.3197062909603119f,
  0.006337662693113089f,
  1.824601411819458f,
  -0.07408564537763596f,
  -1.6643362045288086f,
  3.522669792175293f,
  2.4199278354644775f,
  0.8643668293952942f,
  -1.3330819606781006f,
  1.6931593418121338f,
  0.8949642777442932f,
  -2.9323620796203613f,
  1.0271905660629272f,
  -0.17320139706134796f,
  -0.11180421710014343f,
  0.9510402679443359f,
  -0.21716561913490295f,
  -1.1499788761138916f,
  -0.6195894479751587f,
  -0.5874121189117432f,
  0.8107179999351501f,
  1.6470370292663574f,
  1.4984866380691528f,
  -1.5317155122756958f,
  -3.0641674995422363f,
  -2.1499950885772705f,
  -1.1613482236862183f,
  -2.599588632583618f,
  -0.4748913645744324f,
  -2.0267763137817383f,
  0.33994820713996887f,
  -0.5395825505256653f,
  -3.9958903789520264f,
  -4.415055274963379f,
  -5.912743091583252f,
  -1.9286965131759644f,
  -1.4755910634994507f,
  0.6007658839225769f,
  1.9205639362335205f,
  2.487628698348999f,
  -3.1165175437927246f,
  -2.8554930686950684f,
  -7.1580491065979f,
  -1.112464189529419f,
  -0.5494239330291748f,
  -0.04872674494981766f,
  4.095130920410156f,
  -0.5969345569610596f,
  -0.16170856356620789f,
  2.6241672039031982f,
  -2.8659698963165283f,
  2.9228291511535645f,
  2.5002801418304443f,
  3.3274407386779785f,
  5.359720706939697f,
  0.2420661747455597f,
  6.232649326324463f,
  4.112451076507568f,
  4.229393482208252f,
  10.336393356323242f,
  -11.852930068969727f,
  -5.052943706512451f,
  2.7143924236297607f,
  -0.07427896559238434f,
  -0.5121765732765198f,
  0.34315240383148193f,
  0.27804842591285706f,
  -0.07298155128955841f,
  0.37850019335746765f,
  3.8655447959899902f,
  -2.9997379779815674f,
  1.3177950382232666f,
  -1.2047288417816162f,
  1.9582338333129883f,
  0.3173080086708069f,
  -1.2747583389282227f,
  -0.4850129783153534f,
  -0.06650470942258835f,
  1.4638723134994507f,
  1.6073098182678223f,
  -0.41849997639656067f,
  -1.212344765663147f,
  -0.5511448383331299f,
  -0.7382355332374573f,
  1.68446683883667f,
  -0.288765013217926f,
  0.6250320672988892f,
  -0.2852329611778259f,
  -1.935107946395874f,
  -2.615323066711426f,
  -1.092993974685669f,
  -2.734659194946289f,
  -0.3669265806674957f,
  -1.5501521825790405f,
  1.2249832153320312f,
  -0.6747270226478577f,
  -3.561492443084717f,
  -6.06843376159668f,
  -5.393599033355713f,
  -2.6322715282440186f,
  -1.0574939250946045f,
  0.2584422528743744f,
  2.430121660232544f,
  2.5127363204956055f,
  -2.6418347358703613f,
  -3.7838125228881836f,
  -7.695165157318115f,
  -0.17561745643615723f,
  1.008951187133789f,
  2.0272216796875f,
  -0.6989001035690308f,
  -2.023524522781372f,
  -3.035922050476074f,
  -1.4120423793792725f,
  -6.969183921813965f,
  0.013182388618588448f,
  -1.079637885093689f,
  2.3374404907226562f,
  5.703205108642578f,
  7.4728264808654785f,
  -3.807332754135132f,
  7.408792018890381f,
  8.016716003417969f,
  7.036540985107422f,
  3.5052902698516846f,
  -1.4878952503204346f,
  1.9605649709701538f,
  3.657846689224243f,
  1.6188768148422241f,
  2.357961654663086f,
  4.037023067474365f,
  1.0043169260025024f,
  6.413667678833008f,
  5.4077467918396f,
  4.508732318878174f,
  2.158402681350708f,
  -1.1715322732925415f,
  -4.532354354858398f,
  -1.738638162612915f,
  -3.259246587753296f,
  3.1494956016540527f,
  -1.196240782737732f,
  3.9896631240844727f,
  -0.9466886520385742f,
  -3.83233380317688f,
  -4.3709893226623535f,
  -4.659174919128418f,
  2.5908701419830322f,
  -3.1074705123901367f,
  -3.6872081756591797f,
  4.248838424682617f,
  -0.06494306027889252f,
  -0.35083070397377014f,
  -0.6575698852539062f,
  -8.334604263305664f,
  -6.043169021606445f,
  -7.176730155944824f,
  2.9988443851470947f,
  5.567413330078125f,
  -0.25154778361320496f,
  1.559482216835022f,
  -6.832263946533203f,
  -2.2378110885620117f,
  -5.715046405792236f,
  -2.325906753540039f,
  0.9408144354820251f,
  1.7702876329421997f,
  -4.595290660858154f,
  0.7521669268608093f,
  -5.688775539398193f,
  -2.977816104888916f,
  -2.8731601238250732f,
  0.925206184387207f,
  0.9851639270782471f,
  7.301410675048828f,
  0.7801651954650879f,
  -2.071434497833252f,
  -1.581100583076477f,
  -3.1779463291168213f,
  0.6824941039085388f,
  3.3899569511413574f,
  2.4214859008789062f,
  2.6860830783843994f,
  3.6198570728302f,
  -0.06563510745763779f,
  3.9790589809417725f,
  4.214974880218506f,
  3.734748125076294f,
  5.416154861450195f,
  7.775785446166992f,
  5.832912921905518f,
  2.7977449893951416f,
  3.3305954933166504f,
  -4.036099910736084f,
  1.259691834449768f,
  3.0160093307495117f,
  7.929432392120361f,
  2.2714478969573975f,
  5.949979782104492f,
  1.2221105098724365f,
  -2.300905227661133f,
  -4.261263847351074f,
  -2.2944464683532715f,
  -3.3025848865509033f,
  1.1737847328186035f,
  4.442570209503174f,
  0.10635022819042206f,
  -2.140000581741333f,
  -2.807976245880127f,
  -8.486005783081055f,
  -5.648990631103516f,
  0.010734771378338337f,
  0.9489184021949768f,
  -3.499399423599243f,
  8.68974494934082f,
  -1.597757339477539f,
  -0.4138934314250946f,
  -6.8466925621032715f,
  -6.030279636383057f,
  -5.5258965492248535f,
  -3.5942437648773193f,
  3.9216980934143066f,
  -2.4385733604431152f,
  4.021393299102783f,
  -2.6947357654571533f,
  -6.8856916427612305f,
  -1.0026088953018188f,
  -4.612274169921875f,
  -3.938964366912842f,
  -1.5453799962997437f,
  2.0734212398529053f,
  2.110774517059326f,
  0.551718533039093f,
  -8.84157657623291f,
  -4.536025524139404f,
  -2.6288185119628906f,
  1.0261285305023193f,
  -0.2562391757965088f,
  6.888214588165283f,
  -1.68800687789917f,
  -1.0379821062088013f,
  -2.885528326034546f,
  -2.5855231285095215f,
  0.978614330291748f,
  -1.746750831604004f,
  4.484553337097168f,
  1.304242491722107f,
  2.996999979019165f,
  -1.2111443281173706f,
  6.598763942718506f,
  2.5765368938446045f,
  2.8613221645355225f,
  5.873188018798828f,
  1.0156190395355225f,
  1.6258225440979004f,
  0.46102601289749146f,
  0.41229262948036194f,
  -0.49797025322914124f,
  -0.1310509592294693f,
  -0.29317769408226013f,
  -0.03856538608670235f,
  0.3923080265522003f,
  1.4905692338943481f,
  -0.2834022343158722f,
  0.7475086450576782f,
  -0.40926042199134827f,
  -0.3801295757293701f,
  -0.1904137283563614f,
  0.3130773901939392f,
  0.23571747541427612f,
  4.258554458618164f,
  0.43908610939979553f,
  0.2380206286907196f,
  -0.4070633053779602f,
  -0.05702628195285797f,
  -0.09638827294111252f,
  0.21417216956615448f,
  -0.20999394357204437f,
  7.753767490386963f,
  -0.5266683101654053f,
  0.23501287400722504f,
  -3.0738656520843506f,
  -3.5009427070617676f,
  -0.4260745048522949f,
  -0.29689058661460876f,
  -0.26015397906303406f,
  3.8632495403289795f,
  0.5263110399246216f,
  -0.8481806516647339f,
  -1.4263906478881836f,
  -3.749375343322754f,
  0.1623140424489975f,
  0.06924543529748917f,
  0.2016754448413849f,
  2.822807550430298f,
  0.5050910115242004f,
  -0.022183667868375778f,
  -1.4494857788085938f,
  -3.706092357635498f,
  -0.49966442584991455f,
  0.010121853090822697f,
  -0.5626859068870544f,
  3.6727211475372314f,
  0.6410396099090576f,
  0.4260618984699249f,
  0.7355340123176575f,
  -0.14671091735363007f,
  -0.11194545030593872f,
  0.425010085105896f,
  0.18266093730926514f,
  2.92441463470459f,
  1.1860047578811646f,
  0.331339567899704f,
  -0.5428250432014465f,
  0.12406114488840103f,
  -0.32717078924179077f,
  -0.6106494069099426f,
  0.7042726874351501f,
  -1.9609450101852417f,
  0.10721156746149063f,
  0.44649383425712585f,
  0.04907761886715889f,
  -0.19209043681621552f,
  0.07410316169261932f,
  -0.12320911139249802f,
  0.5339977145195007f,
  -4.695015907287598f,
  0.5596965551376343f,
  0.7906932234764099f,
  -0.051094457507133484f,
  -0.21693027019500732f,
  -0.09254156053066254f,
  0.29715317487716675f,
  0.1515754908323288f,
  1.1363377571105957f,
  0.675043523311615f,
  0.033356983214616776f,
  -0.30413180589675903f,
  0.12819795310497284f,
  -0.07904992997646332f,
  0.1570344865322113f,
  0.06571895629167557f,
  3.6528916358947754f,
  -0.9506824612617493f,
  -0.1054232195019722f,
  -3.079017162322998f,
  -3.413378953933716f,
  -0.43637919425964355f,
  -0.25043269991874695f,
  -0.2594067454338074f,
  -8.490324020385742f,
  0.10750608891248703f,
  -1.6903080940246582f,
  -1.3487792015075684f,
  -3.7358226776123047f,
  0.15750986337661743f,
  0.11035507172346115f,
  -0.3916858434677124f,
  -7.703889846801758f,
  0.7487295866012573f,
  0.17219699919223785f,
  -1.6245853900909424f,
  -3.6565237045288086f,
  -0.5293593406677246f,
  0.17307454347610474f,
  -0.13056457042694092f,
  -3.954808473587036f,
  0.7669929265975952f,
  0.7787760496139526f,
  0.7975140810012817f,
  0.0014653910184279084f,
  -0.14316724240779877f,
  0.20860160887241364f,
  0.15892109274864197f,
  -3.5118274688720703f,
  0.801747739315033f,
  0.3447130024433136f,
  0.009936981834471226f,
  -0.02907700464129448f,
  -0.11169470101594925f,
  -0.34971514344215393f,
  0.6180815100669861f,
  3.253385543823242f,
  3.780728340148926f,
  0.10100754350423813f,
  -1.3815885782241821f,
  1.0349042415618896f,
  1.9762654304504395f,
  -0.5747421383857727f,
  3.1796884536743164f,
  1.9473049640655518f,
  0.8283892869949341f,
  0.861952543258667f,
  1.2136766910552979f,
  -6.437447547912598f,
  0.14473168551921844f,
  0.6434794664382935f,
  0.7522940635681152f,
  0.0603485032916069f,
  5.698207855224609f,
  1.1177566051483154f,
  2.0266928672790527f,
  -1.8545238971710205f,
  2.1548705101013184f,
  0.30380892753601074f,
  -1.09356689453125f,
  -1.1509919166564941f,
  -1.5142408609390259f,
  -1.8563874959945679f,
  -4.651152610778809f,
  -6.395656108856201f,
  -2.614388942718506f,
  -2.06026029586792f,
  -0.2631168067455292f,
  -0.8021741509437561f,
  -0.7911111116409302f,
  -3.207655668258667f,
  -5.02874231338501f,
  -2.542247772216797f,
  -2.3323497772216797f,
  -1.115446925163269f,
  -1.4571595191955566f,
  3.953061103820801f,
  2.170560836791992f,
  -3.1397838592529297f,
  -3.170128345489502f,
  -4.910574436187744f,
  -3.2286436557769775f,
  1.4482187032699585f,
  -0.8893587589263916f,
  3.5079567432403564f,
  0.49119216203689575f,
  1.2154064178466797f,
  -0.7021622061729431f,
  2.2506325244903564f,
  -2.1053781509399414f,
  2.723414897918701f,
  1.9161298274993896f,
  12.915386199951172f,
  8.92477798461914f,
  1.726958990097046f,
  6.409132957458496f,
  3.876755714416504f,
  3.549097776412964f,
  3.47035813331604f,
  -0.010076898150146008f,
  0.9563905000686646f,
  0.23595072329044342f,
  2.0157511234283447f,
  -0.7023724317550659f,
  0.23728354275226593f,
  2.737996816635132f,
  -0.8348169326782227f,
  1.1751550436019897f,
  0.5683971643447876f,
  0.49884116649627686f,
  -1.167370319366455f,
  0.6237199306488037f,
  -4.998515605926514f,
  0.7575110793113708f,
  0.3913027048110962f,
  1.8415499925613403f,
  -1.4598941802978516f,
  5.515941143035889f,
  0.9057837724685669f,
  2.5180435180664062f,
  -2.1473612785339355f,
  2.4969160556793213f,
  -0.21135851740837097f,
  1.4719767570495605f,
  -4.388824939727783f,
  -0.6904716491699219f,
  -1.934745192527771f,
  -3.55014967918396f,
  -6.105510234832764f,
  -4.6302618980407715f,
  -1.099650502204895f,
  -2.080589771270752f,
  2.2594287395477295f,
  -0.8193345069885254f,
  -5.110788345336914f,
  -6.343189239501953f,
  -1.459127426147461f,
  -3.6251726150512695f,
  -1.432275652885437f,
  1.9876585006713867f,
  4.454196453094482f,
  1.0455323457717896f,
  -4.811925888061523f,
  -3.7013585567474365f,
  -6.671767234802246f,
  -1.8045709133148193f,
  0.5029997825622559f,
  -0.4987190365791321f,
  -4.805262088775635f,
  1.0352076292037964f,
  -2.406176805496216f,
  -1.5001524686813354f,
  -0.08541816473007202f,
  -1.3040812015533447f,
  0.40986815094947815f,
  -0.8979775309562683f,
  7.657371520996094f,
  1.9523378610610962f,
  3.8502566814422607f,
  3.5978877544403076f,
  -7.638309001922607f,
  -5.092014789581299f,
  4.883793354034424f,
  -0.5348550081253052f,
  0.06928007304668427f,
  0.2859582304954529f,
  0.22455601394176483f,
  -0.23540641367435455f,
  0.2586062252521515f,
  0.27773040533065796f,
  0.4045354723930359f,
  3.2442963123321533f,
  -0.025740526616573334f,
  0.9936906695365906f,
  0.007558564655482769f,
  -0.29095640778541565f,
  0.026686321943998337f,
  -0.7982441782951355f,
  1.4712722301483154f,
  -0.01807638444006443f,
  0.14386506378650665f,
  0.5132567882537842f,
  -0.05223751813173294f,
  0.7151002287864685f,
  -1.9245548248291016f,
  -0.3164936900138855f,
  -0.4992677569389343f,
  0.5826440453529358f,
  0.8228528499603271f,
  -0.5143199563026428f,
  -0.45122259855270386f,
  -4.257347106933594f,
  -7.260605812072754f,
  -0.8212577104568481f,
  -0.4532157778739929f,
  -0.05117151886224747f,
  2.36175537109375f,
  -0.9782475233078003f,
  1.0179331302642822f,
  -3.0412206649780273f,
  -4.148886680603027f,
  -2.5405232906341553f,
  0.04646202176809311f,
  0.27382197976112366f,
  3.5145115852355957f,
  3.535796880722046f,
  -2.85430645942688f,
  -7.2600836753845215f,
  -6.3846354484558105f,
  -1.1361879110336304f,
  -0.0555822029709816f,
  0.34677359461784363f,
  11.509092330932617f,
  -0.43478354811668396f,
  5.527480602264404f,
  0.3420904576778412f,
  1.4426484107971191f,
  -0.8337526917457581f,
  0.9000940322875977f,
  0.1775476485490799f,
  -8.621439933776855f,
  11.66006088256836f,
  1.9527450799942017f,
  1.4290926456451416f,
  1.5368061065673828f,
  0.927136242389679f,
  0.09121537953615189f,
  -0.6200730204582214f,
  -1.6200249195098877f,
  0.8073996305465698f,
  -0.0700015053153038f,
  -0.05043524503707886f,
  0.062312569469213486f,
  0.19291368126869202f,
  0.49958133697509766f,
  0.9397959113121033f,
  0.7966432571411133f,
  1.1612555980682373f,
  -0.20986779034137726f,
  -0.6250647306442261f,
  -0.06555727124214172f,
  -0.6528345942497253f,
  -0.14970815181732178f,
  0.8644495010375977f,
  0.4427594542503357f,
  -0.6724735498428345f,
  -0.08464396744966507f,
  0.5584887862205505f,
  -1.488552212715149f,
  -0.3641008734703064f,
  -0.4334186315536499f,
  0.04307341203093529f,
  0.8748851418495178f,
  -1.1771845817565918f,
  -0.4166327714920044f,
  -4.308765888214111f,
  -7.545380592346191f,
  -0.8060780167579651f,
  -0.7557474970817566f,
  -0.11633413285017014f,
  1.0167039632797241f,
  -1.287893295288086f,
  -0.04737347364425659f,
  -3.331749200820923f,
  -4.13539981842041f,
  -2.704493284225464f,
  -0.07501200586557388f,
  -0.21460643410682678f,
  4.3179240226745605f,
  1.9356714487075806f,
  -1.3150440454483032f,
  -7.984048366546631f,
  -7.017377853393555f,
  -1.3018938302993774f,
  -0.6471788287162781f,
  -0.002537512918934226f,
  12.603302001953125f,
  13.279396057128906f,
  3.705911874771118f,
  -0.546049952507019f,
  1.0202094316482544f,
  -1.1808823347091675f,
  0.7147145867347717f,
  0.6110792756080627f,
  -16.584869384765625f,
  12.089599609375f,
  3.107081174850464f,
  0.9587804675102234f,
  1.005068063735962f,
  0.4918716251850128f,
  0.9244657158851624f,
  -2.2571728229522705f,
  8.459547996520996f,
  8.800253868103027f,
  3.294778823852539f,
  7.955310821533203f,
  3.712029218673706f,
  8.781261444091797f,
  2.720123052597046f,
  5.130153179168701f,
  -21.68878936767578f,
  -15.770305633544922f,
  -28.237720489501953f,
  -18.649959564208984f,
  -19.286617279052734f,
  -8.10728645324707f,
  -5.770977020263672f,
  -6.987132549285889f,
  6.243717670440674f,
  3.8882253170013428f,
  -0.8021160364151001f,
  -6.271851062774658f,
  -1.8615843057632446f,
  0.03152512013912201f,
  -0.4280913472175598f,
  1.360116958618164f,
  1.026815414428711f,
  -0.7292372584342957f,
  -0.11373816430568695f,
  -3.799478769302368f,
  -7.354440689086914f,
  -4.173116207122803f,
  -0.462154358625412f,
  1.236035943031311f,
  0.9450783729553223f,
  -0.03537304326891899f,
  -4.577912330627441f,
  -3.2450287342071533f,
  -3.338670253753662f,
  0.30682870745658875f,
  3.1053993701934814f,
  2.1745550632476807f,
  0.2941991090774536f,
  0.5678750872612f,
  -1.090214490890503f,
  3.6324503421783447f,
  -5.905313014984131f,
  -1.0720798969268799f,
  -2.727673053741455f,
  -0.3793012797832489f,
  0.43167591094970703f,
  2.2433645725250244f,
  -1.7913448810577393f,
  -0.6718296408653259f,
  -0.23137988150119781f,
  0.45115911960601807f,
  0.5076708197593689f,
  1.2570942640304565f,
  2.337353229522705f,
  2.0227932929992676f,
  0.28641852736473083f,
  0.13802525401115417f,
  0.1936996728181839f,
  1.027294397354126f,
  1.6192878484725952f,
  2.1394660472869873f,
  8.955936431884766f,
  8.802512168884277f,
  5.080887794494629f,
  8.038177490234375f,
  5.649477958679199f,
  6.549042224884033f,
  3.5946567058563232f,
  5.022498607635498f,
  -0.020443502813577652f,
  3.9594690799713135f,
  -3.654963493347168f,
  -5.290234088897705f,
  -5.655454158782959f,
  -0.09173735976219177f,
  -1.3547165393829346f,
  -2.9384958744049072f,
  6.637394905090332f,
  1.6027626991271973f,
  -1.3030421733856201f,
  -5.768001079559326f,
  -3.2174572944641113f,
  -1.450319766998291f,
  0.9921294450759888f,
  0.9878376722335815f,
  0.2576720118522644f,
  -1.242727279663086f,
  -0.6705526113510132f,
  -2.5458993911743164f,
  -5.309785842895508f,
  -5.923965930938721f,
  -1.546561598777771f,
  1.2045156955718994f,
  -0.1164146140217781f,
  -0.24830658733844757f,
  -4.446026802062988f,
  -2.701942205429077f,
  -4.5720038414001465f,
  -0.22530703246593475f,
  2.45865535736084f,
  3.6207528114318848f,
  -0.18495145440101624f,
  -0.36687466502189636f,
  -2.2483174800872803f,
  3.595871925354004f,
  -4.239866733551025f,
  -0.8346370458602905f,
  -0.9299741983413696f,
  -2.05594539642334f,
  0.6189060211181641f,
  2.4207582473754883f,
  -0.09314509481191635f,
  -1.047216534614563f,
  -1.1996089220046997f,
  0.619125485420227f,
  -0.3149489164352417f,
  0.17566710710525513f,
  2.6224021911621094f,
  -0.06102452799677849f,
  0.5210075378417969f,
  1.4823697805404663f,
  -1.2636003494262695f,
  0.9298183917999268f,
  1.2822628021240234f,
  3.3952112197875977f,
  7.834292411804199f,
  8.621432304382324f,
  1.9298102855682373f,
  1.1139520406723022f,
  2.3685197830200195f,
  -0.0003302240220364183f,
  0.1584586203098297f,
  3.5030994415283203f,
  2.2760720252990723f,
  -0.8933092951774597f,
  0.4307572543621063f,
  2.5046279430389404f,
  -14.02739429473877f,
  -5.792904376983643f,
  0.8338823318481445f,
  5.271894454956055f,
  0.021713998168706894f,
  -1.5715969800949097f,
  -3.170095920562744f,
  -2.0169403553009033f,
  1.3955217599868774f,
  -1.9478857517242432f,
  -2.930817127227783f,
  2.490868330001831f,
  0.619140625f,
  -1.903275489807129f,
  -8.21828842163086f,
  -1.4019030332565308f,
  -1.713526964187622f,
  -1.4921631813049316f,
  -3.6834404468536377f,
  0.35026657581329346f,
  1.387020230293274f,
  -4.849602222442627f,
  -6.74708890914917f,
  -2.6151392459869385f,
  -9.149624824523926f,
  -7.103211879730225f,
  -1.1467524766921997f,
  -3.5141754150390625f,
  -4.175163269042969f,
  0.7524141073226929f,
  5.720256805419922f,
  6.554036617279053f,
  -1.0736842155456543f,
  -3.984673500061035f,
  0.6923492550849915f,
  0.00850702729076147f,
  4.847462177276611f,
  4.648512363433838f,
  3.103118419647217f,
  -4.575613975524902f,
  1.0652308464050293f,
  -2.401174783706665f,
  7.023616790771484f,
  2.420034170150757f,
  5.608177661895752f,
  7.04653787612915f,
  2.222844123840332f,
  0.3682252764701843f,
  0.9156724214553833f,
  -1.603342056274414f,
  2.828908681869507f,
  2.962418556213379f,
  -0.9724516272544861f,
  4.950038433074951f,
  -5.473133563995361f,
  4.704747676849365f,
  -1.8482083082199097f,
  -2.856586456298828f,
  -5.86749267578125f,
  1.6530930995941162f,
  0.36380118131637573f,
  5.768799304962158f,
  -2.7450673580169678f,
  1.584218144416809f,
  -3.6160762310028076f,
  -3.3076064586639404f,
  4.402284622192383f,
  7.59983491897583f,
  2.7058141231536865f,
  -5.448511600494385f,
  -3.3439691066741943f,
  -3.395677328109741f,
  4.564869403839111f,
  -0.7479188442230225f,
  -3.2360358238220215f,
  -2.0794930458068848f,
  1.4578921794891357f,
  -6.581511497497559f,
  -4.105278968811035f,
  -7.578096866607666f,
  -1.8513058423995972f,
  -4.127500534057617f,
  -3.7839109897613525f,
  2.653205394744873f,
  2.3307857513427734f,
  -1.5151937007904053f,
  -3.0314767360687256f,
  -4.293027400970459f,
  -8.710701942443848f,
  -5.046259880065918f,
  0.36368244886398315f,
  -0.93952476978302f,
  -5.431511402130127f,
  -1.9122753143310547f,
  4.9691290855407715f,
  6.848149299621582f,
  -3.443260908126831f,
  -2.7248544692993164f,
  -5.052009105682373f,
  2.865098714828491f,
  0.568370521068573f,
  8.159394264221191f,
  -0.40864649415016174f,
  1.2135045528411865f,
  -3.610337734222412f,
  1.7637784481048584f,
  5.997814178466797f,
  3.7992641925811768f,
  -1.8331400156021118f,
  0.9375565648078918f,
  1.0156854391098022f,
  3.4697723388671875f,
  3.892899751663208f,
  -6.3200249671936035f,
  2.0877902507781982f,
  -2.913958787918091f,
  0.011880150996148586f,
  0.086018867790699f,
  -0.11145655810832977f,
  -0.03124716319143772f,
  -0.03321458771824837f,
  -0.010812031105160713f,
  0.052342530339956284f,
  0.10775471478700638f,
  0.05978967994451523f,
  0.16168342530727386f,
  0.03232063725590706f,
  -0.022542234510183334f,
  0.07013672590255737f,
  -0.09196436405181885f,
  0.1586201786994934f,
  -0.04421887546777725f,
  -0.1505707949399948f,
  -0.17036250233650208f,
  -0.011262767016887665f,
  -0.09520833194255829f,
  -0.1461278647184372f,
  -0.004862828645855188f,
  0.032653458416461945f,
  -0.13581599295139313f,
  -0.039676275104284286f,
  0.03842863067984581f,
  -0.09594148397445679f,
  -0.026677072048187256f,
  0.03770814090967178f,
  -0.01972270756959915f,
  -0.10696279257535934f,
  -0.02355961874127388f,
  -0.07728289812803268f,
  -0.008012263104319572f,
  -0.058643002063035965f,
  -0.10316615551710129f,
  -0.03771069645881653f,
  -0.01606788858771324f,
  -0.11306223273277283f,
  -0.07800509035587311f,
  -0.1346888393163681f,
  -0.025849724188447f,
  -0.1026589423418045f,
  -0.017700714990496635f,
  -0.10222333669662476f,
  -0.02268911898136139f,
  -0.046400800347328186f,
  9.852707444224507e-05f,
  0.04322534054517746f,
  0.009963177144527435f,
  -0.04590347036719322f,
  -0.04610910266637802f,
  -0.06797004491090775f,
  -0.022205814719200134f,
  0.04499684274196625f,
  -0.041332826018333435f,
  0.059979040175676346f,
  -0.023321708664298058f,
  -0.1614246666431427f,
  -0.07370588183403015f,
  -0.12183891981840134f,
  0.08455874025821686f,
  -0.0398072823882103f,
  0.036582935601472855f,
  -0.1330452859401703f,
  -0.11148640513420105f,
  -0.004268151242285967f,
  0.04178731143474579f,
  -0.08293036371469498f,
  0.000725398538634181f,
  -0.20345023274421692f,
  -0.03643755242228508f,
  -0.01458478532731533f,
  0.19407376646995544f,
  0.0070062908343970776f,
  -0.0171466376632452f,
  -0.012177112512290478f,
  0.025349518284201622f,
  0.010627584531903267f,
  -0.05647129565477371f,
  0.0386044979095459f,
  0.029483063146471977f,
  -0.090896837413311f,
  -0.008612570352852345f,
  0.02584759332239628f,
  0.025867315009236336f,
  0.011979875154793262f,
  0.03499867022037506f,
  0.08642127364873886f,
  -0.11038964986801147f,
  -0.15789064764976501f,
  -0.043627455830574036f,
  -0.0864466056227684f,
  -0.0840340107679367f,
  -0.12363345175981522f,
  -0.031027860939502716f,
  0.05725953355431557f,
  -0.04930542781949043f,
  -0.05536091327667236f,
  -0.10209713876247406f,
  -0.03911513462662697f,
  -0.05977954342961311f,
  -0.16630902886390686f,
  0.027507701888680458f,
  -0.07479273527860641f,
  -0.018728680908679962f,
  -0.07097408175468445f,
  -0.11637619882822037f,
  -0.10520301014184952f,
  -0.0664949044585228f,
  -0.11718147993087769f,
  -0.06672503054141998f,
  -0.035021305084228516f,
  -0.07156457006931305f,
  0.05392230302095413f,
  0.07114025950431824f,
  0.028805825859308243f,
  -0.11016933619976044f,
  -0.13529492914676666f,
  -0.008562864735722542f,
  -0.3040609359741211f,
  0.10149632394313812f,
  -0.09745799005031586f,
  -0.07839574664831161f,
  0.07772036641836166f,
  -0.04140903428196907f,
  0.013011837378144264f,
  -0.15637798607349396f,
  -0.11428666859865189f,
  0.0008611172088421881f,
  -0.05931162089109421f,
  0.017015404999256134f,
  0.047397200018167496f,
  0.03153757005929947f,
  0.040569085627794266f,
  -0.09951306134462357f,
  0.058276016265153885f,
  -0.09864501655101776f,
  0.007345892954617739f,
  -0.07555794715881348f,
  0.0010358693543821573f,
  -0.09517643600702286f,
  -0.004216199740767479f,
  0.04549427330493927f,
  -0.04986412078142166f,
  -0.03988739103078842f,
  0.006122634280472994f,
  -0.05702166259288788f,
  0.027988804504275322f,
  -0.053764708340168f,
  0.040577102452516556f,
  -0.06610239297151566f,
  -0.09119895100593567f,
  0.030097929760813713f,
  -0.13322506844997406f,
  0.02522875927388668f,
  -0.11993858218193054f,
  -0.005420235451310873f,
  -0.07617433369159698f,
  -0.09561817348003387f,
  0.03023836389183998f,
  0.03980210795998573f,
  -0.02817578986287117f,
  -0.05290253460407257f,
  -0.05414322391152382f,
  -0.08296795189380646f,
  0.006228403188288212f,
  -0.002378640929237008f,
  -0.025212498381733894f,
  -0.09878289699554443f,
  0.036451131105422974f,
  -0.11370314657688141f,
  -0.12557876110076904f,
  -0.042639587074518204f,
  0.01818537712097168f,
  -0.026870576664805412f,
  0.01064937375485897f,
  -0.002865655580535531f,
  -0.07139186561107635f,
  -0.0460132397711277f,
  0.042893022298812866f,
  -0.03947354853153229f,
  -0.023579783737659454f,
  -0.07386868447065353f,
  -0.12548533082008362f,
  -0.09827888756990433f,
  0.02023165114223957f,
  -0.035057347267866135f,
  0.02510475367307663f,
  -0.07601241767406464f,
  0.035758111625909805f,
  0.011085149832069874f,
  0.12019744515419006f,
  0.012807236053049564f,
  0.053542960435152054f,
  -0.12084376811981201f,
  0.024909712374210358f,
  -0.05175473913550377f,
  0.03397080674767494f,
  0.06613428145647049f,
  -0.02471180073916912f,
  0.01159033551812172f,
  -0.08567190170288086f,
  -0.010571199469268322f,
  0.04145552217960358f,
  -0.03518199175596237f,
  0.039352357387542725f,
  -0.018121017143130302f,
  -0.09362547099590302f,
  0.07188673317432404f,
  -0.03270496428012848f,
  -0.08106835931539536f,
  -0.03917106240987778f,
  -0.056059353053569794f,
  -0.0278629157692194f,
  0.037431202828884125f,
  -0.06724876165390015f,
  -0.002520311390981078f,
  -0.072103351354599f,
  -0.08127328008413315f,
  0.014055086299777031f,
  -0.04088378697633743f,
  -0.06527899205684662f,
  -0.0649413987994194f,
  -0.03201323375105858f,
  0.02832178585231304f,
  0.010932053439319134f,
  -0.0333758108317852f,
  -0.058161623775959015f,
  0.044945940375328064f,
  0.011135431937873363f,
  0.010243822820484638f,
  0.039976347237825394f,
  0.04981409013271332f,
  -0.09554543346166611f,
  0.03948066383600235f,
  -0.12196529656648636f,
  0.013601197861135006f,
  -0.0206072386354208f,
  -0.05629849061369896f,
  0.05421730875968933f,
  0.05634639784693718f,
  -0.12226427346467972f,
  -0.016421208158135414f,
  -0.06410331279039383f,
  0.020823905244469643f,
  -0.03227388486266136f,
  -0.04387478530406952f,
  0.05015693977475166f,
  0.07325324416160583f,
  -0.07005451619625092f,
  0.007548769004642963f,
  0.03996290639042854f,
  -0.09595002233982086f,
  0.007519393227994442f,
  -0.005568902473896742f,
  11.894463539123535f,
  4.092109203338623f,
  3.341188907623291f,
  -0.3557227849960327f,
  10.436223030090332f,
  4.047878265380859f,
  -3.590343713760376f,
  3.4523732662200928f,
  -0.09525930881500244f,
  6.0977864265441895f,
  1.8531723022460938f,
  4.592461585998535f,
  -3.205195903778076f,
  -0.05930139496922493f,
  -0.0495755709707737f,
  1.7935808897018433f,
  7.203498840332031f,
  1.1460689306259155f,
  -2.015779495239258f,
  -2.0316197872161865f,
  -0.7559502124786377f,
  -3.3579022884368896f,
  1.6527959108352661f,
  4.526309013366699f,
  -0.0006285012932494283f,
  -8.435810089111328f,
  -8.092474937438965f,
  -3.874380111694336f,
  -8.707496643066406f,
  -5.934048652648926f,
  -3.7210142612457275f,
  0.7810283303260803f,
  3.4651379585266113f,
  -4.323862075805664f,
  -5.8628973960876465f,
  -0.2841127812862396f,
  -1.7805582284927368f,
  -3.3963634967803955f,
  0.32258665561676025f,
  -3.0683071613311768f,
  5.948841094970703f,
  -0.96596360206604f,
  -3.4028360843658447f,
  -2.562955856323242f,
  -5.49106502532959f,
  -8.9147367477417f,
  -0.5875606536865234f,
  -0.25077739357948303f,
  2.7309279441833496f,
  6.069392204284668f,
  1.6095521450042725f,
  -1.1431522369384766f,
  -4.999046802520752f,
  -1.1492109298706055f,
  4.0220441818237305f,
  5.587213516235352f,
  1.8098570108413696f,
  3.0420377254486084f,
  0.0644441768527031f,
  -0.13926422595977783f,
  -0.6646075248718262f,
  -0.36878126859664917f,
  4.422987937927246f,
  8.546045303344727f,
  1.005306363105774f,
  2.9360880851745605f,
  2.4565813541412354f,
  -3.5649590492248535f,
  11.293989181518555f,
  6.439164161682129f,
  -6.559585094451904f,
  5.930967807769775f,
  3.9135777950286865f,
  3.564485549926758f,
  5.565999507904053f,
  1.441384196281433f,
  -5.638174057006836f,
  2.72818660736084f,
  1.8690104484558105f,
  6.353443622589111f,
  0.4570038914680481f,
  3.7403197288513184f,
  -3.1254003047943115f,
  -6.758944988250732f,
  -1.2875593900680542f,
  -3.1883347034454346f,
  -0.44665640592575073f,
  -1.162921667098999f,
  5.902491569519043f,
  -6.0508198738098145f,
  -5.3576202392578125f,
  -2.3197851181030273f,
  -7.223570823669434f,
  -2.3589062690734863f,
  -0.9648881554603577f,
  -1.0388206243515015f,
  -2.6663031578063965f,
  -9.05152702331543f,
  -4.604680061340332f,
  -7.929104804992676f,
  -4.139044761657715f,
  -2.754868507385254f,
  -2.3615643978118896f,
  -2.030435800552368f,
  8.424954414367676f,
  -3.320845603942871f,
  -0.8902189135551453f,
  -6.665637969970703f,
  -3.9209017753601074f,
  -12.181056022644043f,
  -1.0342015027999878f,
  4.143632888793945f,
  1.634257435798645f,
  9.248449325561523f,
  -0.003137088380753994f,
  -5.589536190032959f,
  0.4028557538986206f,
  -2.789760112762451f,
  0.10062304884195328f,
  2.933760404586792f,
  2.3487257957458496f,
  6.28492546081543f,
  2.7980849742889404f,
  -5.356614589691162f,
  3.0097241401672363f,
  -0.768692135810852f,
  4.346314430236816f,
  4.326292991638184f,
  0.18583670258522034f,
  0.9485729336738586f,
  0.25589799880981445f,
  2.316251516342163f,
  -2.128955602645874f,
  3.2457189559936523f,
  7.936032772064209f,
  -6.48240852355957f,
  1.1505275964736938f,
  0.45711153745651245f,
  0.3692190945148468f,
  -0.8079601526260376f,
  1.2380543947219849f,
  6.115725517272949f,
  -9.531980514526367f,
  11.021307945251465f,
  -0.6490405201911926f,
  0.8123688101768494f,
  0.03033757023513317f,
  -1.4678491353988647f,
  -1.5289385318756104f,
  -14.059127807617188f,
  1.6197113990783691f,
  7.03813362121582f,
  1.1182339191436768f,
  0.1541869193315506f,
  -0.5897307991981506f,
  -5.096426486968994f,
  -16.73893928527832f,
  -4.120867729187012f,
  -1.0027849674224854f,
  -0.9475888013839722f,
  -0.09096483886241913f,
  -0.3523196876049042f,
  -1.3005672693252563f,
  -2.7467234134674072f,
  -1.560610294342041f,
  -2.8741257190704346f,
  -0.990908682346344f,
  1.0615583658218384f,
  0.1337037831544876f,
  -0.745898962020874f,
  3.369847297668457f,
  -7.570804595947266f,
  -6.721089839935303f,
  0.4218103587627411f,
  2.292445659637451f,
  -0.6810700297355652f,
  1.1903975009918213f,
  -2.33947491645813f,
  0.1576014757156372f,
  -0.8993535041809082f,
  1.4724252223968506f,
  2.250251293182373f,
  0.8815879225730896f,
  0.41976040601730347f,
  -3.320373296737671f,
  0.9626187086105347f,
  0.40432146191596985f,
  0.638137698173523f,
  -0.0692310631275177f,
  -0.12402258813381195f,
  0.24471989274024963f,
  1.0252984762191772f,
  0.7055954337120056f,
  1.7381833791732788f,
  -0.6929402351379395f,
  0.8294207453727722f,
  0.19160468876361847f,
  1.9506356716156006f,
  7.4050188064575195f,
  3.293930768966675f,
  0.9175022840499878f,
  0.8978385925292969f,
  0.2555317282676697f,
  -0.9299878478050232f,
  1.0992478132247925f,
  4.8824896812438965f,
  4.423281192779541f,
  10.194133758544922f,
  0.3625612258911133f,
  0.7176849246025085f,
  -0.18801872432231903f,
  -1.3471170663833618f,
  -1.7104822397232056f,
  -3.1034841537475586f,
  1.6242352724075317f,
  6.991268634796143f,
  0.2837463319301605f,
  0.17250679433345795f,
  -0.9175527691841125f,
  -5.925565719604492f,
  -5.469403266906738f,
  -4.735127925872803f,
  -1.1377172470092773f,
  -1.9105602502822876f,
  -0.32541540265083313f,
  0.28471654653549194f,
  -1.7883130311965942f,
  -0.20474019646644592f,
  -1.0111654996871948f,
  -2.6966652870178223f,
  -0.9540200233459473f,
  1.030452013015747f,
  -0.1425444781780243f,
  -0.5520578026771545f,
  2.9459450244903564f,
  -7.996964931488037f,
  -6.33946418762207f,
  0.036419015377759933f,
  1.8336716890335083f,
  -0.4140937030315399f,
  1.4321768283843994f,
  0.020081963390111923f,
  0.35976192355155945f,
  -0.45950525999069214f,
  1.5296066999435425f,
  1.823910117149353f,
  0.561290442943573f,
  1.8112832307815552f,
  -1.600264072418213f,
  0.8643056750297546f,
  0.7385002970695496f,
  0.5216208696365356f,
  -0.1825563907623291f,
  -0.4104536771774292f,
  1.105271577835083f,
  0.06166744604706764f,
  -1.262355089187622f,
  0.5131320953369141f,
  -1.0155991315841675f,
  0.5628006458282471f,
  -0.8025896549224854f,
  0.016837403178215027f,
  0.8832991719245911f,
  1.5118389129638672f,
  -0.3816852271556854f,
  1.0286078453063965f,
  0.23115161061286926f,
  0.25384995341300964f,
  -0.06101682409644127f,
  -0.2301805317401886f,
  -0.4512728452682495f,
  -1.0429129600524902f,
  -1.926365852355957f,
  -0.27272602915763855f,
  0.89028000831604f,
  1.6648370027542114f,
  0.3413577973842621f,
  -0.23110131919384003f,
  0.7406719326972961f,
  -0.1822982281446457f,
  0.19016142189502716f,
  0.5871462821960449f,
  -0.8791527152061462f,
  -0.4743081033229828f,
  -0.36911389231681824f,
  -1.5851789712905884f,
  0.22192759811878204f,
  -0.018588131293654442f,
  0.055090002715587616f,
  0.22769682109355927f,
  -0.16437260806560516f,
  0.010248485952615738f,
  -1.4481743574142456f,
  -0.6458396911621094f,
  0.09405754506587982f,
  0.5704388618469238f,
  0.5019654631614685f,
  0.9690245985984802f,
  -0.19073951244354248f,
  -1.7552549839019775f,
  0.061699457466602325f,
  -0.9573305249214172f,
  -0.6749361157417297f,
  0.71607905626297f,
  3.7991750240325928f,
  -1.2129265069961548f,
  -0.3458520472049713f,
  1.6902754306793213f,
  -0.37556713819503784f,
  -0.5323646068572998f,
  -0.37490373849868774f,
  -1.8453360795974731f,
  18.633148193359375f,
  1.28277587890625f,
  -6.409059524536133f,
  -2.3014702796936035f,
  0.034335725009441376f,
  -0.774429202079773f,
  1.1486904621124268f,
  0.9610256552696228f,
  0.4873827397823334f,
  -0.2814515233039856f,
  -1.2266826629638672f,
  -0.04005640745162964f,
  0.43129462003707886f,
  0.0956747829914093f,
  -0.5638364553451538f,
  -0.6403252482414246f,
  -2.6897778511047363f,
  0.6686087846755981f,
  0.9814583659172058f,
  0.014513934962451458f,
  0.273552268743515f,
  -0.1445247083902359f,
  0.5712668895721436f,
  0.004799314774572849f,
  0.27808254957199097f,
  0.7190445065498352f,
  1.451300024986267f,
  1.5013774633407593f,
  0.7522768378257751f,
  -0.5547414422035217f,
  0.0005229546804912388f,
  -0.3126940429210663f,
  0.4688572883605957f,
  1.0862807035446167f,
  -0.32228344678878784f,
  -1.0570108890533447f,
  -1.023105502128601f,
  -1.408860683441162f,
  0.43929988145828247f,
  -0.42405450344085693f,
  -0.6108410358428955f,
  -0.1696764975786209f,
  0.058165278285741806f,
  -0.6205774545669556f,
  -1.7888370752334595f,
  -0.8978509306907654f,
  0.13841412961483002f,
  0.19136746227741241f,
  0.3363237679004669f,
  1.6628704071044922f,
  -0.5814771056175232f,
  -2.057596445083618f,
  -0.4715902507305145f,
  -1.1120983362197876f,
  -0.8340810537338257f,
  0.10139931738376617f,
  -3.1239242553710938f,
  -2.5909595489501953f,
  -0.3588204085826874f,
  1.3948396444320679f,
  0.028979405760765076f,
  -0.48636123538017273f,
  -0.9811843037605286f,
  0.28793570399284363f,
  12.711889266967773f,
  -1.2894853353500366f,
  -2.3250973224639893f,
  -3.2281808853149414f,
  -0.5711467266082764f,
  -1.4298144578933716f,
  -0.2231847643852234f,
  -0.760585606098175f,
  3.0552351474761963f,
  8.933948516845703f,
  -1.7760218381881714f,
  0.7983774542808533f,
  1.7144335508346558f,
  -0.14237011969089508f,
  -1.0233465433120728f,
  6.7519612312316895f,
  2.03936767578125f,
  -0.1709265559911728f,
  -1.048054814338684f,
  0.6001430153846741f,
  1.5032867193222046f,
  -1.0562536716461182f,
  3.0251078605651855f,
  -3.576247215270996f,
  4.993680000305176f,
  4.4989824295043945f,
  -0.18058259785175323f,
  -3.053500175476074f,
  -3.976388454437256f,
  -1.8636010885238647f,
  -2.2285449504852295f,
  3.189072370529175f,
  -4.895848274230957f,
  -6.706005096435547f,
  -6.107276439666748f,
  -4.833293437957764f,
  -6.821579456329346f,
  -4.608994007110596f,
  -4.152707099914551f,
  9.240189552307129f,
  3.2310409545898438f,
  2.7764580249786377f,
  -5.179123878479004f,
  -6.076818943023682f,
  -4.721495151519775f,
  -6.169124603271484f,
  -4.7350239753723145f,
  1.7411019802093506f,
  0.4262124300003052f,
  2.240588903427124f,
  -1.7684369087219238f,
  -6.000196933746338f,
  -5.899733066558838f,
  -2.95644474029541f,
  4.81285285949707f,
  -4.508489608764648f,
  -0.13637107610702515f,
  7.710674285888672f,
  3.005530595779419f,
  -5.185763835906982f,
  -0.41090676188468933f,
  1.4532164335250854f,
  4.86256217956543f,
  6.105597972869873f,
  4.097034931182861f,
  5.167335033416748f,
  -6.476837635040283f,
  9.650972366333008f,
  -1.4495662450790405f,
  6.026723384857178f,
  2.372220993041992f,
  0.09089921414852142f,
  1.4834388494491577f,
  5.057229518890381f,
  3.966387987136841f,
  -1.1738595962524414f,
  1.7172070741653442f,
  -0.8675113320350647f,
  3.2939822673797607f,
  3.02200984954834f,
  0.6208521723747253f,
  4.1729254722595215f,
  -1.9154086112976074f,
  -1.2975951433181763f,
  1.61346435546875f,
  -1.454185962677002f,
  5.774966239929199f,
  -2.1157009601593018f,
  2.712808847427368f,
  3.928719997406006f,
  -0.21041008830070496f,
  -1.1242034435272217f,
  -4.158911228179932f,
  -2.810637950897217f,
  -4.515291213989258f,
  1.6711698770523071f,
  0.09534972161054611f,
  -1.935186743736267f,
  -5.316859722137451f,
  -3.7974493503570557f,
  -3.877432346343994f,
  -10.609832763671875f,
  0.7063719034194946f,
  4.914976119995117f,
  2.4102394580841064f,
  0.6204612851142883f,
  -6.975403308868408f,
  -2.963634967803955f,
  -4.3297438621521f,
  -5.477951526641846f,
  -4.830376625061035f,
  5.120976448059082f,
  0.235056534409523f,
  3.0557353496551514f,
  -4.479816436767578f,
  -1.7544115781784058f,
  -5.383967399597168f,
  -0.745613694190979f,
  3.271141767501831f,
  0.8721786737442017f,
  2.5108914375305176f,
  7.566908359527588f,
  2.1322414875030518f,
  -3.5577027797698975f,
  -0.04671302065253258f,
  1.0731948614120483f,
  4.542585849761963f,
  1.9341274499893188f,
  2.913268566131592f,
  3.522007465362549f,
  -0.6913033723831177f,
  1.3609728813171387f,
  5.012996196746826f,
  5.64118766784668f,
  -1.0776267051696777f,
  1.6505205631256104f,
  0.7768695950508118f,
  1.9345171451568604f,
  2.498901128768921f,
  -1.8282630443572998f,
  2.5908689498901367f,
  -0.08521676063537598f,
  1.4871128797531128f,
  0.841301441192627f,
  2.130446672439575f,
  2.926232099533081f,
  0.6101523041725159f,
  1.9091730117797852f,
  -4.038914203643799f,
  0.8585174679756165f,
  5.414939880371094f,
  3.9982235431671143f,
  4.898727893829346f,
  2.3626949787139893f,
  -1.418226718902588f,
  -3.5317537784576416f,
  -10.814946174621582f,
  -0.3310895562171936f,
  -1.6249430179595947f,
  -5.813470363616943f,
  1.053889513015747f,
  0.45243433117866516f,
  3.5284485816955566f,
  -0.03160885348916054f,
  -6.625097751617432f,
  -3.4010169506073f,
  -0.6662843227386475f,
  -1.386043906211853f,
  -6.331571102142334f,
  0.30716603994369507f,
  -3.271967649459839f,
  -2.099381923675537f,
  -3.601745367050171f,
  -0.8198251724243164f,
  0.7473475337028503f,
  -2.909227132797241f,
  1.7552458047866821f,
  1.6014814376831055f,
  -1.1306136846542358f,
  -4.065823078155518f,
  2.0566344261169434f,
  5.437871932983398f,
  2.15278959274292f,
  0.09926241636276245f,
  1.056496500968933f,
  0.8360832929611206f,
  0.1692602038383484f,
  -0.35239294171333313f,
  3.1873466968536377f,
  -1.7402739524841309f,
  -2.87074613571167f,
  -2.108872652053833f,
  5.353242874145508f,
  2.2549867630004883f,
  1.360150694847107f,
  -5.075077533721924f,
  2.3663463592529297f,
  0.55556321144104f,
  1.8912168741226196f,
  -0.3307779133319855f,
  5.244220733642578f,
  2.7465193271636963f,
  -2.5597875118255615f,
  0.24374905228614807f,
  1.1773438453674316f,
  -1.5185096263885498f,
  0.12179887294769287f,
  3.6076276302337646f,
  3.4179210662841797f,
  6.758171081542969f,
  -0.145554780960083f,
  -1.0490515232086182f,
  -3.3110220432281494f,
  -2.6971852779388428f,
  6.775447368621826f,
  2.140054225921631f,
  2.068190336227417f,
  2.7504827976226807f,
  -1.671916127204895f,
  -1.9272369146347046f,
  -6.880103588104248f,
  -1.7483047246932983f,
  1.4167181253433228f,
  -1.441015362739563f,
  0.3970870077610016f,
  -3.090672731399536f,
  3.4830639362335205f,
  -1.4526180028915405f,
  -3.812533378601074f,
  -5.555612087249756f,
  -5.788676738739014f,
  1.9438380002975464f,
  -2.9366583824157715f,
  1.4419093132019043f,
  -2.056307554244995f,
  -3.094083070755005f,
  -4.5072922706604f,
  -1.6419687271118164f,
  1.5205497741699219f,
  -0.7206162214279175f,
  1.023357629776001f,
  1.1636453866958618f,
  -3.4294638633728027f,
  -3.297459125518799f,
  1.2228955030441284f,
  0.39661553502082825f,
  0.03471936658024788f,
  -0.32591354846954346f,
  1.1636021137237549f,
  0.6427614688873291f,
  -2.0837793350219727f,
  -0.20198258757591248f,
  -0.022608648985624313f,
  -12.92459487915039f,
  3.552492618560791f,
  3.151968479156494f,
  7.71752405166626f,
  0.833753764629364f,
  0.9624848365783691f,
  -1.8172417879104614f,
  0.6481637358665466f,
  -0.02207670733332634f,
  4.773166656494141f,
  -0.2696850299835205f,
  9.659262657165527f,
  -4.0878682136535645f,
  7.919300556182861f,
  5.044766902923584f,
  -1.9191490411758423f,
  -3.6359875202178955f,
  4.76873254776001f,
  6.325015544891357f,
  -5.1469197273254395f,
  1.8047771453857422f,
  -1.7251793146133423f,
  5.168115615844727f,
  -1.771371603012085f,
  5.7158050537109375f,
  3.0506460666656494f,
  5.502242088317871f,
  1.0113754272460938f,
  6.2220072746276855f,
  -8.714406967163086f,
  1.2187817096710205f,
  -16.96750831604004f,
  -8.041206359863281f,
  0.682512104511261f,
  1.8480712175369263f,
  3.9794113636016846f,
  1.0595464706420898f,
  4.390082359313965f,
  -7.695761680603027f,
  -7.911893367767334f,
  -1.3186190128326416f,
  -6.8242340087890625f,
  -1.1288856267929077f,
  -2.2159523963928223f,
  4.3477559089660645f,
  0.2247527688741684f,
  -3.170919895172119f,
  -6.15128231048584f,
  -5.907845973968506f,
  3.973170518875122f,
  -1.2075576782226562f,
  0.6268589496612549f,
  -1.8695837259292603f,
  -1.1809656620025635f,
  -7.015092849731445f,
  0.5076753497123718f,
  -6.434492588043213f,
  -0.683513879776001f,
  -3.090167999267578f,
  -2.8115639686584473f,
  7.870437145233154f,
  -8.470318794250488f,
  -3.226505756378174f,
  -4.573381423950195f,
  -1.5453672409057617f,
  2.9561212062835693f,
  3.3795533180236816f,
  6.589578151702881f,
  4.088191509246826f,
  1.1684234142303467f,
  3.599586248397827f,
  4.9905242919921875f,
  -3.532818555831909f,
  3.699445962905884f,
  2.9360132217407227f,
  7.487873077392578f,
  -3.253546714782715f,
  5.101678371429443f,
  5.506528854370117f,
  2.5418379306793213f,
  -2.5522356033325195f,
  3.5654587745666504f,
  5.464366912841797f,
  -3.8932247161865234f,
  -1.1017498970031738f,
  0.49996939301490784f,
  4.2864089012146f,
  -4.897283554077148f,
  5.213470935821533f,
  4.478543758392334f,
  10.640396118164062f,
  0.06846155971288681f,
  -3.3413631916046143f,
  -3.498913288116455f,
  5.076550483703613f,
  -14.011456489562988f,
  -6.2469048500061035f,
  2.785179853439331f,
  -4.064706325531006f,
  -0.6399835348129272f,
  4.214160919189453f,
  3.463454008102417f,
  -4.275203704833984f,
  -9.52956771850586f,
  -5.418248176574707f,
  -3.4276421070098877f,
  -6.544370651245117f,
  -2.1494500637054443f,
  6.3169846534729f,
  -3.208244800567627f,
  -5.084469318389893f,
  -6.672102928161621f,
  -2.042818069458008f,
  3.7987916469573975f,
  -2.5187344551086426f,
  2.322512149810791f,
  -2.05136775970459f,
  4.151679039001465f,
  -8.317178726196289f,
  -0.6839428544044495f,
  -3.228003978729248f,
  -5.900362014770508f,
  0.9777946472167969f,
  3.252504825592041f,
  6.028783321380615f,
  -7.436873912811279f,
  -2.3133890628814697f,
  -8.852343559265137f,
  1.8769910335540771f,
  2.3824827671051025f,
  2.298449993133545f,
  -1.0315968990325928f,
  4.224809169769287f,
  0.03405417874455452f,
  2.77555775642395f,
  4.859066963195801f,
  0.530715823173523f,
  2.270928382873535f,
  3.9459173679351807f,
  3.0657944679260254f,
  0.033182039856910706f,
  2.0859286785125732f,
  0.5511109828948975f,
  0.045784201472997665f,
  0.318136602640152f,
  0.7004368901252747f,
  3.915477752685547f,
  1.6204806566238403f,
  3.6290671825408936f,
  -0.8575406670570374f,
  0.26526960730552673f,
  3.624786615371704f,
  -1.9555659294128418f,
  2.5563113689422607f,
  1.5126572847366333f,
  0.12840722501277924f,
  -1.5005333423614502f,
  -2.720669984817505f,
  -4.596978187561035f,
  -1.7558846473693848f,
  -2.4947683811187744f,
  1.4167394638061523f,
  1.804726004600525f,
  4.0707783699035645f,
  0.649660587310791f,
  0.09299155324697495f,
  -6.34023380279541f,
  -4.23586893081665f,
  -1.7606604099273682f,
  0.40476056933403015f,
  5.318554401397705f,
  -4.279672622680664f,
  -0.15765218436717987f,
  -2.8176963329315186f,
  -4.877874374389648f,
  -3.5713047981262207f,
  -7.792036533355713f,
  -3.1180226802825928f,
  -2.947584629058838f,
  5.910345554351807f,
  -4.591464519500732f,
  -1.9743033647537231f,
  -4.234458923339844f,
  -4.88135290145874f,
  -0.9727672338485718f,
  -0.5642960667610168f,
  5.00732946395874f,
  3.9449551105499268f,
  1.287072777748108f,
  -1.1286554336547852f,
  -3.736558675765991f,
  -6.72349739074707f,
  -4.299254894256592f,
  5.546474456787109f,
  0.7371340394020081f,
  8.451857566833496f,
  9.704840660095215f,
  2.3675267696380615f,
  2.1854641437530518f,
  2.5785348415374756f,
  4.694520473480225f,
  7.6753997802734375f,
  7.320613384246826f,
  3.0188205242156982f,
  2.325803518295288f,
  1.4186633825302124f,
  1.1754100322723389f,
  0.652836263179779f,
  -5.578632354736328f,
  1.9318839311599731f,
  2.392348289489746f,
  1.3647102117538452f,
  2.5335898399353027f,
  -2.0615103244781494f,
  -1.9547759294509888f,
  4.5898261070251465f,
  -2.150399684906006f,
  2.6282217502593994f,
  0.5394433736801147f,
  0.2522485852241516f,
  -2.7293202877044678f,
  -3.249436140060425f,
  -3.7681031227111816f,
  -3.1895508766174316f,
  -4.028608798980713f,
  0.03153499215841293f,
  2.8073084354400635f,
  1.991416335105896f,
  -0.6965479254722595f,
  1.2530601024627686f,
  -6.7446417808532715f,
  -4.632105350494385f,
  -0.12945882976055145f,
  1.080289363861084f,
  -0.6655610203742981f,
  -0.8123118281364441f,
  -1.5288910865783691f,
  -4.7045674324035645f,
  -3.427860736846924f,
  -2.585479497909546f,
  -9.572559356689453f,
  -2.615886926651001f,
  1.8391761779785156f,
  1.1501153707504272f,
  -3.0070343017578125f,
  -2.799199104309082f,
  -3.789043664932251f,
  -4.482097625732422f,
  -0.3282819092273712f,
  0.7806870937347412f,
  3.7600109577178955f,
  5.491488933563232f,
  3.282747745513916f,
  -0.1887032389640808f,
  -2.312716245651245f,
  -5.88839054107666f,
  -3.7177278995513916f,
  3.6560001373291016f,
  1.2234570980072021f,
  5.897095203399658f,
  7.642641067504883f,
  5.399084091186523f,
  3.5282645225524902f,
  2.9309864044189453f,
  6.07299280166626f,
  6.4513421058654785f,
  3.8373141288757324f,
  9.131697654724121f,
  2.7313621044158936f,
  1.4828691482543945f,
  1.2566020488739014f,
  0.652698814868927f,
  9.941094398498535f,
  4.832759857177734f,
  0.6696380972862244f,
  7.401750564575195f,
  4.303008079528809f,
  0.10107975453138351f,
  1.2950830459594727f,
  -0.8959648609161377f,
  0.6328929662704468f,
  6.171082019805908f,
  4.576016902923584f,
  5.161940097808838f,
  -0.2297932654619217f,
  -2.6102819442749023f,
  -2.563150405883789f,
  -7.568831443786621f,
  -2.8331639766693115f,
  0.18828825652599335f,
  2.4972617626190186f,
  0.6845245361328125f,
  -11.611459732055664f,
  -1.3163336515426636f,
  -6.903907299041748f,
  -1.949349045753479f,
  -7.165459632873535f,
  0.09435467422008514f,
  -1.376724362373352f,
  -5.687618732452393f,
  -1.3503855466842651f,
  -3.2194180488586426f,
  -5.646803379058838f,
  -4.287365913391113f,
  -0.015204386785626411f,
  -7.155279636383057f,
  2.577425003051758f,
  8.708854675292969f,
  -2.9217982292175293f,
  2.7251646518707275f,
  -5.478315830230713f,
  -6.795291423797607f,
  -2.1332955360412598f,
  -0.9785086512565613f,
  0.07237730920314789f,
  3.912429094314575f,
  2.4290542602539062f,
  -1.4927107095718384f,
  -7.233826637268066f,
  0.6137076020240784f,
  3.9542691707611084f,
  5.286279678344727f,
  0.683812141418457f,
  1.927764654159546f,
  7.437399387359619f,
  3.890231132507324f,
  3.459357738494873f,
  2.214832067489624f,
  2.7088563442230225f,
  -2.198829174041748f,
  3.5299456119537354f,
  9.597736358642578f,
  1.7981587648391724f,
  -0.17353369295597076f,
  6.432126045227051f,
  -6.294196128845215f,
  10.062182426452637f,
  4.357671737670898f,
  3.7924797534942627f,
  4.038052558898926f,
  5.805699348449707f,
  -1.7687885761260986f,
  1.5878645181655884f,
  -1.6322294473648071f,
  -0.6334920525550842f,
  4.235698699951172f,
  3.711785078048706f,
  2.769033193588257f,
  -1.720568060874939f,
  -3.4558844566345215f,
  -3.3298182487487793f,
  -5.659757137298584f,
  -3.348043203353882f,
  0.7694767117500305f,
  0.07809114456176758f,
  0.07389754056930542f,
  -6.992802619934082f,
  -0.9834867119789124f,
  -6.410068988800049f,
  -3.25343918800354f,
  -7.915760040283203f,
  -3.8811912536621094f,
  -1.277176022529602f,
  0.687527596950531f,
  0.25214430689811707f,
  -4.550846099853516f,
  -7.0550665855407715f,
  -9.662477493286133f,
  1.3472968339920044f,
  -3.3957245349884033f,
  -3.463132381439209f,
  4.300434589385986f,
  -6.521228790283203f,
  2.8646702766418457f,
  -8.46352767944336f,
  -10.004746437072754f,
  -0.9738702774047852f,
  -1.6463385820388794f,
  2.8606162071228027f,
  5.559828281402588f,
  2.7586324214935303f,
  -0.024688351899385452f,
  -10.933876037597656f,
  0.4034290313720703f,
  6.084665775299072f,
  4.176874160766602f,
  1.800563931465149f,
  7.273982048034668f,
  3.8075926303863525f,
  3.473472833633423f,
  1.4088773727416992f,
  -0.14860600233078003f,
  1.155405879020691f,
  4.009143352508545f,
  4.658566474914551f,
  -0.13797177374362946f,
  0.019665144383907318f,
  -0.1537938416004181f,
  -0.09084086120128632f,
  -0.004054389428347349f,
  -0.01861678995192051f,
  0.028732454404234886f,
  -0.005447245202958584f,
  -0.15315932035446167f,
  -0.1954016387462616f,
  -0.0445694699883461f,
  -0.09898801892995834f,
  -0.09983997792005539f,
  0.011724995449185371f,
  -0.09572813659906387f,
  0.024649906903505325f,
  -0.014882071875035763f,
  0.0771540105342865f,
  -0.05165962129831314f,
  -0.0005210174131207168f,
  -0.1216689944267273f,
  -0.025652781128883362f,
  -0.07342422008514404f,
  0.0022291785571724176f,
  -0.07794694602489471f,
  -0.12169301509857178f,
  0.005252159666270018f,
  -0.0034688941668719053f,
  -0.023817291483283043f,
  -0.1469118297100067f,
  -0.016350606456398964f,
  -0.09445170313119888f,
  -0.043566975742578506f,
  -0.14213520288467407f,
  -0.151980459690094f,
  -0.06948140263557434f,
  -0.1043333038687706f,
  -0.053885992616415024f,
  -0.06441032886505127f,
  -0.10666514933109283f,
  -0.0983201116323471f,
  0.053934864699840546f,
  -0.035957176238298416f,
  -0.1827935129404068f,
  -0.14250388741493225f,
  0.005985981319099665f,
  -0.10284123569726944f,
  -0.05466428026556969f,
  -0.07973116636276245f,
  0.04544559493660927f,
  -0.022971058264374733f,
  -0.09883113950490952f,
  -0.0950184166431427f,
  -0.1332734078168869f,
  -0.13243235647678375f,
  -0.02658449113368988f,
  0.06392218172550201f,
  -0.0717369019985199f,
  0.019581150263547897f,
  -0.04221157729625702f,
  -0.08683053404092789f,
  0.027592303231358528f,
  0.004084335640072823f,
  -0.0689552053809166f,
  0.13736195862293243f,
  0.052707474678754807f,
  0.04207976907491684f,
  -0.03260089084506035f,
  -0.10857319086790085f,
  0.006856249179691076f,
  -0.0051656910218298435f,
  -0.13692247867584229f,
  0.03459028899669647f,
  -0.10906914621591568f,
  0.008308076299726963f,
  -0.11201278120279312f,
  0.06872797012329102f,
  -0.052498482167720795f,
  0.047584034502506256f,
  0.05268897861242294f,
  0.07240771502256393f,
  -0.16184955835342407f,
  0.01578705944120884f,
  -0.14152103662490845f,
  -0.017799781635403633f,
  -0.08267739415168762f,
  0.03824323043227196f,
  -0.05399323254823685f,
  0.0797274112701416f,
  -0.053991690278053284f,
  -0.012197993695735931f,
  -0.05332070216536522f,
  -0.1855604648590088f,
  0.012321313843131065f,
  -0.07006823271512985f,
  -0.030545836314558983f,
  0.03703971579670906f,
  -0.06055869534611702f,
  0.0699022114276886f,
  -0.011546028777956963f,
  -0.01077347807586193f,
  -0.009171283803880215f,
  -0.034143202006816864f,
  -0.07790081948041916f,
  0.0303153395652771f,
  -0.00347565277479589f,
  -0.009785791859030724f,
  -0.11335334926843643f,
  -0.06742624193429947f,
  -0.10118580609560013f,
  -0.054773926734924316f,
  0.07321169227361679f,
  0.10800148546695709f,
  0.042657364159822464f,
  -0.026162222027778625f,
  -0.0038991894107311964f,
  -0.11981821805238724f,
  -0.10245484858751297f,
  -0.08432568609714508f,
  0.0800279825925827f,
  0.04086902737617493f,
  0.03977655991911888f,
  0.002052182797342539f,
  -0.12704932689666748f,
  0.04193062335252762f,
  -0.036887865513563156f,
  0.032628536224365234f,
  0.16136498749256134f,
  3.418506145477295f,
  7.624492645263672f,
  -5.005890846252441f,
  5.243042945861816f,
  2.618048667907715f,
  4.063442707061768f,
  2.7224807739257812f,
  0.2734887897968292f,
  9.290217399597168f,
  9.041882514953613f,
  -0.017708677798509598f,
  -1.5545192956924438f,
  -5.374439716339111f,
  -0.06480346620082855f,
  4.612428188323975f,
  4.138829708099365f,
  -6.9941887855529785f,
  -0.19425153732299805f,
  1.5798280239105225f,
  -1.9715403318405151f,
  -10.985747337341309f,
  -4.239119529724121f,
  1.534761667251587f,
  -1.3856158256530762f,
  -0.8978986740112305f,
  -1.6325438022613525f,
  -1.2551672458648682f,
  -7.035420894622803f,
  -9.768767356872559f,
  -6.762767791748047f,
  -1.2913522720336914f,
  0.8543691635131836f,
  -3.3606646060943604f,
  -3.315329074859619f,
  -5.479997634887695f,
  1.0554213523864746f,
  -2.45920991897583f,
  -2.579028844833374f,
  -2.6064014434814453f,
  1.9419572353363037f,
  -2.333252191543579f,
  -0.7736390233039856f,
  -8.353496551513672f,
  -2.7948336601257324f,
  -7.627258777618408f,
  -8.094755172729492f,
  2.1044087409973145f,
  -1.3779315948486328f,
  7.395175933837891f,
  2.392690420150757f,
  -3.545443534851074f,
  -6.643966197967529f,
  2.9272713661193848f,
  -2.4010112285614014f,
  2.148996591567993f,
  4.615267753601074f,
  9.773510932922363f,
  -0.27268925309181213f,
  2.705993413925171f,
  6.352680206298828f,
  -3.3798911571502686f,
  1.9485886096954346f,
  3.704841375350952f,
  6.315348148345947f,
  -8.89742374420166f,
  9.863935470581055f,
  8.351947784423828f,
  5.115001201629639f,
  -1.3638688325881958f,
  2.0898592472076416f,
  1.8291305303573608f,
  4.478724479675293f,
  10.259147644042969f,
  7.587620258331299f,
  4.066380977630615f,
  -6.990018367767334f,
  -4.872002124786377f,
  -1.65815269947052f,
  5.342110633850098f,
  3.6662473678588867f,
  -3.6858389377593994f,
  -1.3904623985290527f,
  1.9501718282699585f,
  -4.594726085662842f,
  -11.669984817504883f,
  -1.1069740056991577f,
  0.58153235912323f,
  12.07084846496582f,
  -2.5910751819610596f,
  0.3045119643211365f,
  -2.9312734603881836f,
  -0.6602539420127869f,
  -9.109395027160645f,
  -5.245058059692383f,
  -3.176827907562256f,
  -9.410340309143066f,
  -0.6773737072944641f,
  2.756174325942993f,
  -6.852579593658447f,
  1.314766526222229f,
  -3.3086719512939453f,
  -5.2168684005737305f,
  -0.00850682146847248f,
  8.76854419708252f,
  0.3057052195072174f,
  1.8870563507080078f,
  -7.576554298400879f,
  -4.574015140533447f,
  -8.74603271484375f,
  -5.76384162902832f,
  -1.9919346570968628f,
  -5.83655309677124f,
  7.494652271270752f,
  2.18337345123291f,
  -5.795060157775879f,
  -3.8278565406799316f,
  4.264327526092529f,
  -3.02557373046875f,
  3.621243715286255f,
  6.723618984222412f,
  -6.702585220336914f,
  6.727751731872559f,
  0.6384431719779968f,
  0.5084620118141174f,
  2.073279857635498f,
  3.8023202419281006f,
  4.76177453994751f,
  -4.345973491668701f,
  6.005148887634277f,
  5.447720050811768f,
  -2.3936798572540283f,
  5.338090419769287f,
  5.348765850067139f,
  -0.46008816361427307f,
  0.4876212477684021f,
  8.663641929626465f,
  4.868429660797119f,
  3.224757432937622f,
  -2.7274889945983887f,
  -2.9760923385620117f,
  -8.644505500793457f,
  -1.0337350368499756f,
  5.5965776443481445f,
  3.0828802585601807f,
  2.750765323638916f,
  -2.2177577018737793f,
  -0.23888349533081055f,
  -2.9683117866516113f,
  0.8312089443206787f,
  -4.732312202453613f,
  4.1136088371276855f,
  9.274836540222168f,
  -9.65283489227295f,
  -4.419238567352295f,
  -2.3170669078826904f,
  -6.54114294052124f,
  -1.757108211517334f,
  -3.9573974609375f,
  -2.265376091003418f,
  -0.2742867171764374f,
  1.5806934833526611f,
  0.9967108368873596f,
  -5.839921474456787f,
  -4.889336109161377f,
  -4.20339298248291f,
  -3.3991856575012207f,
  1.5687439441680908f,
  1.7929507493972778f,
  0.5205662250518799f,
  -6.977939128875732f,
  -0.7132571339607239f,
  -9.358717918395996f,
  -4.838098049163818f,
  -4.507974147796631f,
  0.6209751963615417f,
  2.7791011333465576f,
  8.473276138305664f,
  3.8363091945648193f,
  -3.7781753540039062f,
  -1.6219520568847656f,
  -0.33973801136016846f,
  -0.1794600635766983f,
  -0.6111657619476318f,
  -4.6266021728515625f,
  7.146413326263428f,
  2.552701950073242f,
  5.9537177085876465f,
  6.666780948638916f,
  -3.828641176223755f,
  2.897153854370117f,
  9.402076721191406f,
  8.82686710357666f,
  6.913475513458252f,
  2.4938926696777344f,
  -0.27013593912124634f,
  3.0367794036865234f,
  4.804153919219971f,
  0.20275433361530304f,
  -2.092820882797241f,
  6.212975978851318f,
  4.30814266204834f,
  3.6352896690368652f,
  -2.2096972465515137f,
  -2.074004650115967f,
  -7.1156463623046875f,
  -0.9975765347480774f,
  -2.3585994243621826f,
  1.266452670097351f,
  3.1072192192077637f,
  -4.597004413604736f,
  -0.9897720217704773f,
  -2.876864194869995f,
  -0.05512965843081474f,
  -5.073532581329346f,
  8.056880950927734f,
  7.624124526977539f,
  -0.4384976625442505f,
  -4.532257080078125f,
  -4.267638683319092f,
  -5.900147438049316f,
  -4.075992107391357f,
  -4.59562873840332f,
  -2.6356444358825684f,
  0.6442341804504395f,
  3.0019781589508057f,
  -1.3566933870315552f,
  -7.636749744415283f,
  -1.687305212020874f,
  -4.703081130981445f,
  -7.170589447021484f,
  -3.2890148162841797f,
  7.0047760009765625f,
  0.24612827599048615f,
  -4.32688045501709f,
  -1.8040891885757446f,
  -9.98404598236084f,
  -2.4638798236846924f,
  -6.515989780426025f,
  -4.071601390838623f,
  -5.568775177001953f,
  2.8941287994384766f,
  4.073457717895508f,
  -2.701939582824707f,
  0.35637611150741577f,
  -1.5001486539840698f,
  2.4405524730682373f,
  3.9324536323547363f,
  0.2373574823141098f,
  2.926168441772461f,
  3.0085203647613525f,
  7.965565204620361f,
  2.692258596420288f,
  2.361224889755249f,
  0.5738203525543213f,
  7.113743782043457f,
  1.0544179677963257f,
  4.239206314086914f,
  0.8775639533996582f,
  3.0451321601867676f,
  7.255591869354248f,
  -0.17690511047840118f,
  1.168587327003479f,
  7.614040374755859f,
  2.054841995239258f,
  -5.960081577301025f,
  8.398184776306152f,
  -2.481077194213867f,
  -7.337386131286621f,
  -5.608522415161133f,
  -1.7196059226989746f,
  4.65247106552124f,
  1.720744013786316f,
  4.886015892028809f,
  -3.85416841506958f,
  -4.630078315734863f,
  -4.330327987670898f,
  -3.6061413288116455f,
  -2.694791793823242f,
  5.367129802703857f,
  4.024713039398193f,
  -2.212275981903076f,
  -1.191827654838562f,
  -1.2634212970733643f,
  -4.977200031280518f,
  -2.897308588027954f,
  -6.323475360870361f,
  -5.685154438018799f,
  -0.06992553919553757f,
  2.355616331100464f,
  -2.7973971366882324f,
  -5.688167095184326f,
  -3.6132919788360596f,
  -10.519017219543457f,
  2.370386838912964f,
  0.16383926570415497f,
  -5.992839813232422f,
  4.171755313873291f,
  1.7803471088409424f,
  -2.024662494659424f,
  -6.635960102081299f,
  3.1533467769622803f,
  -8.532585144042969f,
  0.9860613942146301f,
  2.681565999984741f,
  3.981496572494507f,
  4.989542484283447f,
  -3.1066629886627197f,
  -6.47295618057251f,
  8.017769813537598f,
  -1.3236619234085083f,
  2.499215602874756f,
  6.173671722412109f,
  5.066987991333008f,
  2.645106792449951f,
  1.0032950639724731f,
  4.094094753265381f,
  1.97724449634552f,
  0.3747594356536865f,
  -0.22499237954616547f,
  5.029095649719238f,
  5.558337688446045f,
  1.7697213888168335f,
  2.7644827365875244f,
  0.2137090414762497f,
  -2.4675092697143555f,
  6.109200954437256f,
  6.193195819854736f,
  7.1580810546875f,
  -1.9131524562835693f,
  3.9660422801971436f,
  -0.7429214119911194f,
  -3.516035795211792f,
  -2.333041191101074f,
  -3.9579122066497803f,
  0.5014426112174988f,
  -0.8546692728996277f,
  3.6973397731781006f,
  4.703051567077637f,
  -6.881532669067383f,
  -6.432896137237549f,
  -2.1653807163238525f,
  -3.8198201656341553f,
  7.225354194641113f,
  5.516904830932617f,
  -4.391548156738281f,
  -4.334847927093506f,
  1.271801471710205f,
  -5.771749973297119f,
  -2.2093007564544678f,
  -5.87501859664917f,
  -4.629263401031494f,
  -2.700958490371704f,
  7.480904579162598f,
  -5.8767876625061035f,
  -6.773698806762695f,
  -2.300536870956421f,
  -10.645824432373047f,
  0.791426420211792f,
  -1.5724797248840332f,
  3.4893910884857178f,
  4.854968070983887f,
  -1.291563630104065f,
  -2.406630516052246f,
  -7.182134628295898f,
  2.1819112300872803f,
  -9.72609806060791f,
  0.1826072335243225f,
  -1.730825662612915f,
  -1.821049690246582f,
  4.333632469177246f,
  -3.873302698135376f,
  -8.346819877624512f,
  0.6065067648887634f,
  -2.1037392616271973f,
  1.9972509145736694f,
  2.981853485107422f,
  4.541578769683838f,
  2.4547500610351562f,
  2.129021167755127f,
  0.6541132926940918f,
  8.892231941223145f,
  -5.299572467803955f,
  3.3993937969207764f,
  8.19566535949707f,
  0.056366853415966034f,
  0.049398042261600494f,
  0.06919271498918533f,
  -0.11509566009044647f,
  0.04960578680038452f,
  -0.03621552884578705f,
  0.06972891837358475f,
  0.02390805259346962f,
  0.06260444223880768f,
  -0.10956155508756638f,
  -0.11533162742853165f,
  -0.057072173804044724f,
  -0.015890568494796753f,
  -0.1032550111413002f,
  -0.03833108767867088f,
  -0.036215879023075104f,
  -0.022823192179203033f,
  -0.15226401388645172f,
  0.02715637907385826f,
  0.0535355880856514f,
  0.030322274193167686f,
  -0.05553341656923294f,
  -0.026618577539920807f,
  -0.061883654445409775f,
  0.029025310650467873f,
  -0.050285179167985916f,
  -0.011880988255143166f,
  0.017292438074946404f,
  -0.039789941161870956f,
  -0.13917702436447144f,
  -0.08350485563278198f,
  -0.038740407675504684f,
  0.03819920867681503f,
  0.031890034675598145f,
  0.02308063395321369f,
  -0.16223223507404327f,
  0.05007562413811684f,
  2.9605544114019722e-05f,
  -0.019784966483712196f,
  -0.055077556520700455f,
  0.0053321500308811665f,
  -0.021610861644148827f,
  -0.05982441082596779f,
  -0.13867732882499695f,
  0.028999745845794678f,
  -0.04869324341416359f,
  -0.015800200402736664f,
  -0.1094595417380333f,
  0.1286434382200241f,
  0.05015110224485397f,
  -0.09342394769191742f,
  0.027294408529996872f,
  -0.05857411399483681f,
  0.021389516070485115f,
  0.0737495869398117f,
  -0.0321633480489254f,
  0.08597412705421448f,
  -0.05295268073678017f,
  0.06570136547088623f,
  -0.06219591572880745f,
  -0.02480948343873024f,
  -0.06140005961060524f,
  -0.08184671401977539f,
  0.09691302478313446f,
  -0.17400041222572327f,
  0.1544608622789383f,
  -0.026867197826504707f,
  -0.09599148482084274f,
  -0.08023819327354431f,
  -0.07015033811330795f,
  -0.005077777896076441f,
  -0.056313373148441315f,
  -0.05375390872359276f,
  -0.020862916484475136f,
  -0.04295693710446358f,
  -0.08769547939300537f,
  -0.010123292915523052f,
  0.023295903578400612f,
  0.016892386600375175f,
  -0.18940375745296478f,
  -0.01905343309044838f,
  -0.038007818162441254f,
  -0.1372929960489273f,
  -0.13123871386051178f,
  -0.1361522674560547f,
  0.005712306126952171f,
  0.031297292560338974f,
  0.021933909505605698f,
  -0.005645079538226128f,
  0.008905580267310143f,
  -0.05973545089364052f,
  -0.1453559398651123f,
  -0.09562039375305176f,
  -0.1546001136302948f,
  -0.050572820007801056f,
  0.009385798126459122f,
  -0.0018563371850177646f,
  -0.018488440662622452f,
  -0.15726090967655182f,
  -0.0684928223490715f,
  -0.09009801596403122f,
  -0.05131664499640465f,
  0.010576600208878517f,
  -0.013112622313201427f,
  -0.13321828842163086f,
  0.04003537818789482f,
  0.020024597644805908f,
  -0.07146946340799332f,
  -0.04886528104543686f,
  0.0029793321155011654f,
  -0.012528096325695515f,
  -0.016867810860276222f,
  -0.10185745358467102f,
  -0.03860906511545181f,
  -0.0625476986169815f,
  0.018500108271837234f,
  -0.10164915770292282f,
  -0.005749440751969814f,
  -0.06503983587026596f,
  -0.17231684923171997f,
  -0.12373684346675873f,
  -0.007558856625109911f,
  -0.10754506289958954f,
  -0.09563624113798141f,
  -0.0699707642197609f,
  -0.12182818353176117f,
  -0.19780446588993073f,
  -0.023001136258244514f,
  3.092606544494629f,
  2.6158835887908936f,
  4.750865936279297f,
  2.5973544120788574f,
  -1.5898396968841553f,
  -1.0787838697433472f,
  8.881699562072754f,
  4.039256572723389f,
  8.41385269165039f,
  2.7355942726135254f,
  -1.5655467510223389f,
  -3.7405567169189453f,
  -1.4589552879333496f,
  -2.8861937522888184f,
  0.5316420197486877f,
  3.8485612869262695f,
  -0.020945049822330475f,
  -0.7969120144844055f,
  -5.558885097503662f,
  0.16508696973323822f,
  -1.3650590181350708f,
  -4.976945400238037f,
  -0.8698586821556091f,
  1.0530222654342651f,
  -0.3185800015926361f,
  -2.0460855960845947f,
  2.3302721977233887f,
  -4.770938873291016f,
  -5.749725818634033f,
  -6.044740200042725f,
  1.9663184881210327f,
  -0.9070108532905579f,
  -0.5236541032791138f,
  -1.1192361116409302f,
  -8.394282341003418f,
  1.3518283367156982f,
  -3.7282216548919678f,
  -3.7961506843566895f,
  -2.345036268234253f,
  -0.7585994601249695f,
  2.8718068599700928f,
  0.4404766857624054f,
  -1.5713591575622559f,
  -6.188564300537109f,
  -6.263891696929932f,
  -3.4207727909088135f,
  -5.360733509063721f,
  3.935001850128174f,
  4.2146196365356445f,
  3.3640122413635254f,
  2.5973803997039795f,
  -2.661871910095215f,
  -4.480479717254639f,
  -1.9361375570297241f,
  10.142945289611816f,
  13.48366928100586f,
  3.1952834129333496f,
  1.116006851196289f,
  0.6233541965484619f,
  3.1424429416656494f,
  0.023097114637494087f,
  8.51484203338623f,
  14.659456253051758f,
  -23.573205947875977f,
  4.394110202789307f,
  3.2727832794189453f,
  4.289185523986816f,
  0.012360752560198307f,
  1.481396198272705f,
  0.011588484048843384f,
  5.904898643493652f,
  6.017956256866455f,
  8.764080047607422f,
  1.992586612701416f,
  -1.2848960161209106f,
  -3.8794891834259033f,
  -1.4390759468078613f,
  -3.8205695152282715f,
  0.8252662420272827f,
  3.88923978805542f,
  -0.7902532815933228f,
  0.582331120967865f,
  -6.845039367675781f,
  -1.2968887090682983f,
  -0.35798731446266174f,
  -5.083748817443848f,
  -2.8265984058380127f,
  1.8983875513076782f,
  -1.3098071813583374f,
  -3.116022825241089f,
  1.9792370796203613f,
  -4.410743236541748f,
  -5.555743217468262f,
  -5.864306449890137f,
  2.1458959579467773f,
  -0.8202768564224243f,
  2.2566134929656982f,
  -1.8704090118408203f,
  -6.541460037231445f,
  0.5586448907852173f,
  -3.0741028785705566f,
  -4.7713541984558105f,
  -3.1491000652313232f,
  0.8006670475006104f,
  0.6318484544754028f,
  -0.14842233061790466f,
  -2.057981252670288f,
  -4.845168113708496f,
  -7.653280735015869f,
  -6.73047399520874f,
  -5.284821033477783f,
  3.684436798095703f,
  2.7625250816345215f,
  3.441842555999756f,
  1.9095025062561035f,
  -1.7402853965759277f,
  -5.263458251953125f,
  -0.6766447424888611f,
  1.1639295816421509f,
  7.314879894256592f,
  4.019118309020996f,
  1.7866487503051758f,
  -0.5079017877578735f,
  5.634791374206543f,
  3.040295124053955f,
  7.853507041931152f,
  7.447813034057617f,
  -17.49692153930664f,
  6.086706161499023f,
  4.072777271270752f,
  -0.09565550833940506f,
  -1.208756685256958f,
  2.7664616107940674f,
  1.5082792043685913f,
  3.798999309539795f,
  6.519766807556152f,
  3.0452098846435547f,
  2.077775716781616f,
  8.737020492553711f,
  -1.6274381875991821f,
  -6.477847099304199f,
  -1.0426445007324219f,
  2.7360458374023438f,
  -2.0156731605529785f,
  4.308644771575928f,
  -8.044534683227539f,
  -3.0751078128814697f,
  -4.237917900085449f,
  -3.640378713607788f,
  0.3525710105895996f,
  -1.3434592485427856f,
  -4.683292865753174f,
  -2.325380325317383f,
  -3.3924107551574707f,
  -5.696969509124756f,
  -5.109325408935547f,
  -1.0485609769821167f,
  -6.400495529174805f,
  -4.84929084777832f,
  5.64102029800415f,
  1.4974600076675415f,
  -5.8243865966796875f,
  0.07809609174728394f,
  -3.84645938873291f,
  -2.9555740356445312f,
  0.3489643633365631f,
  2.1970648765563965f,
  1.844036340713501f,
  1.1575289964675903f,
  -0.8161637187004089f,
  0.4270910322666168f,
  -2.01908802986145f,
  0.7862063050270081f,
  -8.588000297546387f,
  -7.18887186050415f,
  5.360414028167725f,
  3.7989954948425293f,
  -0.45969635248184204f,
  -2.6119272708892822f,
  -0.48970848321914673f,
  0.08666743338108063f,
  -2.287036418914795f,
  3.6504321098327637f,
  4.986498832702637f,
  4.201266288757324f,
  6.1473612785339355f,
  6.605021953582764f,
  9.511296272277832f,
  1.6847147941589355f,
  1.0916862487792969f,
  5.661713600158691f,
  1.8250898122787476f,
  3.6735994815826416f,
  -2.2180721759796143f,
  -2.6583240032196045f,
  0.582249104976654f,
  7.00372838973999f,
  5.072461128234863f,
  -4.978639125823975f,
  4.192908763885498f,
  5.758289337158203f,
  2.782719850540161f,
  6.925722599029541f,
  -4.840022087097168f,
  -3.6138248443603516f,
  -1.9286428689956665f,
  0.6270673274993896f,
  3.274671792984009f,
  0.45987558364868164f,
  -5.468262195587158f,
  -5.586064338684082f,
  -10.379199028015137f,
  2.000077247619629f,
  0.5481588244438171f,
  -6.851934909820557f,
  1.8241041898727417f,
  1.9743345975875854f,
  -1.4866204261779785f,
  -3.606151580810547f,
  -9.132018089294434f,
  -0.14150948822498322f,
  -3.1184258460998535f,
  -2.662696361541748f,
  -1.9193142652511597f,
  -0.0001287276390939951f,
  -3.830676555633545f,
  0.11416718363761902f,
  -0.4284984767436981f,
  -3.6083333492279053f,
  -4.316873550415039f,
  -6.055943012237549f,
  2.536250591278076f,
  -2.4796717166900635f,
  -0.520814061164856f,
  -2.5187668800354004f,
  -0.5044045448303223f,
  0.05552370101213455f,
  -5.606765270233154f,
  -4.61982536315918f,
  5.483370304107666f,
  3.558316946029663f,
  0.9839882850646973f,
  -3.3498880863189697f,
  -8.87637996673584f,
  -0.09038899093866348f,
  0.819841206073761f,
  0.12130649387836456f,
  5.6659088134765625f,
  -0.7175396084785461f,
  5.102446556091309f,
  6.120716094970703f,
  10.18428897857666f,
  1.2559032440185547f,
  0.59615558385849f,
  0.35930904746055603f,
  5.490571975708008f,
  9.811893463134766f,
  2.705082893371582f,
  -4.632745742797852f,
  0.9751667976379395f,
  0.12551049888134003f,
  2.086205244064331f,
  4.880249977111816f,
  5.034605503082275f,
  1.174940824508667f,
  3.101257085800171f,
  -2.7436206340789795f,
  7.339430332183838f,
  0.535111665725708f,
  -1.3848899602890015f,
  4.260130882263184f,
  -3.7450995445251465f,
  5.917512893676758f,
  3.293593406677246f,
  -0.0009811356430873275f,
  -2.9723081588745117f,
  -12.88046646118164f,
  -5.086467742919922f,
  3.827104091644287f,
  1.4717410802841187f,
  -6.669090270996094f,
  -5.498298645019531f,
  -19.94641876220703f,
  -2.3773460388183594f,
  -7.09689474105835f,
  -4.879323482513428f,
  0.5282022356987f,
  -2.4118592739105225f,
  -0.3236364424228668f,
  -7.328654766082764f,
  -3.916130781173706f,
  -8.045748710632324f,
  0.12418624758720398f,
  -8.801736831665039f,
  0.5544411540031433f,
  -0.32871589064598083f,
  3.953853130340576f,
  1.68777334690094f,
  -11.923445701599121f,
  -4.847851753234863f,
  -10.582101821899414f,
  -2.0059773921966553f,
  7.029057025909424f,
  -0.05773289129137993f,
  10.305744171142578f,
  -7.220687389373779f,
  -10.505650520324707f,
  5.760551929473877f,
  -1.6174851655960083f,
  -0.10443925857543945f,
  -3.0794923305511475f,
  0.201129749417305f,
  8.706658363342285f,
  6.51430082321167f,
  2.506448268890381f,
  -2.4653005599975586f,
  2.5153720378875732f,
  -3.448986530303955f,
  -3.0296177864074707f,
  7.140480041503906f,
  5.42569637298584f,
  7.779262065887451f,
  -3.9913108348846436f,
  -2.5389044284820557f,
  7.010883808135986f,
  -3.292546033859253f,
  4.887265682220459f,
  3.687178134918213f,
  4.904543876647949f,
  5.742715835571289f,
  -2.4785923957824707f,
  6.386083126068115f,
  0.5883552432060242f,
  -1.4277182817459106f,
  4.632574558258057f,
  2.314260482788086f,
  1.5866596698760986f,
  2.8779618740081787f,
  -0.815143883228302f,
  -2.594243049621582f,
  -10.641155242919922f,
  -2.6799261569976807f,
  4.031286716461182f,
  -6.827167987823486f,
  6.9778971672058105f,
  -1.1175084114074707f,
  -13.38014030456543f,
  -6.136382579803467f,
  -7.202818870544434f,
  -6.48402738571167f,
  -0.1743135154247284f,
  0.7318134903907776f,
  4.85718297958374f,
  -5.4858903884887695f,
  -1.5215873718261719f,
  -8.09571647644043f,
  4.247030258178711f,
  -6.212055683135986f,
  1.2111977338790894f,
  -1.7550504207611084f,
  8.52761173248291f,
  6.602874755859375f,
  -9.943583488464355f,
  -9.877902030944824f,
  -13.198312759399414f,
  -1.7691423892974854f,
  0.3749332129955292f,
  0.07024835795164108f,
  6.684386253356934f,
  2.857916831970215f,
  -3.879878520965576f,
  7.595135688781738f,
  1.3670209646224976f,
  3.3427951335906982f,
  0.07865217328071594f,
  4.409217357635498f,
  2.107222557067871f,
  -6.077080726623535f,
  -0.3244892954826355f,
  -3.048598289489746f,
  3.4333300590515137f,
  -3.8733747005462646f,
  0.12855879962444305f,
  9.250694274902344f,
  1.984516978263855f,
  -0.21933245658874512f,
  0.04880774766206741f,
  0.19599568843841553f,
  0.8122557401657104f,
  -0.15018917620182037f,
  4.492380619049072f,
  2.3337721824645996f,
  0.149115189909935f,
  0.9706073999404907f,
  -0.6429681777954102f,
  0.05038613826036453f,
  1.330925703048706f,
  4.6860833168029785f,
  5.481815338134766f,
  -2.3944711685180664f,
  -0.592774510383606f,
  -0.4483361542224884f,
  1.5172255039215088f,
  -0.21116214990615845f,
  -3.669234275817871f,
  -1.2979050874710083f,
  6.590274333953857f,
  2.195671796798706f,
  0.4506676197052002f,
  0.12356238067150116f,
  0.36318597197532654f,
  -5.205178260803223f,
  -4.584385871887207f,
  -3.578861713409424f,
  -13.510132789611816f,
  6.638632774353027f,
  -0.8740057945251465f,
  1.7446017265319824f,
  -2.7516143321990967f,
  -6.885493278503418f,
  -5.864406108856201f,
  -7.125621795654297f,
  -4.424367427825928f,
  6.84808874130249f,
  0.07625377923250198f,
  0.3310251235961914f,
  -2.341449499130249f,
  -3.757436990737915f,
  -5.942509651184082f,
  -1.831966519355774f,
  5.162181377410889f,
  4.084089279174805f,
  1.3320388793945312f,
  -1.7640546560287476f,
  0.6281038522720337f,
  -0.47306492924690247f,
  1.9509801864624023f,
  -0.1753954142332077f,
  6.131130218505859f,
  -2.6914608478546143f,
  3.6106882095336914f,
  -0.6691776514053345f,
  0.11554580181837082f,
  -0.10422120243310928f,
  -1.5340774059295654f,
  -0.07937196642160416f,
  5.8229289054870605f,
  0.5661148428916931f,
  -0.22743016481399536f,
  -1.4913257360458374f,
  -0.06334570050239563f,
  -0.25797519087791443f,
  0.47693711519241333f,
  1.4676107168197632f,
  3.1933445930480957f,
  1.7800354957580566f,
  0.06541337817907333f,
  0.28558748960494995f,
  1.3584645986557007f,
  -0.9026323556900024f,
  1.7374805212020874f,
  4.658656120300293f,
  4.235289573669434f,
  -1.6901768445968628f,
  -0.4843378961086273f,
  0.43067166209220886f,
  0.705884575843811f,
  -0.6316529512405396f,
  -2.989400625228882f,
  -1.2396128177642822f,
  4.363651275634766f,
  3.7350966930389404f,
  0.062480226159095764f,
  -0.06508978456258774f,
  -0.03808152303099632f,
  -4.053836822509766f,
  -4.4759674072265625f,
  -3.1448354721069336f,
  2.151411771774292f,
  5.320833206176758f,
  -0.921978235244751f,
  0.567004382610321f,
  -2.6010844707489014f,
  -6.658976078033447f,
  -4.416497230529785f,
  -6.046733856201172f,
  0.17282336950302124f,
  7.288398265838623f,
  -0.2344673126935959f,
  0.5799646377563477f,
  -1.7164241075515747f,
  -4.298234939575195f,
  -4.133076190948486f,
  -2.1837549209594727f,
  4.0367960929870605f,
  4.034142971038818f,
  1.2478773593902588f,
  0.16376352310180664f,
  0.2985619604587555f,
  -0.8047195672988892f,
  1.5647236108779907f,
  0.19120128452777863f,
  6.0862884521484375f,
  0.6080868244171143f,
  1.8613563776016235f,
  -0.13487371802330017f,
  -0.6968011260032654f,
  -0.568928599357605f,
  -0.6863418221473694f,
  0.9836222529411316f,
  4.643353462219238f,
  -1.7894642353057861f,
  1.6386897563934326f,
  -0.16766618192195892f,
  -0.029887860640883446f,
  -1.2185245752334595f,
  -0.045129887759685516f,
  -1.0705839395523071f,
  0.8126306533813477f,
  9.518712997436523f,
  -0.7819240093231201f,
  -0.5016659498214722f,
  -0.3352634608745575f,
  -0.0880012959241867f,
  -0.005660509690642357f,
  1.1827208995819092f,
  -0.6575766205787659f,
  -6.142115592956543f,
  -0.010540250688791275f,
  -0.24466624855995178f,
  -0.08176868408918381f,
  0.9149492979049683f,
  -1.440909743309021f,
  -1.0053539276123047f,
  -0.8514127135276794f,
  -7.830568790435791f,
  0.5639617443084717f,
  0.40598776936531067f,
  -0.23623502254486084f,
  -4.519484043121338f,
  -2.7415080070495605f,
  -4.102895736694336f,
  -1.0218839645385742f,
  -12.81793212890625f,
  -0.45449355244636536f,
  -0.8741132616996765f,
  1.1230192184448242f,
  -2.6136672496795654f,
  -3.610609769821167f,
  -2.843803644180298f,
  -0.8916559815406799f,
  4.328680038452148f,
  0.004672034177929163f,
  0.008671572431921959f,
  -0.3702671527862549f,
  -1.4357963800430298f,
  -4.732659816741943f,
  -1.0207058191299438f,
  -0.9401626586914062f,
  -1.153568983078003f,
  -0.06578552722930908f,
  -0.7084865570068359f,
  -0.20259957015514374f,
  -0.5287821888923645f,
  0.6024539470672607f,
  -0.44465887546539307f,
  -0.8824822306632996f,
  -3.4822945594787598f,
  0.774175763130188f,
  -0.258608341217041f,
  0.3015097379684448f,
  -0.6928367614746094f,
  0.3815110921859741f,
  0.06793767213821411f,
  0.14734408259391785f,
  12.09664535522461f,
  1.6349294185638428f,
  0.4699184000492096f,
  -0.15695549547672272f,
  0.13200022280216217f,
  -0.38045594096183777f,
  -0.9756076335906982f,
  0.538528323173523f,
  7.821516513824463f,
  0.13678306341171265f,
  -0.8528141379356384f,
  -0.06650319695472717f,
  -0.32992222905158997f,
  -0.06571433693170547f,
  -0.04018056392669678f,
  -0.47257497906684875f,
  12.587895393371582f,
  0.09935566782951355f,
  -0.2397320419549942f,
  -0.6077571511268616f,
  0.9896574020385742f,
  -0.759981095790863f,
  -1.6954542398452759f,
  -0.6983409523963928f,
  6.760744571685791f,
  0.5285340547561646f,
  0.46149247884750366f,
  -0.23169459402561188f,
  -4.773736953735352f,
  -3.05908203125f,
  -3.5366392135620117f,
  -0.2986550033092499f,
  4.936187744140625f,
  -0.49931204319000244f,
  -0.7809696793556213f,
  1.5187197923660278f,
  -2.655601978302002f,
  -3.028137683868408f,
  -2.868408441543579f,
  -0.32119372487068176f,
  2.519993543624878f,
  0.28518146276474f,
  0.2499055564403534f,
  -0.03474433347582817f,
  -1.5106562376022339f,
  -4.605423927307129f,
  -0.4434959292411804f,
  -1.469580888748169f,
  5.525543212890625f,
  0.35589927434921265f,
  -0.17402788996696472f,
  -0.24201400578022003f,
  -0.6926025152206421f,
  0.08670417964458466f,
  -0.8013571500778198f,
  -0.1264747828245163f,
  -4.664918422698975f,
  1.068558931350708f,
  0.27022990584373474f,
  -0.1488880068063736f,
  -0.15658515691757202f,
  0.21909359097480774f,
  0.35709595680236816f,
  1.093643307685852f,
  5.838162899017334f,
  6.113935470581055f,
  3.859295129776001f,
  -1.8078445196151733f,
  1.083290457725525f,
  -2.1629178524017334f,
  0.17588652670383453f,
  2.4923133850097656f,
  10.7139310836792f,
  4.8553466796875f,
  7.726938247680664f,
  3.658189296722412f,
  0.630646288394928f,
  -2.1364924907684326f,
  3.87972354888916f,
  -3.2819230556488037f,
  -1.8780711889266968f,
  -0.8438916206359863f,
  -4.113897323608398f,
  -4.471353054046631f,
  -1.2856658697128296f,
  -8.02324104309082f,
  -2.9209237098693848f,
  9.707225799560547f,
  3.93578839302063f,
  -1.5477405786514282f,
  2.195875644683838f,
  -1.0986618995666504f,
  -4.868037700653076f,
  -3.8141446113586426f,
  -4.042342185974121f,
  -7.855584621429443f,
  4.5663628578186035f,
  3.635420083999634f,
  -0.29249197244644165f,
  -0.9018957614898682f,
  2.3613975048065186f,
  -3.6608128547668457f,
  -0.39565134048461914f,
  3.6960177421569824f,
  -0.22229504585266113f,
  2.1922616958618164f,
  1.941870927810669f,
  -0.6490544080734253f,
  -6.278206825256348f,
  -2.518099784851074f,
